<?xml version="1.0"?>
<opencv_storage>
<cascade>
  <stageType>BOOST</stageType>
  <featureType>HAAR</featureType>
  <height>28</height>
  <width>23</width>
  <stageParams>
    <boostType>GAB</boostType>
    <minHitRate>9.9900001287460327e-01</minHitRate>
    <maxFalseAlarm>5.0000000000000000e-01</maxFalseAlarm>
    <weightTrimRate>9.4999999999999996e-01</weightTrimRate>
    <maxDepth>1</maxDepth>
    <maxWeakCount>40</maxWeakCount></stageParams>
  <featureParams>
    <maxCatCount>0</maxCatCount>
    <featSize>1</featSize>
    <mode>ALL</mode></featureParams>
  <stageNum>10</stageNum>
  <stages>
    <!-- stage 0 -->
    <_>
      <maxWeakCount>11</maxWeakCount>
      <stageThreshold>-1.5881748199462891e+00</stageThreshold>
      <weakClassifiers>
        <_>
          <internalNodes>
            0 -1 72 -7.2125624865293503e-03</internalNodes>
          <leafValues>
            7.1414393186569214e-01 -5.5923569202423096e-01</leafValues></_>
        <_>
          <internalNodes>
            0 -1 204 -2.2040989249944687e-02</internalNodes>
          <leafValues>
            7.7666944265365601e-01 -3.5866123437881470e-01</leafValues></_>
        <_>
          <internalNodes>
            0 -1 14 1.3678334653377533e-02</internalNodes>
          <leafValues>
            -3.6311390995979309e-01 6.0647130012512207e-01</leafValues></_>
        <_>
          <internalNodes>
            0 -1 138 -7.9787410795688629e-03</internalNodes>
          <leafValues>
            3.5258767008781433e-01 -6.3921254873275757e-01</leafValues></_>
        <_>
          <internalNodes>
            0 -1 239 6.7254398018121719e-03</internalNodes>
          <leafValues>
            -3.5791718959808350e-01 5.2799844741821289e-01</leafValues></_>
        <_>
          <internalNodes>
            0 -1 102 8.1439111381769180e-03</internalNodes>
          <leafValues>
            -3.0822697281837463e-01 5.3148692846298218e-01</leafValues></_>
        <_>
          <internalNodes>
            0 -1 5 3.8680518046021461e-03</internalNodes>
          <leafValues>
            -2.4837471544742584e-01 6.3341939449310303e-01</leafValues></_>
        <_>
          <internalNodes>
            0 -1 114 3.3519950229674578e-03</internalNodes>
          <leafValues>
            -2.5815081596374512e-01 5.0084525346755981e-01</leafValues></_>
        <_>
          <internalNodes>
            0 -1 31 3.8191489875316620e-02</internalNodes>
          <leafValues>
            -1.7871409654617310e-01 7.5483769178390503e-01</leafValues></_>
        <_>
          <internalNodes>
            0 -1 214 -1.0076973587274551e-02</internalNodes>
          <leafValues>
            4.5432564616203308e-01 -2.8545448184013367e-01</leafValues></_>
        <_>
          <internalNodes>
            0 -1 135 1.7796792089939117e-02</internalNodes>
          <leafValues>
            -2.3804450035095215e-01 5.5611747503280640e-01</leafValues></_></weakClassifiers></_>
    <!-- stage 1 -->
    <_>
      <maxWeakCount>15</maxWeakCount>
      <stageThreshold>-1.4281265735626221e+00</stageThreshold>
      <weakClassifiers>
        <_>
          <internalNodes>
            0 -1 210 -2.1077279001474380e-02</internalNodes>
          <leafValues>
            7.2353261709213257e-01 -3.2650971412658691e-01</leafValues></_>
        <_>
          <internalNodes>
            0 -1 97 -2.4822043254971504e-02</internalNodes>
          <leafValues>
            6.1438244581222534e-01 -3.4252211451530457e-01</leafValues></_>
        <_>
          <internalNodes>
            0 -1 242 -2.4820499122142792e-02</internalNodes>
          <leafValues>
            6.9117999076843262e-01 -2.1480472385883331e-01</leafValues></_>
        <_>
          <internalNodes>
            0 -1 17 4.9011642113327980e-03</internalNodes>
          <leafValues>
            -3.8281330466270447e-01 4.0871664881706238e-01</leafValues></_>
        <_>
          <internalNodes>
            0 -1 176 5.4520805133506656e-04</internalNodes>
          <leafValues>
            -3.2557511329650879e-01 3.9028704166412354e-01</leafValues></_>
        <_>
          <internalNodes>
            0 -1 169 4.2624161578714848e-03</internalNodes>
          <leafValues>
            -5.8519637584686279e-01 2.1936035156250000e-01</leafValues></_>
        <_>
          <internalNodes>
            0 -1 50 8.7195135653018951e-02</internalNodes>
          <leafValues>
            -1.7847691476345062e-01 6.7279052734375000e-01</leafValues></_>
        <_>
          <internalNodes>
            0 -1 63 -3.7868164479732513e-02</internalNodes>
          <leafValues>
            6.8682521581649780e-01 -1.8701986968517303e-01</leafValues></_>
        <_>
          <internalNodes>
            0 -1 92 -7.0104058831930161e-03</internalNodes>
          <leafValues>
            6.2073189020156860e-01 -1.7499524354934692e-01</leafValues></_>
        <_>
          <internalNodes>
            0 -1 258 3.8825066294521093e-03</internalNodes>
          <leafValues>
            -1.8883293867111206e-01 5.5655652284622192e-01</leafValues></_>
        <_>
          <internalNodes>
            0 -1 218 -3.2954752445220947e-02</internalNodes>
          <leafValues>
            5.4290157556533813e-01 -1.8982714414596558e-01</leafValues></_>
        <_>
          <internalNodes>
            0 -1 186 1.8015889509115368e-04</internalNodes>
          <leafValues>
            -3.0237096548080444e-01 3.4848535060882568e-01</leafValues></_>
        <_>
          <internalNodes>
            0 -1 243 -1.6953483223915100e-02</internalNodes>
          <leafValues>
            6.1121797561645508e-01 -1.6173587739467621e-01</leafValues></_>
        <_>
          <internalNodes>
            0 -1 233 -3.7210222333669662e-02</internalNodes>
          <leafValues>
            6.3779658079147339e-01 -1.4694397151470184e-01</leafValues></_>
        <_>
          <internalNodes>
            0 -1 250 -4.5321802608668804e-03</internalNodes>
          <leafValues>
            4.6990510821342468e-01 -2.2735311090946198e-01</leafValues></_></weakClassifiers></_>
    <!-- stage 2 -->
    <_>
      <maxWeakCount>18</maxWeakCount>
      <stageThreshold>-1.3058341741561890e+00</stageThreshold>
      <weakClassifiers>
        <_>
          <internalNodes>
            0 -1 165 -8.9764371514320374e-03</internalNodes>
          <leafValues>
            6.1546087265014648e-01 -3.0946290493011475e-01</leafValues></_>
        <_>
          <internalNodes>
            0 -1 3 2.7695739641785622e-02</internalNodes>
          <leafValues>
            -2.5554877519607544e-01 6.1033928394317627e-01</leafValues></_>
        <_>
          <internalNodes>
            0 -1 227 -1.3503589667379856e-02</internalNodes>
          <leafValues>
            3.6284297704696655e-01 -3.7840768694877625e-01</leafValues></_>
        <_>
          <internalNodes>
            0 -1 104 2.0172508433461189e-02</internalNodes>
          <leafValues>
            -2.7987274527549744e-01 5.0288337469100952e-01</leafValues></_>
        <_>
          <internalNodes>
            0 -1 123 1.2066625058650970e-02</internalNodes>
          <leafValues>
            -2.8745469450950623e-01 4.3152481317520142e-01</leafValues></_>
        <_>
          <internalNodes>
            0 -1 34 -9.2434920370578766e-02</internalNodes>
          <leafValues>
            -8.7275755405426025e-01 1.9961376488208771e-01</leafValues></_>
        <_>
          <internalNodes>
            0 -1 134 1.7062581609934568e-03</internalNodes>
          <leafValues>
            -3.2878705859184265e-01 3.7950739264488220e-01</leafValues></_>
        <_>
          <internalNodes>
            0 -1 238 -1.2055777013301849e-02</internalNodes>
          <leafValues>
            4.3289843201637268e-01 -2.1294079720973969e-01</leafValues></_>
        <_>
          <internalNodes>
            0 -1 32 4.1307415813207626e-03</internalNodes>
          <leafValues>
            -2.3666681349277496e-01 3.8753157854080200e-01</leafValues></_>
        <_>
          <internalNodes>
            0 -1 22 -1.3795447535812855e-02</internalNodes>
          <leafValues>
            3.7247005105018616e-01 -2.4538488686084747e-01</leafValues></_>
        <_>
          <internalNodes>
            0 -1 206 -2.3863591253757477e-02</internalNodes>
          <leafValues>
            5.3692066669464111e-01 -1.6670106351375580e-01</leafValues></_>
        <_>
          <internalNodes>
            0 -1 132 1.2169175315648317e-03</internalNodes>
          <leafValues>
            -2.5743997097015381e-01 3.7421479821205139e-01</leafValues></_>
        <_>
          <internalNodes>
            0 -1 162 7.4976067990064621e-03</internalNodes>
          <leafValues>
            1.3479401171207428e-01 -6.6299664974212646e-01</leafValues></_>
        <_>
          <internalNodes>
            0 -1 200 -4.7971203923225403e-02</internalNodes>
          <leafValues>
            -8.2805925607681274e-01 1.0171087086200714e-01</leafValues></_>
        <_>
          <internalNodes>
            0 -1 12 -1.0434323549270630e-01</internalNodes>
          <leafValues>
            -7.9808419942855835e-01 9.1717235743999481e-02</leafValues></_>
        <_>
          <internalNodes>
            0 -1 96 1.9364584237337112e-02</internalNodes>
          <leafValues>
            -1.7156706750392914e-01 5.4117131233215332e-01</leafValues></_>
        <_>
          <internalNodes>
            0 -1 124 1.0274263098835945e-02</internalNodes>
          <leafValues>
            -2.7557262778282166e-01 3.8808670639991760e-01</leafValues></_>
        <_>
          <internalNodes>
            0 -1 27 1.0804357007145882e-02</internalNodes>
          <leafValues>
            -3.1902468204498291e-01 2.8995558619499207e-01</leafValues></_></weakClassifiers></_>
    <!-- stage 3 -->
    <_>
      <maxWeakCount>22</maxWeakCount>
      <stageThreshold>-1.2689033746719360e+00</stageThreshold>
      <weakClassifiers>
        <_>
          <internalNodes>
            0 -1 28 1.0628709197044373e-01</internalNodes>
          <leafValues>
            -6.6874027252197266e-02 7.1730512380599976e-01</leafValues></_>
        <_>
          <internalNodes>
            0 -1 15 1.2931574136018753e-02</internalNodes>
          <leafValues>
            -3.3885914087295532e-01 4.5058089494705200e-01</leafValues></_>
        <_>
          <internalNodes>
            0 -1 212 -1.5051787719130516e-02</internalNodes>
          <leafValues>
            3.3131033182144165e-01 -4.1870817542076111e-01</leafValues></_>
        <_>
          <internalNodes>
            0 -1 37 -1.6086149960756302e-02</internalNodes>
          <leafValues>
            2.3905742168426514e-01 -4.7590932250022888e-01</leafValues></_>
        <_>
          <internalNodes>
            0 -1 148 1.7763555049896240e-02</internalNodes>
          <leafValues>
            -2.8092741966247559e-01 3.5118487477302551e-01</leafValues></_>
        <_>
          <internalNodes>
            0 -1 25 5.6923953816294670e-03</internalNodes>
          <leafValues>
            -2.6582610607147217e-01 4.5487877726554871e-01</leafValues></_>
        <_>
          <internalNodes>
            0 -1 177 -5.3475040476769209e-04</internalNodes>
          <leafValues>
            3.9851051568984985e-01 -2.2300635278224945e-01</leafValues></_>
        <_>
          <internalNodes>
            0 -1 78 2.3923581466078758e-02</internalNodes>
          <leafValues>
            -1.7911222577095032e-01 4.9049645662307739e-01</leafValues></_>
        <_>
          <internalNodes>
            0 -1 49 -1.0067898035049438e-01</internalNodes>
          <leafValues>
            7.3000240325927734e-01 -1.2209846824407578e-01</leafValues></_>
        <_>
          <internalNodes>
            0 -1 64 -8.3034262061119080e-02</internalNodes>
          <leafValues>
            -7.6470404863357544e-01 1.3707959651947021e-01</leafValues></_>
        <_>
          <internalNodes>
            0 -1 179 9.0947765856981277e-03</internalNodes>
          <leafValues>
            -1.5493164956569672e-01 5.7875037193298340e-01</leafValues></_>
        <_>
          <internalNodes>
            0 -1 213 2.1494536194950342e-03</internalNodes>
          <leafValues>
            -2.3528952896595001e-01 3.1597089767456055e-01</leafValues></_>
        <_>
          <internalNodes>
            0 -1 184 4.9361269921064377e-02</internalNodes>
          <leafValues>
            1.1046520620584488e-01 -6.7774707078933716e-01</leafValues></_>
        <_>
          <internalNodes>
            0 -1 66 -4.2510591447353363e-03</internalNodes>
          <leafValues>
            1.6330815851688385e-01 -4.6838182210922241e-01</leafValues></_>
        <_>
          <internalNodes>
            0 -1 146 1.9981492310762405e-02</internalNodes>
          <leafValues>
            -1.8441899120807648e-01 4.3318492174148560e-01</leafValues></_>
        <_>
          <internalNodes>
            0 -1 39 -4.6903356909751892e-02</internalNodes>
          <leafValues>
            4.1427987813949585e-01 -2.1776492893695831e-01</leafValues></_>
        <_>
          <internalNodes>
            0 -1 94 7.6004839502274990e-03</internalNodes>
          <leafValues>
            -2.2743730247020721e-01 3.5102218389511108e-01</leafValues></_>
        <_>
          <internalNodes>
            0 -1 142 4.6286452561616898e-03</internalNodes>
          <leafValues>
            -2.6707914471626282e-01 2.9567277431488037e-01</leafValues></_>
        <_>
          <internalNodes>
            0 -1 173 9.8243402317166328e-04</internalNodes>
          <leafValues>
            -1.6856151819229126e-01 4.6172493696212769e-01</leafValues></_>
        <_>
          <internalNodes>
            0 -1 180 5.8192526921629906e-03</internalNodes>
          <leafValues>
            1.2198096513748169e-01 -6.9363147020339966e-01</leafValues></_>
        <_>
          <internalNodes>
            0 -1 260 2.3700217716395855e-03</internalNodes>
          <leafValues>
            -1.8079157173633575e-01 4.7426220774650574e-01</leafValues></_>
        <_>
          <internalNodes>
            0 -1 110 -1.5103521291166544e-03</internalNodes>
          <leafValues>
            3.5430887341499329e-01 -2.2263562679290771e-01</leafValues></_></weakClassifiers></_>
    <!-- stage 4 -->
    <_>
      <maxWeakCount>29</maxWeakCount>
      <stageThreshold>-1.3737864494323730e+00</stageThreshold>
      <weakClassifiers>
        <_>
          <internalNodes>
            0 -1 51 1.1913303285837173e-02</internalNodes>
          <leafValues>
            -3.2646048069000244e-01 5.3651940822601318e-01</leafValues></_>
        <_>
          <internalNodes>
            0 -1 11 2.5377005338668823e-02</internalNodes>
          <leafValues>
            -2.8887346386909485e-01 4.3517395853996277e-01</leafValues></_>
        <_>
          <internalNodes>
            0 -1 211 -3.6472469568252563e-02</internalNodes>
          <leafValues>
            3.2460746169090271e-01 -3.4540775418281555e-01</leafValues></_>
        <_>
          <internalNodes>
            0 -1 105 2.1245043724775314e-02</internalNodes>
          <leafValues>
            -2.3738415539264679e-01 4.3447971343994141e-01</leafValues></_>
        <_>
          <internalNodes>
            0 -1 229 -1.0897783562541008e-02</internalNodes>
          <leafValues>
            3.9475622773170471e-01 -2.1556617319583893e-01</leafValues></_>
        <_>
          <internalNodes>
            0 -1 76 1.0446857661008835e-02</internalNodes>
          <leafValues>
            -1.8129336833953857e-01 5.8972358703613281e-01</leafValues></_>
        <_>
          <internalNodes>
            0 -1 57 -4.5111589133739471e-03</internalNodes>
          <leafValues>
            2.3638671636581421e-01 -3.7599179148674011e-01</leafValues></_>
        <_>
          <internalNodes>
            0 -1 149 2.9961336404085159e-03</internalNodes>
          <leafValues>
            8.0818377435207367e-02 -8.2351082563400269e-01</leafValues></_>
        <_>
          <internalNodes>
            0 -1 262 -2.6145942509174347e-02</internalNodes>
          <leafValues>
            5.3013461828231812e-01 -1.4910754561424255e-01</leafValues></_>
        <_>
          <internalNodes>
            0 -1 193 -7.8733998816460371e-04</internalNodes>
          <leafValues>
            2.9679685831069946e-01 -2.5811338424682617e-01</leafValues></_>
        <_>
          <internalNodes>
            0 -1 13 -5.9881173074245453e-03</internalNodes>
          <leafValues>
            5.1642501354217529e-01 -1.5150000154972076e-01</leafValues></_>
        <_>
          <internalNodes>
            0 -1 185 -4.4011357240378857e-03</internalNodes>
          <leafValues>
            3.5837656259536743e-01 -2.2101479768753052e-01</leafValues></_>
        <_>
          <internalNodes>
            0 -1 125 4.5066047459840775e-03</internalNodes>
          <leafValues>
            1.0153196752071381e-01 -6.8078058958053589e-01</leafValues></_>
        <_>
          <internalNodes>
            0 -1 115 1.2992132455110550e-02</internalNodes>
          <leafValues>
            9.1155521571636200e-02 -5.7550644874572754e-01</leafValues></_>
        <_>
          <internalNodes>
            0 -1 166 5.7094696909189224e-02</internalNodes>
          <leafValues>
            7.7874459326267242e-02 -8.2600122690200806e-01</leafValues></_>
        <_>
          <internalNodes>
            0 -1 221 1.1218037689104676e-03</internalNodes>
          <leafValues>
            -2.1462117135524750e-01 3.0711942911148071e-01</leafValues></_>
        <_>
          <internalNodes>
            0 -1 65 -1.2835004366934299e-02</internalNodes>
          <leafValues>
            5.0212162733078003e-01 -1.3104926049709320e-01</leafValues></_>
        <_>
          <internalNodes>
            0 -1 95 2.8041703626513481e-02</internalNodes>
          <leafValues>
            -1.5049269795417786e-01 4.8984006047248840e-01</leafValues></_>
        <_>
          <internalNodes>
            0 -1 36 1.1799032986164093e-01</internalNodes>
          <leafValues>
            -1.3318175077438354e-01 5.0082552433013916e-01</leafValues></_>
        <_>
          <internalNodes>
            0 -1 58 -2.6953583583235741e-02</internalNodes>
          <leafValues>
            6.7699462175369263e-01 -1.0713788121938705e-01</leafValues></_>
        <_>
          <internalNodes>
            0 -1 59 -8.3954501897096634e-03</internalNodes>
          <leafValues>
            5.1052725315093994e-01 -1.4687228202819824e-01</leafValues></_>
        <_>
          <internalNodes>
            0 -1 182 1.9781077280640602e-03</internalNodes>
          <leafValues>
            1.2985056638717651e-01 -6.0182702541351318e-01</leafValues></_>
        <_>
          <internalNodes>
            0 -1 248 1.4702477492392063e-03</internalNodes>
          <leafValues>
            -1.4439104497432709e-01 5.2721619606018066e-01</leafValues></_>
        <_>
          <internalNodes>
            0 -1 118 -2.9993861913681030e-02</internalNodes>
          <leafValues>
            2.7975532412528992e-01 -2.1816411614418030e-01</leafValues></_>
        <_>
          <internalNodes>
            0 -1 187 2.3983381688594818e-03</internalNodes>
          <leafValues>
            9.1173678636550903e-02 -7.1372318267822266e-01</leafValues></_>
        <_>
          <internalNodes>
            0 -1 88 3.4096479415893555e-02</internalNodes>
          <leafValues>
            5.5750481784343719e-02 -9.0258067846298218e-01</leafValues></_>
        <_>
          <internalNodes>
            0 -1 170 1.2821906711906195e-03</internalNodes>
          <leafValues>
            -2.1126389503479004e-01 2.7698415517807007e-01</leafValues></_>
        <_>
          <internalNodes>
            0 -1 224 1.5063046477735043e-02</internalNodes>
          <leafValues>
            1.1024076491594315e-01 -5.8729058504104614e-01</leafValues></_>
        <_>
          <internalNodes>
            0 -1 190 1.5653695445507765e-03</internalNodes>
          <leafValues>
            -2.5857934355735779e-01 2.3673084378242493e-01</leafValues></_></weakClassifiers></_>
    <!-- stage 5 -->
    <_>
      <maxWeakCount>30</maxWeakCount>
      <stageThreshold>-1.1294275522232056e+00</stageThreshold>
      <weakClassifiers>
        <_>
          <internalNodes>
            0 -1 26 2.5346672534942627e-01</internalNodes>
          <leafValues>
            1.0238095372915268e-01 7.3928570747375488e-01</leafValues></_>
        <_>
          <internalNodes>
            0 -1 216 -2.3775104433298111e-02</internalNodes>
          <leafValues>
            3.8826408982276917e-01 -2.4698564410209656e-01</leafValues></_>
        <_>
          <internalNodes>
            0 -1 29 1.7530709505081177e-02</internalNodes>
          <leafValues>
            -2.9578027129173279e-01 3.1929594278335571e-01</leafValues></_>
        <_>
          <internalNodes>
            0 -1 163 2.4673896841704845e-03</internalNodes>
          <leafValues>
            1.1290867626667023e-01 -7.6627349853515625e-01</leafValues></_>
        <_>
          <internalNodes>
            0 -1 98 6.9689780473709106e-02</internalNodes>
          <leafValues>
            -1.8847239017486572e-01 4.8235496878623962e-01</leafValues></_>
        <_>
          <internalNodes>
            0 -1 40 -8.6677581071853638e-02</internalNodes>
          <leafValues>
            5.4421555995941162e-01 -1.9482541084289551e-01</leafValues></_>
        <_>
          <internalNodes>
            0 -1 198 1.6752067953348160e-02</internalNodes>
          <leafValues>
            -1.7400796711444855e-01 3.8758927583694458e-01</leafValues></_>
        <_>
          <internalNodes>
            0 -1 232 2.1884433925151825e-02</internalNodes>
          <leafValues>
            -1.3357971608638763e-01 5.7248622179031372e-01</leafValues></_>
        <_>
          <internalNodes>
            0 -1 33 -3.8998037576675415e-02</internalNodes>
          <leafValues>
            -5.8917862176895142e-01 1.2202513962984085e-01</leafValues></_>
        <_>
          <internalNodes>
            0 -1 154 1.2884924653917551e-03</internalNodes>
          <leafValues>
            -1.3207803666591644e-01 4.9542084336280823e-01</leafValues></_>
        <_>
          <internalNodes>
            0 -1 158 -5.3394511342048645e-02</internalNodes>
          <leafValues>
            4.5451924204826355e-01 -1.2995804846286774e-01</leafValues></_>
        <_>
          <internalNodes>
            0 -1 220 3.9214439690113068e-02</internalNodes>
          <leafValues>
            -8.3512321114540100e-02 8.3722841739654541e-01</leafValues></_>
        <_>
          <internalNodes>
            0 -1 1 -2.1841041743755341e-02</internalNodes>
          <leafValues>
            5.7703697681427002e-01 -9.5935545861721039e-02</leafValues></_>
        <_>
          <internalNodes>
            0 -1 9 -8.6196651682257652e-03</internalNodes>
          <leafValues>
            5.9068912267684937e-01 -9.5398075878620148e-02</leafValues></_>
        <_>
          <internalNodes>
            0 -1 101 -2.2152285091578960e-03</internalNodes>
          <leafValues>
            -5.0097382068634033e-01 1.2943516671657562e-01</leafValues></_>
        <_>
          <internalNodes>
            0 -1 197 -5.7869954034686089e-03</internalNodes>
          <leafValues>
            1.9741928577423096e-01 -3.1268781423568726e-01</leafValues></_>
        <_>
          <internalNodes>
            0 -1 112 -5.2125263027846813e-03</internalNodes>
          <leafValues>
            6.2312042713165283e-01 -1.0026340186595917e-01</leafValues></_>
        <_>
          <internalNodes>
            0 -1 128 1.3241253793239594e-01</internalNodes>
          <leafValues>
            1.1143912374973297e-01 -6.6181701421737671e-01</leafValues></_>
        <_>
          <internalNodes>
            0 -1 83 3.7133838050067425e-03</internalNodes>
          <leafValues>
            -2.5483930110931396e-01 2.4158000946044922e-01</leafValues></_>
        <_>
          <internalNodes>
            0 -1 116 2.6874931063503027e-03</internalNodes>
          <leafValues>
            -1.7517967522144318e-01 3.2731106877326965e-01</leafValues></_>
        <_>
          <internalNodes>
            0 -1 130 3.1355780083686113e-04</internalNodes>
          <leafValues>
            -1.9848220050334930e-01 3.0820786952972412e-01</leafValues></_>
        <_>
          <internalNodes>
            0 -1 208 -5.7362439110875130e-03</internalNodes>
          <leafValues>
            2.0315150916576385e-01 -3.0030387639999390e-01</leafValues></_>
        <_>
          <internalNodes>
            0 -1 222 2.0210556685924530e-02</internalNodes>
          <leafValues>
            -1.0487908869981766e-01 6.6963160037994385e-01</leafValues></_>
        <_>
          <internalNodes>
            0 -1 126 -2.0921472460031509e-03</internalNodes>
          <leafValues>
            -6.2941944599151611e-01 1.1637913435697556e-01</leafValues></_>
        <_>
          <internalNodes>
            0 -1 127 2.2996268235146999e-03</internalNodes>
          <leafValues>
            -3.0974659323692322e-01 1.8993313610553741e-01</leafValues></_>
        <_>
          <internalNodes>
            0 -1 144 1.0781122837215662e-03</internalNodes>
          <leafValues>
            -2.4343621730804443e-01 2.5344824790954590e-01</leafValues></_>
        <_>
          <internalNodes>
            0 -1 156 1.1405332479625940e-03</internalNodes>
          <leafValues>
            -1.6906706988811493e-01 3.4543770551681519e-01</leafValues></_>
        <_>
          <internalNodes>
            0 -1 108 1.5596244484186172e-02</internalNodes>
          <leafValues>
            -1.8669134378433228e-01 3.0571895837783813e-01</leafValues></_>
        <_>
          <internalNodes>
            0 -1 84 3.3621709793806076e-02</internalNodes>
          <leafValues>
            6.7349478602409363e-02 -9.5183038711547852e-01</leafValues></_>
        <_>
          <internalNodes>
            0 -1 30 -1.2790238484740257e-02</internalNodes>
          <leafValues>
            4.7726601362228394e-01 -1.3851004838943481e-01</leafValues></_></weakClassifiers></_>
    <!-- stage 6 -->
    <_>
      <maxWeakCount>35</maxWeakCount>
      <stageThreshold>-1.2293508052825928e+00</stageThreshold>
      <weakClassifiers>
        <_>
          <internalNodes>
            0 -1 226 -2.7206430211663246e-02</internalNodes>
          <leafValues>
            6.3524591922760010e-01 5.2395209670066833e-02</leafValues></_>
        <_>
          <internalNodes>
            0 -1 2 2.8690228238701820e-02</internalNodes>
          <leafValues>
            -2.0960813760757446e-01 4.3063521385192871e-01</leafValues></_>
        <_>
          <internalNodes>
            0 -1 145 -1.8497597426176071e-02</internalNodes>
          <leafValues>
            2.3511919379234314e-01 -3.7395784258842468e-01</leafValues></_>
        <_>
          <internalNodes>
            0 -1 244 -3.1352974474430084e-02</internalNodes>
          <leafValues>
            5.5130749940872192e-01 -1.4406394958496094e-01</leafValues></_>
        <_>
          <internalNodes>
            0 -1 18 7.9753939062356949e-03</internalNodes>
          <leafValues>
            -3.2726818323135376e-01 2.0757414400577545e-01</leafValues></_>
        <_>
          <internalNodes>
            0 -1 189 -3.4741892013698816e-03</internalNodes>
          <leafValues>
            -7.5060003995895386e-01 9.4886638224124908e-02</leafValues></_>
        <_>
          <internalNodes>
            0 -1 42 1.7202097922563553e-02</internalNodes>
          <leafValues>
            -4.0483400225639343e-01 1.4079652726650238e-01</leafValues></_>
        <_>
          <internalNodes>
            0 -1 87 -1.7672374378889799e-03</internalNodes>
          <leafValues>
            2.8272169828414917e-01 -2.4255789816379547e-01</leafValues></_>
        <_>
          <internalNodes>
            0 -1 24 -9.2952176928520203e-03</internalNodes>
          <leafValues>
            4.3726202845573425e-01 -1.6285234689712524e-01</leafValues></_>
        <_>
          <internalNodes>
            0 -1 247 3.7939257919788361e-02</internalNodes>
          <leafValues>
            -1.1822494119405746e-01 5.3144055604934692e-01</leafValues></_>
        <_>
          <internalNodes>
            0 -1 120 5.2489716559648514e-02</internalNodes>
          <leafValues>
            -6.0703288763761520e-02 7.7480912208557129e-01</leafValues></_>
        <_>
          <internalNodes>
            0 -1 81 -4.3218296021223068e-02</internalNodes>
          <leafValues>
            -8.7940990924835205e-01 8.0963917076587677e-02</leafValues></_>
        <_>
          <internalNodes>
            0 -1 73 -1.2248199433088303e-02</internalNodes>
          <leafValues>
            4.9777930974960327e-01 -1.3017736375331879e-01</leafValues></_>
        <_>
          <internalNodes>
            0 -1 167 -4.3063107877969742e-03</internalNodes>
          <leafValues>
            2.8803977370262146e-01 -1.9489531219005585e-01</leafValues></_>
        <_>
          <internalNodes>
            0 -1 52 -1.3054665923118591e-01</internalNodes>
          <leafValues>
            -8.6591053009033203e-01 6.1822336167097092e-02</leafValues></_>
        <_>
          <internalNodes>
            0 -1 4 9.5086470246315002e-03</internalNodes>
          <leafValues>
            -1.1974579840898514e-01 5.2720218896865845e-01</leafValues></_>
        <_>
          <internalNodes>
            0 -1 137 4.9475226551294327e-03</internalNodes>
          <leafValues>
            7.8586660325527191e-02 -7.7556061744689941e-01</leafValues></_>
        <_>
          <internalNodes>
            0 -1 172 3.3019319176673889e-02</internalNodes>
          <leafValues>
            6.6234000027179718e-02 -7.1252954006195068e-01</leafValues></_>
        <_>
          <internalNodes>
            0 -1 7 3.2150280475616455e-01</internalNodes>
          <leafValues>
            -1.1552809178829193e-01 5.1186180114746094e-01</leafValues></_>
        <_>
          <internalNodes>
            0 -1 121 4.2837396264076233e-02</internalNodes>
          <leafValues>
            -1.2173904478549957e-01 5.3438413143157959e-01</leafValues></_>
        <_>
          <internalNodes>
            0 -1 62 -7.0745602250099182e-02</internalNodes>
          <leafValues>
            6.0967838764190674e-01 -8.1792809069156647e-02</leafValues></_>
        <_>
          <internalNodes>
            0 -1 259 4.7821504995226860e-03</internalNodes>
          <leafValues>
            -1.2182582914829254e-01 4.3397042155265808e-01</leafValues></_>
        <_>
          <internalNodes>
            0 -1 254 3.8130593020468950e-03</internalNodes>
          <leafValues>
            -1.6258236765861511e-01 3.5953757166862488e-01</leafValues></_>
        <_>
          <internalNodes>
            0 -1 188 -1.0915614664554596e-02</internalNodes>
          <leafValues>
            -7.1462500095367432e-01 8.4151051938533783e-02</leafValues></_>
        <_>
          <internalNodes>
            0 -1 157 1.1772916186600924e-03</internalNodes>
          <leafValues>
            -1.2410670518875122e-01 4.5997416973114014e-01</leafValues></_>
        <_>
          <internalNodes>
            0 -1 201 6.1625549569725990e-03</internalNodes>
          <leafValues>
            7.8278690576553345e-02 -7.8183394670486450e-01</leafValues></_>
        <_>
          <internalNodes>
            0 -1 230 9.1950967907905579e-03</internalNodes>
          <leafValues>
            6.9204702973365784e-02 -6.5910208225250244e-01</leafValues></_>
        <_>
          <internalNodes>
            0 -1 209 -1.5371248126029968e-02</internalNodes>
          <leafValues>
            -7.5488233566284180e-01 6.1448864638805389e-02</leafValues></_>
        <_>
          <internalNodes>
            0 -1 255 6.0863047838211060e-03</internalNodes>
          <leafValues>
            -1.4966359734535217e-01 3.5828706622123718e-01</leafValues></_>
        <_>
          <internalNodes>
            0 -1 194 -7.5929559534415603e-04</internalNodes>
          <leafValues>
            3.1858456134796143e-01 -1.6166928410530090e-01</leafValues></_>
        <_>
          <internalNodes>
            0 -1 67 1.3169862329959869e-01</internalNodes>
          <leafValues>
            8.5178390145301819e-02 -6.5307623147964478e-01</leafValues></_>
        <_>
          <internalNodes>
            0 -1 117 1.9484295044094324e-03</internalNodes>
          <leafValues>
            1.0336665064096451e-01 -5.2425563335418701e-01</leafValues></_>
        <_>
          <internalNodes>
            0 -1 159 -3.9308354258537292e-02</internalNodes>
          <leafValues>
            5.9945619106292725e-01 -9.6193306148052216e-02</leafValues></_>
        <_>
          <internalNodes>
            0 -1 23 -1.0555712506175041e-03</internalNodes>
          <leafValues>
            -3.9975520968437195e-01 1.4376911520957947e-01</leafValues></_>
        <_>
          <internalNodes>
            0 -1 107 3.9020078256726265e-03</internalNodes>
          <leafValues>
            6.7679233849048615e-02 -7.2979158163070679e-01</leafValues></_></weakClassifiers></_>
    <!-- stage 7 -->
    <_>
      <maxWeakCount>35</maxWeakCount>
      <stageThreshold>-1.1234085559844971e+00</stageThreshold>
      <weakClassifiers>
        <_>
          <internalNodes>
            0 -1 80 2.2659979760646820e-02</internalNodes>
          <leafValues>
            1.1193112283945084e-01 6.9676321744918823e-01</leafValues></_>
        <_>
          <internalNodes>
            0 -1 203 -3.5945933312177658e-02</internalNodes>
          <leafValues>
            3.4108594059944153e-01 -2.3379009962081909e-01</leafValues></_>
        <_>
          <internalNodes>
            0 -1 103 4.0203966200351715e-02</internalNodes>
          <leafValues>
            -2.2529566287994385e-01 3.7481468915939331e-01</leafValues></_>
        <_>
          <internalNodes>
            0 -1 140 1.2980932369828224e-02</internalNodes>
          <leafValues>
            -2.7890083193778992e-01 2.6129981875419617e-01</leafValues></_>
        <_>
          <internalNodes>
            0 -1 20 -2.1360235288739204e-02</internalNodes>
          <leafValues>
            3.0174142122268677e-01 -2.1812310814857483e-01</leafValues></_>
        <_>
          <internalNodes>
            0 -1 122 4.8671461641788483e-02</internalNodes>
          <leafValues>
            -1.4763651788234711e-01 4.2305406928062439e-01</leafValues></_>
        <_>
          <internalNodes>
            0 -1 48 3.4414157271385193e-02</internalNodes>
          <leafValues>
            -1.1601465195417404e-01 5.2186262607574463e-01</leafValues></_>
        <_>
          <internalNodes>
            0 -1 196 -8.4413615986704826e-03</internalNodes>
          <leafValues>
            1.7663823068141937e-01 -3.6375150084495544e-01</leafValues></_>
        <_>
          <internalNodes>
            0 -1 111 4.5294668525457382e-03</internalNodes>
          <leafValues>
            -1.9042393565177917e-01 3.3096587657928467e-01</leafValues></_>
        <_>
          <internalNodes>
            0 -1 55 -1.0972832143306732e-01</internalNodes>
          <leafValues>
            -6.0045182704925537e-01 1.0144820064306259e-01</leafValues></_>
        <_>
          <internalNodes>
            0 -1 143 -2.7944747125729918e-04</internalNodes>
          <leafValues>
            3.2112354040145874e-01 -2.0116527378559113e-01</leafValues></_>
        <_>
          <internalNodes>
            0 -1 78 2.7823660522699356e-02</internalNodes>
          <leafValues>
            -1.1603414267301559e-01 4.6293517947196960e-01</leafValues></_>
        <_>
          <internalNodes>
            0 -1 252 -2.6685948250815272e-04</internalNodes>
          <leafValues>
            -3.0222642421722412e-01 2.0013868808746338e-01</leafValues></_>
        <_>
          <internalNodes>
            0 -1 91 -1.6364584444090724e-03</internalNodes>
          <leafValues>
            3.7846121191978455e-01 -1.6558077931404114e-01</leafValues></_>
        <_>
          <internalNodes>
            0 -1 151 -9.1592228272929788e-04</internalNodes>
          <leafValues>
            3.1648185849189758e-01 -1.6934201121330261e-01</leafValues></_>
        <_>
          <internalNodes>
            0 -1 164 -7.3692277073860168e-03</internalNodes>
          <leafValues>
            2.0294541120529175e-01 -2.8830295801162720e-01</leafValues></_>
        <_>
          <internalNodes>
            0 -1 199 -9.4755236059427261e-03</internalNodes>
          <leafValues>
            -6.0029655694961548e-01 1.1121823638677597e-01</leafValues></_>
        <_>
          <internalNodes>
            0 -1 205 6.3168955966830254e-03</internalNodes>
          <leafValues>
            7.0824809372425079e-02 -6.2738794088363647e-01</leafValues></_>
        <_>
          <internalNodes>
            0 -1 219 2.2113442420959473e-02</internalNodes>
          <leafValues>
            -8.9930474758148193e-02 6.8673670291900635e-01</leafValues></_>
        <_>
          <internalNodes>
            0 -1 234 1.7394490540027618e-02</internalNodes>
          <leafValues>
            8.6818203330039978e-02 -7.3599112033843994e-01</leafValues></_>
        <_>
          <internalNodes>
            0 -1 202 -1.5369871631264687e-02</internalNodes>
          <leafValues>
            2.3256473243236542e-01 -2.1821244060993195e-01</leafValues></_>
        <_>
          <internalNodes>
            0 -1 133 9.4933100044727325e-03</internalNodes>
          <leafValues>
            -1.9922547042369843e-01 3.0566617846488953e-01</leafValues></_>
        <_>
          <internalNodes>
            0 -1 8 -4.4870469719171524e-03</internalNodes>
          <leafValues>
            5.0816929340362549e-01 -1.0493435710668564e-01</leafValues></_>
        <_>
          <internalNodes>
            0 -1 35 8.9098419994115829e-03</internalNodes>
          <leafValues>
            -1.5071801841259003e-01 3.4093996882438660e-01</leafValues></_>
        <_>
          <internalNodes>
            0 -1 54 1.4563821256160736e-01</internalNodes>
          <leafValues>
            7.5007669627666473e-02 -7.3538035154342651e-01</leafValues></_>
        <_>
          <internalNodes>
            0 -1 153 4.4519559014588594e-04</internalNodes>
          <leafValues>
            -2.0703324675559998e-01 2.6279243826866150e-01</leafValues></_>
        <_>
          <internalNodes>
            0 -1 217 -1.8470969051122665e-02</internalNodes>
          <leafValues>
            5.3047066926956177e-01 -8.7471328675746918e-02</leafValues></_>
        <_>
          <internalNodes>
            0 -1 235 1.6403410583734512e-02</internalNodes>
          <leafValues>
            5.9180084615945816e-02 -9.1402488946914673e-01</leafValues></_>
        <_>
          <internalNodes>
            0 -1 131 -8.2527578342705965e-04</internalNodes>
          <leafValues>
            4.9971365928649902e-01 -1.1823255568742752e-01</leafValues></_>
        <_>
          <internalNodes>
            0 -1 168 1.6194494673982263e-03</internalNodes>
          <leafValues>
            8.0311305820941925e-02 -7.4094045162200928e-01</leafValues></_>
        <_>
          <internalNodes>
            0 -1 249 -3.3343157265335321e-03</internalNodes>
          <leafValues>
            4.5885723829269409e-01 -1.1855373531579971e-01</leafValues></_>
        <_>
          <internalNodes>
            0 -1 106 -5.2858885377645493e-02</internalNodes>
          <leafValues>
            -9.3186408281326294e-01 6.1482504010200500e-02</leafValues></_>
        <_>
          <internalNodes>
            0 -1 245 -4.4821463525295258e-03</internalNodes>
          <leafValues>
            -5.5802679061889648e-01 7.3029272258281708e-02</leafValues></_>
        <_>
          <internalNodes>
            0 -1 56 7.0736929774284363e-03</internalNodes>
          <leafValues>
            -1.9741293787956238e-01 2.5046455860137939e-01</leafValues></_>
        <_>
          <internalNodes>
            0 -1 71 5.4835882037878036e-03</internalNodes>
          <leafValues>
            -1.9350506365299225e-01 2.6151433587074280e-01</leafValues></_></weakClassifiers></_>
    <!-- stage 8 -->
    <_>
      <maxWeakCount>37</maxWeakCount>
      <stageThreshold>-1.0672582387924194e+00</stageThreshold>
      <weakClassifiers>
        <_>
          <internalNodes>
            0 -1 26 2.7855861186981201e-01</internalNodes>
          <leafValues>
            1.4253897964954376e-01 7.4103587865829468e-01</leafValues></_>
        <_>
          <internalNodes>
            0 -1 228 -5.9575252234935760e-03</internalNodes>
          <leafValues>
            2.9326534271240234e-01 -2.8879424929618835e-01</leafValues></_>
        <_>
          <internalNodes>
            0 -1 6 1.3872066512703896e-02</internalNodes>
          <leafValues>
            -1.5984623134136200e-01 4.3258020281791687e-01</leafValues></_>
        <_>
          <internalNodes>
            0 -1 61 5.4082483053207397e-02</internalNodes>
          <leafValues>
            -1.7667284607887268e-01 5.0661283731460571e-01</leafValues></_>
        <_>
          <internalNodes>
            0 -1 240 -7.4562225490808487e-03</internalNodes>
          <leafValues>
            4.0452387928962708e-01 -1.4587379992008209e-01</leafValues></_>
        <_>
          <internalNodes>
            0 -1 85 3.0372150242328644e-02</internalNodes>
          <leafValues>
            -1.8292111158370972e-01 3.1024891138076782e-01</leafValues></_>
        <_>
          <internalNodes>
            0 -1 161 5.5059855803847313e-03</internalNodes>
          <leafValues>
            7.7393926680088043e-02 -7.2668397426605225e-01</leafValues></_>
        <_>
          <internalNodes>
            0 -1 251 -3.7030100822448730e-02</internalNodes>
          <leafValues>
            3.9073494076728821e-01 -1.4254005253314972e-01</leafValues></_>
        <_>
          <internalNodes>
            0 -1 150 -3.2505884766578674e-02</internalNodes>
          <leafValues>
            -8.4496235847473145e-01 5.9616025537252426e-02</leafValues></_>
        <_>
          <internalNodes>
            0 -1 74 -1.2967720627784729e-02</internalNodes>
          <leafValues>
            5.0385254621505737e-01 -1.1107210069894791e-01</leafValues></_>
        <_>
          <internalNodes>
            0 -1 113 9.6562933176755905e-03</internalNodes>
          <leafValues>
            -1.5341012179851532e-01 3.2510972023010254e-01</leafValues></_>
        <_>
          <internalNodes>
            0 -1 246 1.0916112922132015e-02</internalNodes>
          <leafValues>
            7.1053512394428253e-02 -7.7909350395202637e-01</leafValues></_>
        <_>
          <internalNodes>
            0 -1 200 -3.9443060755729675e-02</internalNodes>
          <leafValues>
            -7.0801967382431030e-01 7.0010364055633545e-02</leafValues></_>
        <_>
          <internalNodes>
            0 -1 171 -1.1886385036632419e-03</internalNodes>
          <leafValues>
            3.1177043914794922e-01 -1.9149276614189148e-01</leafValues></_>
        <_>
          <internalNodes>
            0 -1 160 -2.2887489758431911e-03</internalNodes>
          <leafValues>
            -4.9244338274002075e-01 1.0049821436405182e-01</leafValues></_>
        <_>
          <internalNodes>
            0 -1 44 6.4633912406861782e-03</internalNodes>
          <leafValues>
            -2.4770313501358032e-01 2.0553009212017059e-01</leafValues></_>
        <_>
          <internalNodes>
            0 -1 178 1.0723007144406438e-03</internalNodes>
          <leafValues>
            -1.3141375780105591e-01 3.6085513234138489e-01</leafValues></_>
        <_>
          <internalNodes>
            0 -1 141 6.9450445473194122e-02</internalNodes>
          <leafValues>
            7.3339171707630157e-02 -6.5946429967880249e-01</leafValues></_>
        <_>
          <internalNodes>
            0 -1 68 -2.5203626137226820e-03</internalNodes>
          <leafValues>
            2.9303422570228577e-01 -1.6041794419288635e-01</leafValues></_>
        <_>
          <internalNodes>
            0 -1 256 -5.3568808361887932e-03</internalNodes>
          <leafValues>
            4.2003929615020752e-01 -1.1087248474359512e-01</leafValues></_>
        <_>
          <internalNodes>
            0 -1 147 -2.8241924010217190e-03</internalNodes>
          <leafValues>
            -6.3560295104980469e-01 8.1545867025852203e-02</leafValues></_>
        <_>
          <internalNodes>
            0 -1 192 1.4554491499438882e-03</internalNodes>
          <leafValues>
            -1.7705065011978149e-01 2.8636151552200317e-01</leafValues></_>
        <_>
          <internalNodes>
            0 -1 253 4.4859177432954311e-03</internalNodes>
          <leafValues>
            -1.2239598482847214e-01 3.8045516610145569e-01</leafValues></_>
        <_>
          <internalNodes>
            0 -1 89 -2.0223857834935188e-02</internalNodes>
          <leafValues>
            -5.4792922735214233e-01 9.2750944197177887e-02</leafValues></_>
        <_>
          <internalNodes>
            0 -1 109 -1.1722419410943985e-02</internalNodes>
          <leafValues>
            1.7183379828929901e-01 -2.8257709741592407e-01</leafValues></_>
        <_>
          <internalNodes>
            0 -1 0 -2.8025135397911072e-02</internalNodes>
          <leafValues>
            3.2498493790626526e-01 -1.4399987459182739e-01</leafValues></_>
        <_>
          <internalNodes>
            0 -1 77 5.4930634796619415e-02</internalNodes>
          <leafValues>
            -1.8065319955348969e-01 3.5196852684020996e-01</leafValues></_>
        <_>
          <internalNodes>
            0 -1 21 1.8913667881861329e-03</internalNodes>
          <leafValues>
            -8.0909453332424164e-02 5.8692538738250732e-01</leafValues></_>
        <_>
          <internalNodes>
            0 -1 241 -3.7151441210880876e-04</internalNodes>
          <leafValues>
            -3.1522136926651001e-01 1.5022909641265869e-01</leafValues></_>
        <_>
          <internalNodes>
            0 -1 191 5.3231194615364075e-03</internalNodes>
          <leafValues>
            -1.3409008085727692e-01 3.3358150720596313e-01</leafValues></_>
        <_>
          <internalNodes>
            0 -1 175 9.2787174507975578e-03</internalNodes>
          <leafValues>
            -1.5058885514736176e-01 2.9210609197616577e-01</leafValues></_>
        <_>
          <internalNodes>
            0 -1 47 4.6472344547510147e-03</internalNodes>
          <leafValues>
            -1.3638190925121307e-01 3.1582030653953552e-01</leafValues></_>
        <_>
          <internalNodes>
            0 -1 237 -6.7489566281437874e-03</internalNodes>
          <leafValues>
            2.9039251804351807e-01 -1.5483190119266510e-01</leafValues></_>
        <_>
          <internalNodes>
            0 -1 38 9.9532594904303551e-03</internalNodes>
          <leafValues>
            6.6338591277599335e-02 -6.4858925342559814e-01</leafValues></_>
        <_>
          <internalNodes>
            0 -1 152 -3.6814159830100834e-04</internalNodes>
          <leafValues>
            2.5927904248237610e-01 -1.7593741416931152e-01</leafValues></_>
        <_>
          <internalNodes>
            0 -1 174 -1.0253406362608075e-03</internalNodes>
          <leafValues>
            2.6946073770523071e-01 -1.8397845327854156e-01</leafValues></_>
        <_>
          <internalNodes>
            0 -1 155 -7.9998606815934181e-04</internalNodes>
          <leafValues>
            4.6240603923797607e-01 -1.0913781821727753e-01</leafValues></_></weakClassifiers></_>
    <!-- stage 9 -->
    <_>
      <maxWeakCount>34</maxWeakCount>
      <stageThreshold>-9.5626920461654663e-01</stageThreshold>
      <weakClassifiers>
        <_>
          <internalNodes>
            0 -1 139 4.8378370702266693e-03</internalNodes>
          <leafValues>
            -3.1175060197710991e-02 5.2187180519104004e-01</leafValues></_>
        <_>
          <internalNodes>
            0 -1 16 1.1742733418941498e-02</internalNodes>
          <leafValues>
            -3.3491197228431702e-01 2.4559272825717926e-01</leafValues></_>
        <_>
          <internalNodes>
            0 -1 215 -6.7699919454753399e-03</internalNodes>
          <leafValues>
            2.2849978506565094e-01 -3.2366323471069336e-01</leafValues></_>
        <_>
          <internalNodes>
            0 -1 100 3.6587394773960114e-02</internalNodes>
          <leafValues>
            -1.8884965777397156e-01 3.8084188103675842e-01</leafValues></_>
        <_>
          <internalNodes>
            0 -1 60 -8.4349535405635834e-02</internalNodes>
          <leafValues>
            4.0211740136146545e-01 -2.0170173048973083e-01</leafValues></_>
        <_>
          <internalNodes>
            0 -1 86 -8.6999051272869110e-03</internalNodes>
          <leafValues>
            3.2615771889686584e-01 -1.4875957369804382e-01</leafValues></_>
        <_>
          <internalNodes>
            0 -1 69 9.8389228805899620e-03</internalNodes>
          <leafValues>
            -1.8392129242420197e-01 3.2419732213020325e-01</leafValues></_>
        <_>
          <internalNodes>
            0 -1 136 4.1799172759056091e-03</internalNodes>
          <leafValues>
            -1.6851310431957245e-01 2.7832230925559998e-01</leafValues></_>
        <_>
          <internalNodes>
            0 -1 41 -1.9615113735198975e-02</internalNodes>
          <leafValues>
            2.8265631198883057e-01 -1.6989080607891083e-01</leafValues></_>
        <_>
          <internalNodes>
            0 -1 43 9.4385480042546988e-04</internalNodes>
          <leafValues>
            -2.2518409788608551e-01 2.3348614573478699e-01</leafValues></_>
        <_>
          <internalNodes>
            0 -1 129 1.1283305939286947e-03</internalNodes>
          <leafValues>
            -1.1331011354923248e-01 4.4932454824447632e-01</leafValues></_>
        <_>
          <internalNodes>
            0 -1 183 6.9633439183235168e-02</internalNodes>
          <leafValues>
            7.7543847262859344e-02 -7.1660405397415161e-01</leafValues></_>
        <_>
          <internalNodes>
            0 -1 90 -5.0830570980906487e-03</internalNodes>
          <leafValues>
            1.2916056811809540e-01 -3.6104491353034973e-01</leafValues></_>
        <_>
          <internalNodes>
            0 -1 195 5.6787673383951187e-03</internalNodes>
          <leafValues>
            6.8302042782306671e-02 -7.1986186504364014e-01</leafValues></_>
        <_>
          <internalNodes>
            0 -1 257 -4.2054848745465279e-03</internalNodes>
          <leafValues>
            3.9751926064491272e-01 -1.1802663654088974e-01</leafValues></_>
        <_>
          <internalNodes>
            0 -1 225 6.0431230813264847e-02</internalNodes>
          <leafValues>
            -8.8458217680454254e-02 5.8477574586868286e-01</leafValues></_>
        <_>
          <internalNodes>
            0 -1 223 1.3334240764379501e-02</internalNodes>
          <leafValues>
            6.7925386130809784e-02 -8.2339221239089966e-01</leafValues></_>
        <_>
          <internalNodes>
            0 -1 207 1.3462284579873085e-02</internalNodes>
          <leafValues>
            6.3385188579559326e-02 -6.5105110406875610e-01</leafValues></_>
        <_>
          <internalNodes>
            0 -1 236 8.0089719267562032e-04</internalNodes>
          <leafValues>
            1.8335457146167755e-01 -2.4068726599216461e-01</leafValues></_>
        <_>
          <internalNodes>
            0 -1 70 3.2078051008284092e-03</internalNodes>
          <leafValues>
            -2.8254875540733337e-01 1.7738902568817139e-01</leafValues></_>
        <_>
          <internalNodes>
            0 -1 231 -6.0865111649036407e-02</internalNodes>
          <leafValues>
            3.9480158686637878e-01 -1.2004747986793518e-01</leafValues></_>
        <_>
          <internalNodes>
            0 -1 93 -3.8804359734058380e-02</internalNodes>
          <leafValues>
            2.7143734693527222e-01 -1.8305042386054993e-01</leafValues></_>
        <_>
          <internalNodes>
            0 -1 79 3.4544318914413452e-02</internalNodes>
          <leafValues>
            -7.9065538942813873e-02 6.8631005287170410e-01</leafValues></_>
        <_>
          <internalNodes>
            0 -1 119 -3.2734856009483337e-02</internalNodes>
          <leafValues>
            6.0796064138412476e-01 -6.8910717964172363e-02</leafValues></_>
        <_>
          <internalNodes>
            0 -1 45 7.2094551287591457e-03</internalNodes>
          <leafValues>
            -1.0292940586805344e-01 4.6378561854362488e-01</leafValues></_>
        <_>
          <internalNodes>
            0 -1 82 -1.1333175003528595e-01</internalNodes>
          <leafValues>
            -8.0673205852508545e-01 7.1900673210620880e-02</leafValues></_>
        <_>
          <internalNodes>
            0 -1 99 -1.5143910422921181e-02</internalNodes>
          <leafValues>
            -7.8023803234100342e-01 4.7595586627721786e-02</leafValues></_>
        <_>
          <internalNodes>
            0 -1 75 8.5709998384118080e-03</internalNodes>
          <leafValues>
            -1.5137799084186554e-01 3.0837547779083252e-01</leafValues></_>
        <_>
          <internalNodes>
            0 -1 53 1.0439890436828136e-02</internalNodes>
          <leafValues>
            -1.8666546046733856e-01 2.4549828469753265e-01</leafValues></_>
        <_>
          <internalNodes>
            0 -1 10 7.4802283197641373e-03</internalNodes>
          <leafValues>
            -9.7453169524669647e-02 4.6958205103874207e-01</leafValues></_>
        <_>
          <internalNodes>
            0 -1 19 1.3839296996593475e-02</internalNodes>
          <leafValues>
            -1.8415577709674835e-01 2.4428068101406097e-01</leafValues></_>
        <_>
          <internalNodes>
            0 -1 181 -3.5421364009380341e-03</internalNodes>
          <leafValues>
            -5.9187179803848267e-01 7.5229831039905548e-02</leafValues></_>
        <_>
          <internalNodes>
            0 -1 46 -1.1664480902254581e-02</internalNodes>
          <leafValues>
            6.4919322729110718e-01 -8.0166511237621307e-02</leafValues></_>
        <_>
          <internalNodes>
            0 -1 261 -9.6262358129024506e-03</internalNodes>
          <leafValues>
            8.3633065223693848e-01 -4.5189194381237030e-02</leafValues></_></weakClassifiers></_></stages>
  <features>
    <_>
      <rects>
        <_>
          0 0 2 28 -1.</_>
        <_>
          0 7 2 14 2.</_></rects>
      <tilted>0</tilted></_>
    <_>
      <rects>
        <_>
          0 0 4 13 -1.</_>
        <_>
          2 0 2 13 2.</_></rects>
      <tilted>0</tilted></_>
    <_>
      <rects>
        <_>
          0 0 8 12 -1.</_>
        <_>
          0 0 4 6 2.</_>
        <_>
          4 6 4 6 2.</_></rects>
      <tilted>0</tilted></_>
    <_>
      <rects>
        <_>
          0 1 6 16 -1.</_>
        <_>
          0 1 3 8 2.</_>
        <_>
          3 9 3 8 2.</_></rects>
      <tilted>0</tilted></_>
    <_>
      <rects>
        <_>
          0 4 2 14 -1.</_>
        <_>
          0 4 1 7 2.</_>
        <_>
          1 11 1 7 2.</_></rects>
      <tilted>0</tilted></_>
    <_>
      <rects>
        <_>
          0 6 2 12 -1.</_>
        <_>
          0 6 1 6 2.</_>
        <_>
          1 12 1 6 2.</_></rects>
      <tilted>0</tilted></_>
    <_>
      <rects>
        <_>
          0 6 4 10 -1.</_>
        <_>
          0 6 2 5 2.</_>
        <_>
          2 11 2 5 2.</_></rects>
      <tilted>0</tilted></_>
    <_>
      <rects>
        <_>
          0 6 21 9 -1.</_>
        <_>
          7 9 7 3 9.</_></rects>
      <tilted>0</tilted></_>
    <_>
      <rects>
        <_>
          0 7 2 14 -1.</_>
        <_>
          0 7 1 7 2.</_>
        <_>
          1 14 1 7 2.</_></rects>
      <tilted>0</tilted></_>
    <_>
      <rects>
        <_>
          0 9 2 14 -1.</_>
        <_>
          0 9 1 7 2.</_>
        <_>
          1 16 1 7 2.</_></rects>
      <tilted>0</tilted></_>
    <_>
      <rects>
        <_>
          0 9 4 8 -1.</_>
        <_>
          1 9 2 8 2.</_></rects>
      <tilted>0</tilted></_>
    <_>
      <rects>
        <_>
          0 10 6 9 -1.</_>
        <_>
          3 10 3 9 2.</_></rects>
      <tilted>0</tilted></_>
    <_>
      <rects>
        <_>
          0 10 21 10 -1.</_>
        <_>
          0 15 21 5 2.</_></rects>
      <tilted>0</tilted></_>
    <_>
      <rects>
        <_>
          0 11 2 14 -1.</_>
        <_>
          0 11 1 7 2.</_>
        <_>
          1 18 1 7 2.</_></rects>
      <tilted>0</tilted></_>
    <_>
      <rects>
        <_>
          0 11 6 6 -1.</_>
        <_>
          3 11 3 6 2.</_></rects>
      <tilted>0</tilted></_>
    <_>
      <rects>
        <_>
          0 11 6 7 -1.</_>
        <_>
          3 11 3 7 2.</_></rects>
      <tilted>0</tilted></_>
    <_>
      <rects>
        <_>
          0 11 6 8 -1.</_>
        <_>
          3 11 3 8 2.</_></rects>
      <tilted>0</tilted></_>
    <_>
      <rects>
        <_>
          0 12 4 6 -1.</_>
        <_>
          2 12 2 6 2.</_></rects>
      <tilted>0</tilted></_>
    <_>
      <rects>
        <_>
          0 14 6 5 -1.</_>
        <_>
          3 14 3 5 2.</_></rects>
      <tilted>0</tilted></_>
    <_>
      <rects>
        <_>
          0 16 8 4 -1.</_>
        <_>
          4 16 4 4 2.</_></rects>
      <tilted>0</tilted></_>
    <_>
      <rects>
        <_>
          0 16 8 12 -1.</_>
        <_>
          0 16 4 6 2.</_>
        <_>
          4 22 4 6 2.</_></rects>
      <tilted>0</tilted></_>
    <_>
      <rects>
        <_>
          0 17 3 1 -1.</_>
        <_>
          1 17 1 1 3.</_></rects>
      <tilted>0</tilted></_>
    <_>
      <rects>
        <_>
          0 18 10 10 -1.</_>
        <_>
          0 18 5 5 2.</_>
        <_>
          5 23 5 5 2.</_></rects>
      <tilted>0</tilted></_>
    <_>
      <rects>
        <_>
          1 0 2 1 -1.</_>
        <_>
          1 0 1 1 2.</_></rects>
      <tilted>1</tilted></_>
    <_>
      <rects>
        <_>
          1 0 20 2 -1.</_>
        <_>
          1 1 20 1 2.</_></rects>
      <tilted>0</tilted></_>
    <_>
      <rects>
        <_>
          1 1 6 1 -1.</_>
        <_>
          1 1 3 1 2.</_></rects>
      <tilted>1</tilted></_>
    <_>
      <rects>
        <_>
          1 5 21 9 -1.</_>
        <_>
          8 8 7 3 9.</_></rects>
      <tilted>0</tilted></_>
    <_>
      <rects>
        <_>
          1 6 12 13 -1.</_>
        <_>
          4 6 6 13 2.</_></rects>
      <tilted>0</tilted></_>
    <_>
      <rects>
        <_>
          1 7 21 6 -1.</_>
        <_>
          8 9 7 2 9.</_></rects>
      <tilted>0</tilted></_>
    <_>
      <rects>
        <_>
          1 9 9 10 -1.</_>
        <_>
          4 9 3 10 3.</_></rects>
      <tilted>0</tilted></_>
    <_>
      <rects>
        <_>
          1 24 12 4 -1.</_>
        <_>
          1 24 6 2 2.</_>
        <_>
          7 26 6 2 2.</_></rects>
      <tilted>0</tilted></_>
    <_>
      <rects>
        <_>
          2 2 14 8 -1.</_>
        <_>
          2 2 7 4 2.</_>
        <_>
          9 6 7 4 2.</_></rects>
      <tilted>0</tilted></_>
    <_>
      <rects>
        <_>
          2 6 2 8 -1.</_>
        <_>
          2 10 2 4 2.</_></rects>
      <tilted>0</tilted></_>
    <_>
      <rects>
        <_>
          2 7 15 15 -1.</_>
        <_>
          7 12 5 5 9.</_></rects>
      <tilted>0</tilted></_>
    <_>
      <rects>
        <_>
          2 7 18 15 -1.</_>
        <_>
          8 12 6 5 9.</_></rects>
      <tilted>0</tilted></_>
    <_>
      <rects>
        <_>
          2 8 1 15 -1.</_>
        <_>
          2 13 1 5 3.</_></rects>
      <tilted>0</tilted></_>
    <_>
      <rects>
        <_>
          2 8 18 6 -1.</_>
        <_>
          8 10 6 2 9.</_></rects>
      <tilted>0</tilted></_>
    <_>
      <rects>
        <_>
          2 15 17 8 -1.</_>
        <_>
          2 19 17 4 2.</_></rects>
      <tilted>0</tilted></_>
    <_>
      <rects>
        <_>
          3 0 5 3 -1.</_>
        <_>
          2 1 5 1 3.</_></rects>
      <tilted>1</tilted></_>
    <_>
      <rects>
        <_>
          3 0 16 12 -1.</_>
        <_>
          3 3 16 6 2.</_></rects>
      <tilted>0</tilted></_>
    <_>
      <rects>
        <_>
          3 1 16 12 -1.</_>
        <_>
          3 4 16 6 2.</_></rects>
      <tilted>0</tilted></_>
    <_>
      <rects>
        <_>
          3 2 8 3 -1.</_>
        <_>
          5 4 4 3 2.</_></rects>
      <tilted>1</tilted></_>
    <_>
      <rects>
        <_>
          3 3 15 13 -1.</_>
        <_>
          8 3 5 13 3.</_></rects>
      <tilted>0</tilted></_>
    <_>
      <rects>
        <_>
          3 4 6 5 -1.</_>
        <_>
          5 4 2 5 3.</_></rects>
      <tilted>0</tilted></_>
    <_>
      <rects>
        <_>
          3 8 12 3 -1.</_>
        <_>
          7 8 4 3 3.</_></rects>
      <tilted>0</tilted></_>
    <_>
      <rects>
        <_>
          3 17 6 3 -1.</_>
        <_>
          2 18 6 1 3.</_></rects>
      <tilted>1</tilted></_>
    <_>
      <rects>
        <_>
          3 18 6 2 -1.</_>
        <_>
          3 18 6 1 2.</_></rects>
      <tilted>1</tilted></_>
    <_>
      <rects>
        <_>
          3 26 19 2 -1.</_>
        <_>
          3 27 19 1 2.</_></rects>
      <tilted>0</tilted></_>
    <_>
      <rects>
        <_>
          4 0 6 4 -1.</_>
        <_>
          4 0 3 4 2.</_></rects>
      <tilted>1</tilted></_>
    <_>
      <rects>
        <_>
          4 0 16 10 -1.</_>
        <_>
          4 5 16 5 2.</_></rects>
      <tilted>0</tilted></_>
    <_>
      <rects>
        <_>
          4 1 13 12 -1.</_>
        <_>
          4 5 13 4 3.</_></rects>
      <tilted>0</tilted></_>
    <_>
      <rects>
        <_>
          4 5 15 11 -1.</_>
        <_>
          9 5 5 11 3.</_></rects>
      <tilted>0</tilted></_>
    <_>
      <rects>
        <_>
          4 6 18 15 -1.</_>
        <_>
          10 11 6 5 9.</_></rects>
      <tilted>0</tilted></_>
    <_>
      <rects>
        <_>
          4 7 6 4 -1.</_>
        <_>
          6 9 2 4 3.</_></rects>
      <tilted>1</tilted></_>
    <_>
      <rects>
        <_>
          4 10 13 15 -1.</_>
        <_>
          4 15 13 5 3.</_></rects>
      <tilted>0</tilted></_>
    <_>
      <rects>
        <_>
          4 12 18 8 -1.</_>
        <_>
          13 12 9 8 2.</_></rects>
      <tilted>0</tilted></_>
    <_>
      <rects>
        <_>
          4 16 9 3 -1.</_>
        <_>
          7 17 3 1 9.</_></rects>
      <tilted>0</tilted></_>
    <_>
      <rects>
        <_>
          4 16 8 6 -1.</_>
        <_>
          4 19 8 3 2.</_></rects>
      <tilted>0</tilted></_>
    <_>
      <rects>
        <_>
          4 17 7 4 -1.</_>
        <_>
          4 17 7 2 2.</_></rects>
      <tilted>1</tilted></_>
    <_>
      <rects>
        <_>
          4 19 4 4 -1.</_>
        <_>
          3 20 4 2 2.</_></rects>
      <tilted>1</tilted></_>
    <_>
      <rects>
        <_>
          5 0 14 12 -1.</_>
        <_>
          5 3 14 6 2.</_></rects>
      <tilted>0</tilted></_>
    <_>
      <rects>
        <_>
          5 1 9 5 -1.</_>
        <_>
          8 4 3 5 3.</_></rects>
      <tilted>1</tilted></_>
    <_>
      <rects>
        <_>
          5 1 13 8 -1.</_>
        <_>
          5 5 13 4 2.</_></rects>
      <tilted>0</tilted></_>
    <_>
      <rects>
        <_>
          5 3 6 5 -1.</_>
        <_>
          7 5 2 5 3.</_></rects>
      <tilted>1</tilted></_>
    <_>
      <rects>
        <_>
          5 4 15 18 -1.</_>
        <_>
          10 10 5 6 9.</_></rects>
      <tilted>0</tilted></_>
    <_>
      <rects>
        <_>
          5 5 4 5 -1.</_>
        <_>
          6 6 2 5 2.</_></rects>
      <tilted>1</tilted></_>
    <_>
      <rects>
        <_>
          5 10 16 9 -1.</_>
        <_>
          13 10 8 9 2.</_></rects>
      <tilted>0</tilted></_>
    <_>
      <rects>
        <_>
          5 10 12 15 -1.</_>
        <_>
          5 15 12 5 3.</_></rects>
      <tilted>0</tilted></_>
    <_>
      <rects>
        <_>
          5 11 10 2 -1.</_>
        <_>
          5 11 5 1 2.</_>
        <_>
          10 12 5 1 2.</_></rects>
      <tilted>0</tilted></_>
    <_>
      <rects>
        <_>
          5 11 5 6 -1.</_>
        <_>
          5 13 5 2 3.</_></rects>
      <tilted>0</tilted></_>
    <_>
      <rects>
        <_>
          5 11 15 15 -1.</_>
        <_>
          5 16 15 5 3.</_></rects>
      <tilted>0</tilted></_>
    <_>
      <rects>
        <_>
          5 12 6 6 -1.</_>
        <_>
          5 14 6 2 3.</_></rects>
      <tilted>0</tilted></_>
    <_>
      <rects>
        <_>
          5 15 14 8 -1.</_>
        <_>
          5 19 14 4 2.</_></rects>
      <tilted>0</tilted></_>
    <_>
      <rects>
        <_>
          5 18 5 4 -1.</_>
        <_>
          4 19 5 2 2.</_></rects>
      <tilted>1</tilted></_>
    <_>
      <rects>
        <_>
          5 20 4 4 -1.</_>
        <_>
          4 21 4 2 2.</_></rects>
      <tilted>1</tilted></_>
    <_>
      <rects>
        <_>
          5 22 10 6 -1.</_>
        <_>
          5 24 10 2 3.</_></rects>
      <tilted>0</tilted></_>
    <_>
      <rects>
        <_>
          6 0 2 6 -1.</_>
        <_>
          6 0 1 6 2.</_></rects>
      <tilted>1</tilted></_>
    <_>
      <rects>
        <_>
          6 1 13 8 -1.</_>
        <_>
          6 5 13 4 2.</_></rects>
      <tilted>0</tilted></_>
    <_>
      <rects>
        <_>
          6 2 6 5 -1.</_>
        <_>
          8 4 2 5 3.</_></rects>
      <tilted>1</tilted></_>
    <_>
      <rects>
        <_>
          6 3 4 6 -1.</_>
        <_>
          6 3 2 6 2.</_></rects>
      <tilted>1</tilted></_>
    <_>
      <rects>
        <_>
          6 5 6 5 -1.</_>
        <_>
          8 7 2 5 3.</_></rects>
      <tilted>1</tilted></_>
    <_>
      <rects>
        <_>
          6 6 12 5 -1.</_>
        <_>
          10 10 4 5 3.</_></rects>
      <tilted>1</tilted></_>
    <_>
      <rects>
        <_>
          6 6 15 15 -1.</_>
        <_>
          11 11 5 5 9.</_></rects>
      <tilted>0</tilted></_>
    <_>
      <rects>
        <_>
          6 9 2 6 -1.</_>
        <_>
          4 11 2 2 3.</_></rects>
      <tilted>1</tilted></_>
    <_>
      <rects>
        <_>
          6 9 6 8 -1.</_>
        <_>
          9 9 3 8 2.</_></rects>
      <tilted>0</tilted></_>
    <_>
      <rects>
        <_>
          6 9 15 3 -1.</_>
        <_>
          11 10 5 1 9.</_></rects>
      <tilted>0</tilted></_>
    <_>
      <rects>
        <_>
          6 9 5 9 -1.</_>
        <_>
          6 12 5 3 3.</_></rects>
      <tilted>0</tilted></_>
    <_>
      <rects>
        <_>
          6 11 6 5 -1.</_>
        <_>
          8 11 2 5 3.</_></rects>
      <tilted>0</tilted></_>
    <_>
      <rects>
        <_>
          6 11 12 5 -1.</_>
        <_>
          9 11 6 5 2.</_></rects>
      <tilted>0</tilted></_>
    <_>
      <rects>
        <_>
          6 12 15 4 -1.</_>
        <_>
          11 12 5 4 3.</_></rects>
      <tilted>0</tilted></_>
    <_>
      <rects>
        <_>
          6 12 14 9 -1.</_>
        <_>
          13 12 7 9 2.</_></rects>
      <tilted>0</tilted></_>
    <_>
      <rects>
        <_>
          6 13 6 1 -1.</_>
        <_>
          8 13 2 1 3.</_></rects>
      <tilted>0</tilted></_>
    <_>
      <rects>
        <_>
          6 16 1 6 -1.</_>
        <_>
          4 18 1 2 3.</_></rects>
      <tilted>1</tilted></_>
    <_>
      <rects>
        <_>
          7 0 8 4 -1.</_>
        <_>
          7 0 4 4 2.</_></rects>
      <tilted>1</tilted></_>
    <_>
      <rects>
        <_>
          7 1 2 8 -1.</_>
        <_>
          7 5 2 4 2.</_></rects>
      <tilted>0</tilted></_>
    <_>
      <rects>
        <_>
          7 1 6 6 -1.</_>
        <_>
          9 3 2 6 3.</_></rects>
      <tilted>1</tilted></_>
    <_>
      <rects>
        <_>
          7 1 4 7 -1.</_>
        <_>
          7 1 2 7 2.</_></rects>
      <tilted>1</tilted></_>
    <_>
      <rects>
        <_>
          7 2 6 6 -1.</_>
        <_>
          7 2 3 6 2.</_></rects>
      <tilted>1</tilted></_>
    <_>
      <rects>
        <_>
          7 2 8 12 -1.</_>
        <_>
          7 6 8 4 3.</_></rects>
      <tilted>0</tilted></_>
    <_>
      <rects>
        <_>
          7 3 4 21 -1.</_>
        <_>
          8 3 2 21 2.</_></rects>
      <tilted>0</tilted></_>
    <_>
      <rects>
        <_>
          7 3 9 9 -1.</_>
        <_>
          7 6 9 3 3.</_></rects>
      <tilted>0</tilted></_>
    <_>
      <rects>
        <_>
          7 4 3 6 -1.</_>
        <_>
          8 4 1 6 3.</_></rects>
      <tilted>0</tilted></_>
    <_>
      <rects>
        <_>
          7 4 9 1 -1.</_>
        <_>
          10 7 3 1 3.</_></rects>
      <tilted>1</tilted></_>
    <_>
      <rects>
        <_>
          7 4 10 9 -1.</_>
        <_>
          7 7 10 3 3.</_></rects>
      <tilted>0</tilted></_>
    <_>
      <rects>
        <_>
          7 5 6 9 -1.</_>
        <_>
          7 8 6 3 3.</_></rects>
      <tilted>0</tilted></_>
    <_>
      <rects>
        <_>
          7 5 8 8 -1.</_>
        <_>
          7 7 8 4 2.</_></rects>
      <tilted>0</tilted></_>
    <_>
      <rects>
        <_>
          7 5 9 16 -1.</_>
        <_>
          7 9 9 8 2.</_></rects>
      <tilted>0</tilted></_>
    <_>
      <rects>
        <_>
          7 6 3 3 -1.</_>
        <_>
          8 6 1 3 3.</_></rects>
      <tilted>0</tilted></_>
    <_>
      <rects>
        <_>
          7 8 6 6 -1.</_>
        <_>
          9 10 2 2 9.</_></rects>
      <tilted>0</tilted></_>
    <_>
      <rects>
        <_>
          7 9 12 7 -1.</_>
        <_>
          13 9 6 7 2.</_></rects>
      <tilted>0</tilted></_>
    <_>
      <rects>
        <_>
          7 12 6 3 -1.</_>
        <_>
          9 12 2 3 3.</_></rects>
      <tilted>0</tilted></_>
    <_>
      <rects>
        <_>
          7 12 8 3 -1.</_>
        <_>
          9 12 4 3 2.</_></rects>
      <tilted>0</tilted></_>
    <_>
      <rects>
        <_>
          7 12 3 3 -1.</_>
        <_>
          7 13 3 1 3.</_></rects>
      <tilted>0</tilted></_>
    <_>
      <rects>
        <_>
          7 12 9 3 -1.</_>
        <_>
          10 12 3 3 3.</_></rects>
      <tilted>0</tilted></_>
    <_>
      <rects>
        <_>
          7 12 5 4 -1.</_>
        <_>
          7 14 5 2 2.</_></rects>
      <tilted>0</tilted></_>
    <_>
      <rects>
        <_>
          7 12 12 6 -1.</_>
        <_>
          13 12 6 6 2.</_></rects>
      <tilted>0</tilted></_>
    <_>
      <rects>
        <_>
          7 14 5 4 -1.</_>
        <_>
          7 15 5 2 2.</_></rects>
      <tilted>0</tilted></_>
    <_>
      <rects>
        <_>
          7 14 12 8 -1.</_>
        <_>
          7 18 12 4 2.</_></rects>
      <tilted>0</tilted></_>
    <_>
      <rects>
        <_>
          7 17 10 10 -1.</_>
        <_>
          7 22 10 5 2.</_></rects>
      <tilted>0</tilted></_>
    <_>
      <rects>
        <_>
          7 19 3 6 -1.</_>
        <_>
          5 21 3 2 3.</_></rects>
      <tilted>1</tilted></_>
    <_>
      <rects>
        <_>
          8 0 4 8 -1.</_>
        <_>
          8 0 2 8 2.</_></rects>
      <tilted>1</tilted></_>
    <_>
      <rects>
        <_>
          8 0 5 12 -1.</_>
        <_>
          8 4 5 4 3.</_></rects>
      <tilted>0</tilted></_>
    <_>
      <rects>
        <_>
          8 0 8 12 -1.</_>
        <_>
          8 4 8 4 3.</_></rects>
      <tilted>0</tilted></_>
    <_>
      <rects>
        <_>
          8 1 5 9 -1.</_>
        <_>
          8 4 5 3 3.</_></rects>
      <tilted>0</tilted></_>
    <_>
      <rects>
        <_>
          8 3 4 9 -1.</_>
        <_>
          8 6 4 3 3.</_></rects>
      <tilted>0</tilted></_>
    <_>
      <rects>
        <_>
          8 4 3 7 -1.</_>
        <_>
          9 4 1 7 3.</_></rects>
      <tilted>0</tilted></_>
    <_>
      <rects>
        <_>
          8 6 3 3 -1.</_>
        <_>
          9 6 1 3 3.</_></rects>
      <tilted>0</tilted></_>
    <_>
      <rects>
        <_>
          8 6 8 8 -1.</_>
        <_>
          10 6 4 8 2.</_></rects>
      <tilted>0</tilted></_>
    <_>
      <rects>
        <_>
          8 8 9 15 -1.</_>
        <_>
          11 13 3 5 9.</_></rects>
      <tilted>0</tilted></_>
    <_>
      <rects>
        <_>
          8 11 1 3 -1.</_>
        <_>
          8 12 1 1 3.</_></rects>
      <tilted>0</tilted></_>
    <_>
      <rects>
        <_>
          8 12 1 3 -1.</_>
        <_>
          8 13 1 1 3.</_></rects>
      <tilted>0</tilted></_>
    <_>
      <rects>
        <_>
          8 13 2 2 -1.</_>
        <_>
          8 13 1 1 2.</_>
        <_>
          9 14 1 1 2.</_></rects>
      <tilted>0</tilted></_>
    <_>
      <rects>
        <_>
          8 13 4 3 -1.</_>
        <_>
          8 14 4 1 3.</_></rects>
      <tilted>0</tilted></_>
    <_>
      <rects>
        <_>
          8 14 9 3 -1.</_>
        <_>
          11 15 3 1 9.</_></rects>
      <tilted>0</tilted></_>
    <_>
      <rects>
        <_>
          8 14 7 2 -1.</_>
        <_>
          8 15 7 1 2.</_></rects>
      <tilted>0</tilted></_>
    <_>
      <rects>
        <_>
          9 1 6 9 -1.</_>
        <_>
          9 4 6 3 3.</_></rects>
      <tilted>0</tilted></_>
    <_>
      <rects>
        <_>
          9 2 5 8 -1.</_>
        <_>
          9 4 5 4 2.</_></rects>
      <tilted>0</tilted></_>
    <_>
      <rects>
        <_>
          9 4 4 5 -1.</_>
        <_>
          10 4 2 5 2.</_></rects>
      <tilted>0</tilted></_>
    <_>
      <rects>
        <_>
          9 6 12 10 -1.</_>
        <_>
          15 6 6 10 2.</_></rects>
      <tilted>0</tilted></_>
    <_>
      <rects>
        <_>
          9 7 6 6 -1.</_>
        <_>
          11 9 2 2 9.</_></rects>
      <tilted>0</tilted></_>
    <_>
      <rects>
        <_>
          9 8 6 6 -1.</_>
        <_>
          11 10 2 2 9.</_></rects>
      <tilted>0</tilted></_>
    <_>
      <rects>
        <_>
          9 8 12 14 -1.</_>
        <_>
          9 8 6 7 2.</_>
        <_>
          15 15 6 7 2.</_></rects>
      <tilted>0</tilted></_>
    <_>
      <rects>
        <_>
          9 12 5 6 -1.</_>
        <_>
          9 14 5 2 3.</_></rects>
      <tilted>0</tilted></_>
    <_>
      <rects>
        <_>
          9 13 2 1 -1.</_>
        <_>
          10 13 1 1 2.</_></rects>
      <tilted>0</tilted></_>
    <_>
      <rects>
        <_>
          9 13 6 2 -1.</_>
        <_>
          9 14 6 1 2.</_></rects>
      <tilted>0</tilted></_>
    <_>
      <rects>
        <_>
          9 15 12 8 -1.</_>
        <_>
          9 19 12 4 2.</_></rects>
      <tilted>0</tilted></_>
    <_>
      <rects>
        <_>
          10 1 6 9 -1.</_>
        <_>
          10 4 6 3 3.</_></rects>
      <tilted>0</tilted></_>
    <_>
      <rects>
        <_>
          10 4 3 4 -1.</_>
        <_>
          11 4 1 4 3.</_></rects>
      <tilted>0</tilted></_>
    <_>
      <rects>
        <_>
          10 4 6 9 -1.</_>
        <_>
          10 7 6 3 3.</_></rects>
      <tilted>0</tilted></_>
    <_>
      <rects>
        <_>
          10 6 3 3 -1.</_>
        <_>
          11 6 1 3 3.</_></rects>
      <tilted>0</tilted></_>
    <_>
      <rects>
        <_>
          10 10 5 8 -1.</_>
        <_>
          10 14 5 4 2.</_></rects>
      <tilted>0</tilted></_>
    <_>
      <rects>
        <_>
          10 12 4 4 -1.</_>
        <_>
          11 12 2 4 2.</_></rects>
      <tilted>0</tilted></_>
    <_>
      <rects>
        <_>
          10 12 3 5 -1.</_>
        <_>
          11 12 1 5 3.</_></rects>
      <tilted>0</tilted></_>
    <_>
      <rects>
        <_>
          10 15 1 3 -1.</_>
        <_>
          10 16 1 1 3.</_></rects>
      <tilted>0</tilted></_>
    <_>
      <rects>
        <_>
          10 17 1 3 -1.</_>
        <_>
          10 18 1 1 3.</_></rects>
      <tilted>0</tilted></_>
    <_>
      <rects>
        <_>
          10 17 2 2 -1.</_>
        <_>
          10 17 1 1 2.</_>
        <_>
          11 18 1 1 2.</_></rects>
      <tilted>0</tilted></_>
    <_>
      <rects>
        <_>
          10 19 2 3 -1.</_>
        <_>
          10 20 2 1 3.</_></rects>
      <tilted>0</tilted></_>
    <_>
      <rects>
        <_>
          10 21 1 3 -1.</_>
        <_>
          10 22 1 1 3.</_></rects>
      <tilted>0</tilted></_>
    <_>
      <rects>
        <_>
          11 0 12 10 -1.</_>
        <_>
          11 0 6 5 2.</_>
        <_>
          17 5 6 5 2.</_></rects>
      <tilted>0</tilted></_>
    <_>
      <rects>
        <_>
          11 1 12 6 -1.</_>
        <_>
          11 1 6 3 2.</_>
        <_>
          17 4 6 3 2.</_></rects>
      <tilted>0</tilted></_>
    <_>
      <rects>
        <_>
          11 3 4 6 -1.</_>
        <_>
          12 3 2 6 2.</_></rects>
      <tilted>0</tilted></_>
    <_>
      <rects>
        <_>
          11 4 4 6 -1.</_>
        <_>
          12 4 2 6 2.</_></rects>
      <tilted>0</tilted></_>
    <_>
      <rects>
        <_>
          11 4 6 13 -1.</_>
        <_>
          14 4 3 13 2.</_></rects>
      <tilted>0</tilted></_>
    <_>
      <rects>
        <_>
          11 6 3 3 -1.</_>
        <_>
          12 6 1 3 3.</_></rects>
      <tilted>0</tilted></_>
    <_>
      <rects>
        <_>
          11 6 6 10 -1.</_>
        <_>
          14 6 3 10 2.</_></rects>
      <tilted>0</tilted></_>
    <_>
      <rects>
        <_>
          11 6 10 5 -1.</_>
        <_>
          16 6 5 5 2.</_></rects>
      <tilted>0</tilted></_>
    <_>
      <rects>
        <_>
          11 7 8 5 -1.</_>
        <_>
          11 7 4 5 2.</_></rects>
      <tilted>1</tilted></_>
    <_>
      <rects>
        <_>
          11 8 3 6 -1.</_>
        <_>
          11 11 3 3 2.</_></rects>
      <tilted>0</tilted></_>
    <_>
      <rects>
        <_>
          11 9 3 1 -1.</_>
        <_>
          12 9 1 1 3.</_></rects>
      <tilted>0</tilted></_>
    <_>
      <rects>
        <_>
          11 9 10 6 -1.</_>
        <_>
          11 9 5 6 2.</_></rects>
      <tilted>1</tilted></_>
    <_>
      <rects>
        <_>
          11 10 8 3 -1.</_>
        <_>
          11 11 8 1 3.</_></rects>
      <tilted>0</tilted></_>
    <_>
      <rects>
        <_>
          11 11 3 6 -1.</_>
        <_>
          12 11 1 6 3.</_></rects>
      <tilted>0</tilted></_>
    <_>
      <rects>
        <_>
          11 11 4 6 -1.</_>
        <_>
          11 11 4 3 2.</_></rects>
      <tilted>1</tilted></_>
    <_>
      <rects>
        <_>
          11 12 2 1 -1.</_>
        <_>
          11 12 1 1 2.</_></rects>
      <tilted>1</tilted></_>
    <_>
      <rects>
        <_>
          11 12 4 4 -1.</_>
        <_>
          12 12 2 4 2.</_></rects>
      <tilted>0</tilted></_>
    <_>
      <rects>
        <_>
          11 12 5 6 -1.</_>
        <_>
          11 14 5 2 3.</_></rects>
      <tilted>0</tilted></_>
    <_>
      <rects>
        <_>
          11 13 4 2 -1.</_>
        <_>
          11 14 4 1 2.</_></rects>
      <tilted>0</tilted></_>
    <_>
      <rects>
        <_>
          11 14 2 2 -1.</_>
        <_>
          12 14 1 2 2.</_></rects>
      <tilted>0</tilted></_>
    <_>
      <rects>
        <_>
          11 15 1 3 -1.</_>
        <_>
          11 16 1 1 3.</_></rects>
      <tilted>0</tilted></_>
    <_>
      <rects>
        <_>
          11 27 12 1 -1.</_>
        <_>
          17 27 6 1 2.</_></rects>
      <tilted>0</tilted></_>
    <_>
      <rects>
        <_>
          12 3 4 8 -1.</_>
        <_>
          13 3 2 8 2.</_></rects>
      <tilted>0</tilted></_>
    <_>
      <rects>
        <_>
          12 4 4 6 -1.</_>
        <_>
          13 4 2 6 2.</_></rects>
      <tilted>0</tilted></_>
    <_>
      <rects>
        <_>
          12 7 3 3 -1.</_>
        <_>
          13 7 1 3 3.</_></rects>
      <tilted>0</tilted></_>
    <_>
      <rects>
        <_>
          12 7 8 6 -1.</_>
        <_>
          12 7 4 6 2.</_></rects>
      <tilted>1</tilted></_>
    <_>
      <rects>
        <_>
          12 10 8 4 -1.</_>
        <_>
          12 10 4 4 2.</_></rects>
      <tilted>1</tilted></_>
    <_>
      <rects>
        <_>
          12 11 7 6 -1.</_>
        <_>
          10 13 7 2 3.</_></rects>
      <tilted>1</tilted></_>
    <_>
      <rects>
        <_>
          12 14 2 2 -1.</_>
        <_>
          12 15 2 1 2.</_></rects>
      <tilted>0</tilted></_>
    <_>
      <rects>
        <_>
          13 2 2 11 -1.</_>
        <_>
          14 2 1 11 2.</_></rects>
      <tilted>0</tilted></_>
    <_>
      <rects>
        <_>
          13 5 4 19 -1.</_>
        <_>
          14 5 2 19 2.</_></rects>
      <tilted>0</tilted></_>
    <_>
      <rects>
        <_>
          13 6 3 5 -1.</_>
        <_>
          14 6 1 5 3.</_></rects>
      <tilted>0</tilted></_>
    <_>
      <rects>
        <_>
          13 6 2 6 -1.</_>
        <_>
          13 8 2 2 3.</_></rects>
      <tilted>0</tilted></_>
    <_>
      <rects>
        <_>
          13 8 4 3 -1.</_>
        <_>
          14 9 2 3 2.</_></rects>
      <tilted>1</tilted></_>
    <_>
      <rects>
        <_>
          13 11 5 3 -1.</_>
        <_>
          13 12 5 1 3.</_></rects>
      <tilted>0</tilted></_>
    <_>
      <rects>
        <_>
          13 13 1 2 -1.</_>
        <_>
          13 13 1 1 2.</_></rects>
      <tilted>1</tilted></_>
    <_>
      <rects>
        <_>
          13 14 4 2 -1.</_>
        <_>
          13 14 2 1 2.</_>
        <_>
          15 15 2 1 2.</_></rects>
      <tilted>0</tilted></_>
    <_>
      <rects>
        <_>
          13 15 3 5 -1.</_>
        <_>
          14 15 1 5 3.</_></rects>
      <tilted>0</tilted></_>
    <_>
      <rects>
        <_>
          13 15 10 4 -1.</_>
        <_>
          18 15 5 4 2.</_></rects>
      <tilted>0</tilted></_>
    <_>
      <rects>
        <_>
          13 16 6 6 -1.</_>
        <_>
          13 19 6 3 2.</_></rects>
      <tilted>0</tilted></_>
    <_>
      <rects>
        <_>
          13 20 10 8 -1.</_>
        <_>
          13 20 5 4 2.</_>
        <_>
          18 24 5 4 2.</_></rects>
      <tilted>0</tilted></_>
    <_>
      <rects>
        <_>
          14 4 4 20 -1.</_>
        <_>
          15 4 2 20 2.</_></rects>
      <tilted>0</tilted></_>
    <_>
      <rects>
        <_>
          14 9 6 8 -1.</_>
        <_>
          14 9 6 4 2.</_></rects>
      <tilted>1</tilted></_>
    <_>
      <rects>
        <_>
          14 15 3 6 -1.</_>
        <_>
          15 15 1 6 3.</_></rects>
      <tilted>0</tilted></_>
    <_>
      <rects>
        <_>
          14 17 6 8 -1.</_>
        <_>
          14 21 6 4 2.</_></rects>
      <tilted>0</tilted></_>
    <_>
      <rects>
        <_>
          15 0 8 18 -1.</_>
        <_>
          15 0 4 9 2.</_>
        <_>
          19 9 4 9 2.</_></rects>
      <tilted>0</tilted></_>
    <_>
      <rects>
        <_>
          15 1 8 12 -1.</_>
        <_>
          15 1 4 6 2.</_>
        <_>
          19 7 4 6 2.</_></rects>
      <tilted>0</tilted></_>
    <_>
      <rects>
        <_>
          15 3 4 2 -1.</_>
        <_>
          16 4 2 2 2.</_></rects>
      <tilted>1</tilted></_>
    <_>
      <rects>
        <_>
          15 3 8 8 -1.</_>
        <_>
          15 3 4 4 2.</_>
        <_>
          19 7 4 4 2.</_></rects>
      <tilted>0</tilted></_>
    <_>
      <rects>
        <_>
          15 4 4 16 -1.</_>
        <_>
          16 4 2 16 2.</_></rects>
      <tilted>0</tilted></_>
    <_>
      <rects>
        <_>
          15 5 6 7 -1.</_>
        <_>
          18 5 3 7 2.</_></rects>
      <tilted>0</tilted></_>
    <_>
      <rects>
        <_>
          15 7 1 16 -1.</_>
        <_>
          15 15 1 8 2.</_></rects>
      <tilted>0</tilted></_>
    <_>
      <rects>
        <_>
          15 9 8 9 -1.</_>
        <_>
          19 9 4 9 2.</_></rects>
      <tilted>0</tilted></_>
    <_>
      <rects>
        <_>
          15 10 8 10 -1.</_>
        <_>
          19 10 4 10 2.</_></rects>
      <tilted>0</tilted></_>
    <_>
      <rects>
        <_>
          16 10 6 10 -1.</_>
        <_>
          19 10 3 10 2.</_></rects>
      <tilted>0</tilted></_>
    <_>
      <rects>
        <_>
          16 12 6 3 -1.</_>
        <_>
          18 12 2 3 3.</_></rects>
      <tilted>0</tilted></_>
    <_>
      <rects>
        <_>
          16 14 6 5 -1.</_>
        <_>
          19 14 3 5 2.</_></rects>
      <tilted>0</tilted></_>
    <_>
      <rects>
        <_>
          16 16 6 4 -1.</_>
        <_>
          19 16 3 4 2.</_></rects>
      <tilted>0</tilted></_>
    <_>
      <rects>
        <_>
          17 0 6 18 -1.</_>
        <_>
          17 0 3 9 2.</_>
        <_>
          20 9 3 9 2.</_></rects>
      <tilted>0</tilted></_>
    <_>
      <rects>
        <_>
          17 0 6 4 -1.</_>
        <_>
          16 1 6 2 2.</_></rects>
      <tilted>1</tilted></_>
    <_>
      <rects>
        <_>
          17 1 6 18 -1.</_>
        <_>
          17 1 3 9 2.</_>
        <_>
          20 10 3 9 2.</_></rects>
      <tilted>0</tilted></_>
    <_>
      <rects>
        <_>
          17 2 4 4 -1.</_>
        <_>
          17 2 4 2 2.</_></rects>
      <tilted>1</tilted></_>
    <_>
      <rects>
        <_>
          17 2 6 4 -1.</_>
        <_>
          17 2 6 2 2.</_></rects>
      <tilted>1</tilted></_>
    <_>
      <rects>
        <_>
          17 7 2 8 -1.</_>
        <_>
          17 7 1 4 2.</_>
        <_>
          18 11 1 4 2.</_></rects>
      <tilted>0</tilted></_>
    <_>
      <rects>
        <_>
          17 7 6 5 -1.</_>
        <_>
          20 7 3 5 2.</_></rects>
      <tilted>0</tilted></_>
    <_>
      <rects>
        <_>
          17 8 1 16 -1.</_>
        <_>
          17 16 1 8 2.</_></rects>
      <tilted>0</tilted></_>
    <_>
      <rects>
        <_>
          17 8 6 6 -1.</_>
        <_>
          17 10 6 2 3.</_></rects>
      <tilted>0</tilted></_>
    <_>
      <rects>
        <_>
          17 9 6 18 -1.</_>
        <_>
          17 9 3 9 2.</_>
        <_>
          20 18 3 9 2.</_></rects>
      <tilted>0</tilted></_>
    <_>
      <rects>
        <_>
          17 10 6 9 -1.</_>
        <_>
          20 10 3 9 2.</_></rects>
      <tilted>0</tilted></_>
    <_>
      <rects>
        <_>
          17 11 6 7 -1.</_>
        <_>
          20 11 3 7 2.</_></rects>
      <tilted>0</tilted></_>
    <_>
      <rects>
        <_>
          17 14 6 3 -1.</_>
        <_>
          20 14 3 3 2.</_></rects>
      <tilted>0</tilted></_>
    <_>
      <rects>
        <_>
          17 19 6 3 -1.</_>
        <_>
          19 21 2 3 3.</_></rects>
      <tilted>1</tilted></_>
    <_>
      <rects>
        <_>
          18 0 4 4 -1.</_>
        <_>
          19 1 2 4 2.</_></rects>
      <tilted>1</tilted></_>
    <_>
      <rects>
        <_>
          18 0 4 28 -1.</_>
        <_>
          18 7 4 14 2.</_></rects>
      <tilted>0</tilted></_>
    <_>
      <rects>
        <_>
          18 1 5 6 -1.</_>
        <_>
          16 3 5 2 3.</_></rects>
      <tilted>1</tilted></_>
    <_>
      <rects>
        <_>
          18 2 5 6 -1.</_>
        <_>
          16 4 5 2 3.</_></rects>
      <tilted>1</tilted></_>
    <_>
      <rects>
        <_>
          18 14 1 8 -1.</_>
        <_>
          18 14 1 4 2.</_></rects>
      <tilted>1</tilted></_>
    <_>
      <rects>
        <_>
          19 2 3 7 -1.</_>
        <_>
          20 3 1 7 3.</_></rects>
      <tilted>1</tilted></_>
    <_>
      <rects>
        <_>
          19 7 3 15 -1.</_>
        <_>
          20 8 1 15 3.</_></rects>
      <tilted>1</tilted></_>
    <_>
      <rects>
        <_>
          19 11 4 4 -1.</_>
        <_>
          21 11 2 4 2.</_></rects>
      <tilted>0</tilted></_>
    <_>
      <rects>
        <_>
          19 13 2 15 -1.</_>
        <_>
          19 18 2 5 3.</_></rects>
      <tilted>0</tilted></_>
    <_>
      <rects>
        <_>
          19 13 4 14 -1.</_>
        <_>
          19 13 2 7 2.</_>
        <_>
          21 20 2 7 2.</_></rects>
      <tilted>0</tilted></_>
    <_>
      <rects>
        <_>
          19 19 4 3 -1.</_>
        <_>
          20 20 2 3 2.</_></rects>
      <tilted>1</tilted></_>
    <_>
      <rects>
        <_>
          19 26 2 2 -1.</_>
        <_>
          20 26 1 2 2.</_></rects>
      <tilted>0</tilted></_>
    <_>
      <rects>
        <_>
          20 0 3 8 -1.</_>
        <_>
          18 2 3 4 2.</_></rects>
      <tilted>1</tilted></_>
    <_>
      <rects>
        <_>
          20 2 3 4 -1.</_>
        <_>
          20 2 3 2 2.</_></rects>
      <tilted>1</tilted></_>
    <_>
      <rects>
        <_>
          20 3 3 6 -1.</_>
        <_>
          18 5 3 2 3.</_></rects>
      <tilted>1</tilted></_>
    <_>
      <rects>
        <_>
          20 4 2 3 -1.</_>
        <_>
          20 4 1 3 2.</_></rects>
      <tilted>1</tilted></_>
    <_>
      <rects>
        <_>
          20 4 3 5 -1.</_>
        <_>
          21 5 1 5 3.</_></rects>
      <tilted>1</tilted></_>
    <_>
      <rects>
        <_>
          20 14 3 14 -1.</_>
        <_>
          20 21 3 7 2.</_></rects>
      <tilted>0</tilted></_>
    <_>
      <rects>
        <_>
          20 16 3 1 -1.</_>
        <_>
          21 16 1 1 3.</_></rects>
      <tilted>0</tilted></_>
    <_>
      <rects>
        <_>
          20 18 3 2 -1.</_>
        <_>
          21 18 1 2 3.</_></rects>
      <tilted>0</tilted></_>
    <_>
      <rects>
        <_>
          20 19 3 6 -1.</_>
        <_>
          21 20 1 6 3.</_></rects>
      <tilted>1</tilted></_>
    <_>
      <rects>
        <_>
          21 0 2 9 -1.</_>
        <_>
          18 3 2 3 3.</_></rects>
      <tilted>1</tilted></_>
    <_>
      <rects>
        <_>
          21 2 2 5 -1.</_>
        <_>
          22 2 1 5 2.</_></rects>
      <tilted>0</tilted></_>
    <_>
      <rects>
        <_>
          21 6 2 16 -1.</_>
        <_>
          21 6 1 8 2.</_>
        <_>
          22 14 1 8 2.</_></rects>
      <tilted>0</tilted></_>
    <_>
      <rects>
        <_>
          21 6 2 14 -1.</_>
        <_>
          22 6 1 14 2.</_></rects>
      <tilted>0</tilted></_>
    <_>
      <rects>
        <_>
          21 7 1 6 -1.</_>
        <_>
          19 9 1 2 3.</_></rects>
      <tilted>1</tilted></_>
    <_>
      <rects>
        <_>
          21 7 2 12 -1.</_>
        <_>
          21 7 1 6 2.</_>
        <_>
          22 13 1 6 2.</_></rects>
      <tilted>0</tilted></_>
    <_>
      <rects>
        <_>
          21 9 2 8 -1.</_>
        <_>
          21 9 1 4 2.</_>
        <_>
          22 13 1 4 2.</_></rects>
      <tilted>0</tilted></_>
    <_>
      <rects>
        <_>
          21 11 2 12 -1.</_>
        <_>
          21 11 1 6 2.</_>
        <_>
          22 17 1 6 2.</_></rects>
      <tilted>0</tilted></_>
    <_>
      <rects>
        <_>
          21 13 2 12 -1.</_>
        <_>
          21 13 1 6 2.</_>
        <_>
          22 19 1 6 2.</_></rects>
      <tilted>0</tilted></_>
    <_>
      <rects>
        <_>
          21 14 2 6 -1.</_>
        <_>
          21 14 1 3 2.</_>
        <_>
          22 17 1 3 2.</_></rects>
      <tilted>0</tilted></_>
    <_>
      <rects>
        <_>
          21 17 2 3 -1.</_>
        <_>
          21 17 1 3 2.</_></rects>
      <tilted>1</tilted></_>
    <_>
      <rects>
        <_>
          22 0 1 28 -1.</_>
        <_>
          22 7 1 14 2.</_></rects>
      <tilted>0</tilted></_></features></cascade>
</opencv_storage>
