<?xml version="1.0"?>
<opencv_storage>
<cascade>
  <stageType>BOOST</stageType>
  <featureType>HAAR</featureType>
  <height>28</height>
  <width>23</width>
  <stageParams>
    <boostType>GAB</boostType>
    <minHitRate>9.9900001287460327e-01</minHitRate>
    <maxFalseAlarm>5.0000000000000000e-01</maxFalseAlarm>
    <weightTrimRate>9.4999999999999996e-01</weightTrimRate>
    <maxDepth>1</maxDepth>
    <maxWeakCount>500</maxWeakCount></stageParams>
  <featureParams>
    <maxCatCount>0</maxCatCount>
    <featSize>1</featSize>
    <mode>ALL</mode></featureParams>
  <stageNum>22</stageNum>
  <stages>
    <!-- stage 0 -->
    <_>
      <maxWeakCount>9</maxWeakCount>
      <stageThreshold>-1.7615348100662231e+00</stageThreshold>
      <weakClassifiers>
        <_>
          <internalNodes>
            0 -1 187 -4.7038914635777473e-03</internalNodes>
          <leafValues>
            6.9129413366317749e-01 -6.9481480121612549e-01</leafValues></_>
        <_>
          <internalNodes>
            0 -1 671 -2.2887419909238815e-02</internalNodes>
          <leafValues>
            7.8217434883117676e-01 -4.0987339615821838e-01</leafValues></_>
        <_>
          <internalNodes>
            0 -1 478 -1.7719877883791924e-02</internalNodes>
          <leafValues>
            4.2806497216224670e-01 -5.8366245031356812e-01</leafValues></_>
        <_>
          <internalNodes>
            0 -1 1 2.2204115986824036e-02</internalNodes>
          <leafValues>
            -3.4854874014854431e-01 6.0188519954681396e-01</leafValues></_>
        <_>
          <internalNodes>
            0 -1 255 8.5228495299816132e-03</internalNodes>
          <leafValues>
            -3.1304138898849487e-01 5.2550214529037476e-01</leafValues></_>
        <_>
          <internalNodes>
            0 -1 729 8.8417325168848038e-03</internalNodes>
          <leafValues>
            -3.3908954262733459e-01 5.3614288568496704e-01</leafValues></_>
        <_>
          <internalNodes>
            0 -1 47 -9.1252680867910385e-03</internalNodes>
          <leafValues>
            4.9620378017425537e-01 -3.1919994950294495e-01</leafValues></_>
        <_>
          <internalNodes>
            0 -1 507 1.5383420977741480e-03</internalNodes>
          <leafValues>
            -2.7074947953224182e-01 5.2317577600479126e-01</leafValues></_>
        <_>
          <internalNodes>
            0 -1 778 -2.5681328028440475e-02</internalNodes>
          <leafValues>
            7.2324979305267334e-01 -1.9633097946643829e-01</leafValues></_></weakClassifiers></_>
    <!-- stage 1 -->
    <_>
      <maxWeakCount>12</maxWeakCount>
      <stageThreshold>-1.3440968990325928e+00</stageThreshold>
      <weakClassifiers>
        <_>
          <internalNodes>
            0 -1 679 -2.2156566381454468e-02</internalNodes>
          <leafValues>
            7.6073271036148071e-01 -3.1244063377380371e-01</leafValues></_>
        <_>
          <internalNodes>
            0 -1 7 2.5208968669176102e-02</internalNodes>
          <leafValues>
            -2.8500348329544067e-01 6.9502580165863037e-01</leafValues></_>
        <_>
          <internalNodes>
            0 -1 812 -1.4041695743799210e-02</internalNodes>
          <leafValues>
            6.3460105657577515e-01 -2.6415660977363586e-01</leafValues></_>
        <_>
          <internalNodes>
            0 -1 51 1.0023287497460842e-02</internalNodes>
          <leafValues>
            -3.4816229343414307e-01 5.4837518930435181e-01</leafValues></_>
        <_>
          <internalNodes>
            0 -1 548 -2.5058630853891373e-03</internalNodes>
          <leafValues>
            3.2238966226577759e-01 -3.9618831872940063e-01</leafValues></_>
        <_>
          <internalNodes>
            0 -1 126 -1.3311616145074368e-02</internalNodes>
          <leafValues>
            2.1858389675617218e-01 -5.7056033611297607e-01</leafValues></_>
        <_>
          <internalNodes>
            0 -1 358 4.7820854932069778e-02</internalNodes>
          <leafValues>
            -2.4444633722305298e-01 4.9335634708404541e-01</leafValues></_>
        <_>
          <internalNodes>
            0 -1 380 1.7013892531394958e-02</internalNodes>
          <leafValues>
            -2.2429114580154419e-01 6.7153978347778320e-01</leafValues></_>
        <_>
          <internalNodes>
            0 -1 688 2.6342412456870079e-02</internalNodes>
          <leafValues>
            -1.8509204685688019e-01 5.1561129093170166e-01</leafValues></_>
        <_>
          <internalNodes>
            0 -1 658 -1.9572967721614987e-04</internalNodes>
          <leafValues>
            2.9639184474945068e-01 -3.6410146951675415e-01</leafValues></_>
        <_>
          <internalNodes>
            0 -1 826 5.1952181383967400e-03</internalNodes>
          <leafValues>
            -1.6963610053062439e-01 6.2577366828918457e-01</leafValues></_>
        <_>
          <internalNodes>
            0 -1 133 -5.1176594570279121e-03</internalNodes>
          <leafValues>
            4.6073094010353088e-01 -2.1539485454559326e-01</leafValues></_></weakClassifiers></_>
    <!-- stage 2 -->
    <_>
      <maxWeakCount>20</maxWeakCount>
      <stageThreshold>-1.2851778268814087e+00</stageThreshold>
      <weakClassifiers>
        <_>
          <internalNodes>
            0 -1 90 1.7248999327421188e-02</internalNodes>
          <leafValues>
            -1.6564416885375977e-01 7.1669679880142212e-01</leafValues></_>
        <_>
          <internalNodes>
            0 -1 726 -1.5039074234664440e-02</internalNodes>
          <leafValues>
            4.9870628118515015e-01 -3.2671186327934265e-01</leafValues></_>
        <_>
          <internalNodes>
            0 -1 172 3.1439837068319321e-02</internalNodes>
          <leafValues>
            -2.9385575652122498e-01 5.0243622064590454e-01</leafValues></_>
        <_>
          <internalNodes>
            0 -1 6 4.0617737919092178e-02</internalNodes>
          <leafValues>
            -2.6399347186088562e-01 5.6090128421783447e-01</leafValues></_>
        <_>
          <internalNodes>
            0 -1 392 8.2538463175296783e-04</internalNodes>
          <leafValues>
            -3.4687316417694092e-01 3.9611020684242249e-01</leafValues></_>
        <_>
          <internalNodes>
            0 -1 528 -1.5597777673974633e-03</internalNodes>
          <leafValues>
            2.4510626494884491e-01 -5.4523152112960815e-01</leafValues></_>
        <_>
          <internalNodes>
            0 -1 494 8.5624186322093010e-03</internalNodes>
          <leafValues>
            1.4406135678291321e-01 -6.7353481054306030e-01</leafValues></_>
        <_>
          <internalNodes>
            0 -1 509 1.4195095282047987e-03</internalNodes>
          <leafValues>
            -2.7795562148094177e-01 4.5999753475189209e-01</leafValues></_>
        <_>
          <internalNodes>
            0 -1 60 -1.9225368741899729e-03</internalNodes>
          <leafValues>
            5.1880866289138794e-01 -1.8670988082885742e-01</leafValues></_>
        <_>
          <internalNodes>
            0 -1 696 -2.4602202698588371e-02</internalNodes>
          <leafValues>
            5.7684648036956787e-01 -1.6603392362594604e-01</leafValues></_>
        <_>
          <internalNodes>
            0 -1 80 -7.3169386014342308e-03</internalNodes>
          <leafValues>
            5.6261497735977173e-01 -1.6566401720046997e-01</leafValues></_>
        <_>
          <internalNodes>
            0 -1 648 1.4635540544986725e-02</internalNodes>
          <leafValues>
            -2.9923531413078308e-01 3.2341778278350830e-01</leafValues></_>
        <_>
          <internalNodes>
            0 -1 141 -1.0206088423728943e-01</internalNodes>
          <leafValues>
            -8.0362617969512939e-01 1.1473952233791351e-01</leafValues></_>
        <_>
          <internalNodes>
            0 -1 55 -2.1811546757817268e-03</internalNodes>
          <leafValues>
            7.3222124576568604e-01 -1.3912951946258545e-01</leafValues></_>
        <_>
          <internalNodes>
            0 -1 200 -2.3153856396675110e-02</internalNodes>
          <leafValues>
            7.1373832225799561e-01 -1.0637004673480988e-01</leafValues></_>
        <_>
          <internalNodes>
            0 -1 169 5.4950289428234100e-02</internalNodes>
          <leafValues>
            -1.8542541563510895e-01 5.0800687074661255e-01</leafValues></_>
        <_>
          <internalNodes>
            0 -1 440 7.2137522511184216e-04</internalNodes>
          <leafValues>
            -1.4219996333122253e-01 5.7077854871749878e-01</leafValues></_>
        <_>
          <internalNodes>
            0 -1 203 -5.3711757063865662e-02</internalNodes>
          <leafValues>
            5.6051623821258545e-01 -1.5504339337348938e-01</leafValues></_>
        <_>
          <internalNodes>
            0 -1 348 -1.3576170895248652e-03</internalNodes>
          <leafValues>
            3.6769407987594604e-01 -2.2103352844715118e-01</leafValues></_>
        <_>
          <internalNodes>
            0 -1 143 -3.7854225374758244e-03</internalNodes>
          <leafValues>
            4.0536734461784363e-01 -2.0437361299991608e-01</leafValues></_></weakClassifiers></_>
    <!-- stage 3 -->
    <_>
      <maxWeakCount>23</maxWeakCount>
      <stageThreshold>-1.3436651229858398e+00</stageThreshold>
      <weakClassifiers>
        <_>
          <internalNodes>
            0 -1 42 2.1144496276974678e-02</internalNodes>
          <leafValues>
            -1.8756476044654846e-01 6.4359670877456665e-01</leafValues></_>
        <_>
          <internalNodes>
            0 -1 623 -4.0584444999694824e-02</internalNodes>
          <leafValues>
            5.5422568321228027e-01 -2.7655470371246338e-01</leafValues></_>
        <_>
          <internalNodes>
            0 -1 687 -8.6084809154272079e-03</internalNodes>
          <leafValues>
            3.4576424956321716e-01 -3.4053346514701843e-01</leafValues></_>
        <_>
          <internalNodes>
            0 -1 165 -3.3186934888362885e-02</internalNodes>
          <leafValues>
            5.7071828842163086e-01 -2.0458073914051056e-01</leafValues></_>
        <_>
          <internalNodes>
            0 -1 284 -1.4751873910427094e-02</internalNodes>
          <leafValues>
            1.9704750180244446e-01 -4.7813609242439270e-01</leafValues></_>
        <_>
          <internalNodes>
            0 -1 468 3.1719175167381763e-03</internalNodes>
          <leafValues>
            1.7018106579780579e-01 -5.3822588920593262e-01</leafValues></_>
        <_>
          <internalNodes>
            0 -1 59 -3.5942518152296543e-03</internalNodes>
          <leafValues>
            6.1825728416442871e-01 -1.4834187924861908e-01</leafValues></_>
        <_>
          <internalNodes>
            0 -1 572 -4.7931200242601335e-04</internalNodes>
          <leafValues>
            3.8199353218078613e-01 -2.1340158581733704e-01</leafValues></_>
        <_>
          <internalNodes>
            0 -1 481 7.9394534230232239e-02</internalNodes>
          <leafValues>
            1.1335351318120956e-01 -7.9849284887313843e-01</leafValues></_>
        <_>
          <internalNodes>
            0 -1 408 1.6081521287560463e-02</internalNodes>
          <leafValues>
            -2.4097760021686554e-01 3.1302261352539062e-01</leafValues></_>
        <_>
          <internalNodes>
            0 -1 360 1.7198218032717705e-02</internalNodes>
          <leafValues>
            -2.4754317104816437e-01 4.0558937191963196e-01</leafValues></_>
        <_>
          <internalNodes>
            0 -1 359 1.3732714578509331e-02</internalNodes>
          <leafValues>
            -1.1877013742923737e-01 7.5598460435867310e-01</leafValues></_>
        <_>
          <internalNodes>
            0 -1 251 -1.3269633054733276e-01</internalNodes>
          <leafValues>
            -8.7891387939453125e-01 1.1294794082641602e-01</leafValues></_>
        <_>
          <internalNodes>
            0 -1 114 -1.1532232165336609e-02</internalNodes>
          <leafValues>
            5.7986748218536377e-01 -1.5978671610355377e-01</leafValues></_>
        <_>
          <internalNodes>
            0 -1 287 -5.1525300368666649e-03</internalNodes>
          <leafValues>
            3.1764531135559082e-01 -2.4196386337280273e-01</leafValues></_>
        <_>
          <internalNodes>
            0 -1 786 -4.8439167439937592e-03</internalNodes>
          <leafValues>
            3.4026864171028137e-01 -2.1059143543243408e-01</leafValues></_>
        <_>
          <internalNodes>
            0 -1 815 4.0854550898075104e-03</internalNodes>
          <leafValues>
            -2.1105633676052094e-01 3.6682781577110291e-01</leafValues></_>
        <_>
          <internalNodes>
            0 -1 420 3.4510851837694645e-03</internalNodes>
          <leafValues>
            -3.0169340968132019e-01 2.4308016896247864e-01</leafValues></_>
        <_>
          <internalNodes>
            0 -1 681 3.6407500505447388e-02</internalNodes>
          <leafValues>
            1.1109161376953125e-01 -7.1024894714355469e-01</leafValues></_>
        <_>
          <internalNodes>
            0 -1 61 4.9844750901684165e-04</internalNodes>
          <leafValues>
            -2.8935095667839050e-01 2.5999936461448669e-01</leafValues></_>
        <_>
          <internalNodes>
            0 -1 342 1.8760631792247295e-03</internalNodes>
          <leafValues>
            -2.5928917527198792e-01 2.8918081521987915e-01</leafValues></_>
        <_>
          <internalNodes>
            0 -1 349 -1.5605107182636857e-03</internalNodes>
          <leafValues>
            4.1965967416763306e-01 -1.7329271137714386e-01</leafValues></_>
        <_>
          <internalNodes>
            0 -1 410 1.3764861971139908e-02</internalNodes>
          <leafValues>
            8.9233875274658203e-02 -8.6677712202072144e-01</leafValues></_></weakClassifiers></_>
    <!-- stage 4 -->
    <_>
      <maxWeakCount>27</maxWeakCount>
      <stageThreshold>-1.1810367107391357e+00</stageThreshold>
      <weakClassifiers>
        <_>
          <internalNodes>
            0 -1 680 -3.4218333661556244e-02</internalNodes>
          <leafValues>
            6.5616047382354736e-01 -1.3744075596332550e-01</leafValues></_>
        <_>
          <internalNodes>
            0 -1 91 4.8972479999065399e-02</internalNodes>
          <leafValues>
            -1.8668574094772339e-01 6.4965051412582397e-01</leafValues></_>
        <_>
          <internalNodes>
            0 -1 50 9.3166157603263855e-03</internalNodes>
          <leafValues>
            -2.5818482041358948e-01 3.4478101134300232e-01</leafValues></_>
        <_>
          <internalNodes>
            0 -1 740 -3.3470913767814636e-02</internalNodes>
          <leafValues>
            5.0160712003707886e-01 -1.8356996774673462e-01</leafValues></_>
        <_>
          <internalNodes>
            0 -1 156 -1.2378628365695477e-02</internalNodes>
          <leafValues>
            1.7012360692024231e-01 -4.4007858633995056e-01</leafValues></_>
        <_>
          <internalNodes>
            0 -1 273 6.3263098709285259e-03</internalNodes>
          <leafValues>
            1.5122024714946747e-01 -5.1710128784179688e-01</leafValues></_>
        <_>
          <internalNodes>
            0 -1 199 -5.0334788858890533e-02</internalNodes>
          <leafValues>
            6.4737761020660400e-01 -1.4951714873313904e-01</leafValues></_>
        <_>
          <internalNodes>
            0 -1 294 2.4944659322500229e-02</internalNodes>
          <leafValues>
            -9.6621789038181305e-02 6.8819087743759155e-01</leafValues></_>
        <_>
          <internalNodes>
            0 -1 709 -3.3818393945693970e-02</internalNodes>
          <leafValues>
            6.0052698850631714e-01 -1.3221850991249084e-01</leafValues></_>
        <_>
          <internalNodes>
            0 -1 289 -1.6081335023045540e-02</internalNodes>
          <leafValues>
            4.3322423100471497e-01 -1.6982902586460114e-01</leafValues></_>
        <_>
          <internalNodes>
            0 -1 317 -2.1205351222306490e-03</internalNodes>
          <leafValues>
            3.5440000891685486e-01 -2.1412809193134308e-01</leafValues></_>
        <_>
          <internalNodes>
            0 -1 158 -1.2834674678742886e-02</internalNodes>
          <leafValues>
            7.8701382875442505e-01 -7.7510833740234375e-02</leafValues></_>
        <_>
          <internalNodes>
            0 -1 265 1.3245718553662300e-02</internalNodes>
          <leafValues>
            -1.1558028310537338e-01 5.2868068218231201e-01</leafValues></_>
        <_>
          <internalNodes>
            0 -1 368 -5.5367248132824898e-03</internalNodes>
          <leafValues>
            -7.2635775804519653e-01 1.0659936070442200e-01</leafValues></_>
        <_>
          <internalNodes>
            0 -1 435 5.5809579789638519e-03</internalNodes>
          <leafValues>
            -2.4254480004310608e-01 2.7298635244369507e-01</leafValues></_>
        <_>
          <internalNodes>
            0 -1 602 1.3618196826428175e-03</internalNodes>
          <leafValues>
            -2.9629865288734436e-01 2.4554157257080078e-01</leafValues></_>
        <_>
          <internalNodes>
            0 -1 527 -6.2898425385355949e-03</internalNodes>
          <leafValues>
            -7.4743115901947021e-01 8.9311309158802032e-02</leafValues></_>
        <_>
          <internalNodes>
            0 -1 22 4.7478144988417625e-03</internalNodes>
          <leafValues>
            -1.4972160756587982e-01 4.8745533823966980e-01</leafValues></_>
        <_>
          <internalNodes>
            0 -1 775 -2.7237545698881149e-02</internalNodes>
          <leafValues>
            6.3908463716506958e-01 -9.0458355844020844e-02</leafValues></_>
        <_>
          <internalNodes>
            0 -1 805 2.8345612809062004e-03</internalNodes>
          <leafValues>
            -1.3877005875110626e-01 4.6764567494392395e-01</leafValues></_>
        <_>
          <internalNodes>
            0 -1 688 2.6202600449323654e-02</internalNodes>
          <leafValues>
            -1.7118385434150696e-01 3.4578025341033936e-01</leafValues></_>
        <_>
          <internalNodes>
            0 -1 276 1.3158584479242563e-03</internalNodes>
          <leafValues>
            -2.0935954153537750e-01 2.9858171939849854e-01</leafValues></_>
        <_>
          <internalNodes>
            0 -1 714 -6.2207885086536407e-02</internalNodes>
          <leafValues>
            7.9469424486160278e-01 -7.8352868556976318e-02</leafValues></_>
        <_>
          <internalNodes>
            0 -1 357 2.6790257543325424e-02</internalNodes>
          <leafValues>
            -1.8979811668395996e-01 3.1158667802810669e-01</leafValues></_>
        <_>
          <internalNodes>
            0 -1 505 -3.7836137926205993e-04</internalNodes>
          <leafValues>
            3.6130073666572571e-01 -1.9113782048225403e-01</leafValues></_>
        <_>
          <internalNodes>
            0 -1 54 -2.2566553205251694e-02</internalNodes>
          <leafValues>
            -6.5834617614746094e-01 1.0013446956872940e-01</leafValues></_>
        <_>
          <internalNodes>
            0 -1 653 7.0749917067587376e-03</internalNodes>
          <leafValues>
            7.8187301754951477e-02 -6.6189223527908325e-01</leafValues></_></weakClassifiers></_>
    <!-- stage 5 -->
    <_>
      <maxWeakCount>27</maxWeakCount>
      <stageThreshold>-1.1952286958694458e+00</stageThreshold>
      <weakClassifiers>
        <_>
          <internalNodes>
            0 -1 305 2.8718866407871246e-02</internalNodes>
          <leafValues>
            1.3412816449999809e-02 6.7352539300918579e-01</leafValues></_>
        <_>
          <internalNodes>
            0 -1 699 -2.7667924761772156e-02</internalNodes>
          <leafValues>
            3.8460963964462280e-01 -2.8049784898757935e-01</leafValues></_>
        <_>
          <internalNodes>
            0 -1 4 1.9844714552164078e-02</internalNodes>
          <leafValues>
            -2.9308348894119263e-01 3.1479218602180481e-01</leafValues></_>
        <_>
          <internalNodes>
            0 -1 293 5.5488780140876770e-02</internalNodes>
          <leafValues>
            -2.1028526127338409e-01 4.8215207457542419e-01</leafValues></_>
        <_>
          <internalNodes>
            0 -1 708 -1.7415866255760193e-02</internalNodes>
          <leafValues>
            3.2251849770545959e-01 -2.9433906078338623e-01</leafValues></_>
        <_>
          <internalNodes>
            0 -1 541 4.4361990876495838e-03</internalNodes>
          <leafValues>
            1.1627654731273651e-01 -8.5556352138519287e-01</leafValues></_>
        <_>
          <internalNodes>
            0 -1 791 -6.1406372115015984e-03</internalNodes>
          <leafValues>
            3.9398103952407837e-01 -1.9456435739994049e-01</leafValues></_>
        <_>
          <internalNodes>
            0 -1 561 3.1551355496048927e-03</internalNodes>
          <leafValues>
            1.2086411565542221e-01 -5.6375676393508911e-01</leafValues></_>
        <_>
          <internalNodes>
            0 -1 590 5.9511270374059677e-03</internalNodes>
          <leafValues>
            7.6303385198116302e-02 -7.5145739316940308e-01</leafValues></_>
        <_>
          <internalNodes>
            0 -1 654 1.9301532302051783e-03</internalNodes>
          <leafValues>
            9.8565943539142609e-02 -6.8245548009872437e-01</leafValues></_>
        <_>
          <internalNodes>
            0 -1 159 -1.4625381678342819e-02</internalNodes>
          <leafValues>
            6.1775159835815430e-01 -1.3230904936790466e-01</leafValues></_>
        <_>
          <internalNodes>
            0 -1 314 3.1273444183170795e-03</internalNodes>
          <leafValues>
            -2.9890286922454834e-01 2.2364751994609833e-01</leafValues></_>
        <_>
          <internalNodes>
            0 -1 170 2.4004027247428894e-02</internalNodes>
          <leafValues>
            -1.3710258901119232e-01 5.0053471326828003e-01</leafValues></_>
        <_>
          <internalNodes>
            0 -1 470 3.2353582791984081e-03</internalNodes>
          <leafValues>
            1.2410714477300644e-01 -5.8407074213027954e-01</leafValues></_>
        <_>
          <internalNodes>
            0 -1 437 9.4606587663292885e-04</internalNodes>
          <leafValues>
            -2.4356186389923096e-01 2.6348701119422913e-01</leafValues></_>
        <_>
          <internalNodes>
            0 -1 354 -1.0166969895362854e-01</internalNodes>
          <leafValues>
            4.3766430020332336e-01 -1.4444515109062195e-01</leafValues></_>
        <_>
          <internalNodes>
            0 -1 471 -3.5995026119053364e-03</internalNodes>
          <leafValues>
            -5.9577053785324097e-01 9.7162023186683655e-02</leafValues></_>
        <_>
          <internalNodes>
            0 -1 393 1.1933834757655859e-03</internalNodes>
          <leafValues>
            -2.4492071568965912e-01 2.3676227033138275e-01</leafValues></_>
        <_>
          <internalNodes>
            0 -1 757 -7.9069174826145172e-03</internalNodes>
          <leafValues>
            3.7904292345046997e-01 -1.5519261360168457e-01</leafValues></_>
        <_>
          <internalNodes>
            0 -1 333 -5.3304865956306458e-02</internalNodes>
          <leafValues>
            -9.2666661739349365e-01 6.4024791121482849e-02</leafValues></_>
        <_>
          <internalNodes>
            0 -1 558 -7.7257154043763876e-04</internalNodes>
          <leafValues>
            2.5056830048561096e-01 -2.5197103619575500e-01</leafValues></_>
        <_>
          <internalNodes>
            0 -1 267 6.6550616174936295e-03</internalNodes>
          <leafValues>
            -1.5588854253292084e-01 3.7481644749641418e-01</leafValues></_>
        <_>
          <internalNodes>
            0 -1 534 3.8123917765915394e-03</internalNodes>
          <leafValues>
            8.7784111499786377e-02 -7.2815573215484619e-01</leafValues></_>
        <_>
          <internalNodes>
            0 -1 407 3.0575422570109367e-03</internalNodes>
          <leafValues>
            -2.2163082659244537e-01 2.5800147652626038e-01</leafValues></_>
        <_>
          <internalNodes>
            0 -1 167 -6.5897524356842041e-02</internalNodes>
          <leafValues>
            3.7621673941612244e-01 -1.6082881391048431e-01</leafValues></_>
        <_>
          <internalNodes>
            0 -1 163 -1.5628265216946602e-02</internalNodes>
          <leafValues>
            6.8465811014175415e-01 -8.5876308381557465e-02</leafValues></_>
        <_>
          <internalNodes>
            0 -1 445 1.1311573907732964e-03</internalNodes>
          <leafValues>
            -1.9473847746849060e-01 2.8548818826675415e-01</leafValues></_></weakClassifiers></_>
    <!-- stage 6 -->
    <_>
      <maxWeakCount>34</maxWeakCount>
      <stageThreshold>-1.0989316701889038e+00</stageThreshold>
      <weakClassifiers>
        <_>
          <internalNodes>
            0 -1 747 -4.2304996401071548e-02</internalNodes>
          <leafValues>
            6.7970478534698486e-01 5.4671280086040497e-02</leafValues></_>
        <_>
          <internalNodes>
            0 -1 87 3.6830965429544449e-02</internalNodes>
          <leafValues>
            -2.2594223916530609e-01 4.4685843586921692e-01</leafValues></_>
        <_>
          <internalNodes>
            0 -1 710 -3.3637620508670807e-02</internalNodes>
          <leafValues>
            3.9988923072814941e-01 -1.8419311940670013e-01</leafValues></_>
        <_>
          <internalNodes>
            0 -1 29 7.7569284476339817e-03</internalNodes>
          <leafValues>
            -1.6643531620502472e-01 5.5724292993545532e-01</leafValues></_>
        <_>
          <internalNodes>
            0 -1 125 -1.0320872068405151e-02</internalNodes>
          <leafValues>
            1.8693459033966064e-01 -4.3697297573089600e-01</leafValues></_>
        <_>
          <internalNodes>
            0 -1 376 2.2428367286920547e-02</internalNodes>
          <leafValues>
            -2.4377326667308807e-01 2.4666367471218109e-01</leafValues></_>
        <_>
          <internalNodes>
            0 -1 361 2.3473564535379410e-02</internalNodes>
          <leafValues>
            -2.2698371112346649e-01 3.1595322489738464e-01</leafValues></_>
        <_>
          <internalNodes>
            0 -1 767 4.1834760457277298e-02</internalNodes>
          <leafValues>
            -1.0625870525836945e-01 7.1522408723831177e-01</leafValues></_>
        <_>
          <internalNodes>
            0 -1 134 3.1842745840549469e-02</internalNodes>
          <leafValues>
            -8.3321772515773773e-02 5.4946005344390869e-01</leafValues></_>
        <_>
          <internalNodes>
            0 -1 31 -5.2947904914617538e-03</internalNodes>
          <leafValues>
            4.1108903288841248e-01 -1.5998418629169464e-01</leafValues></_>
        <_>
          <internalNodes>
            0 -1 537 -2.1108661312609911e-03</internalNodes>
          <leafValues>
            -6.0169887542724609e-01 1.0337566584348679e-01</leafValues></_>
        <_>
          <internalNodes>
            0 -1 292 -3.0876979231834412e-02</internalNodes>
          <leafValues>
            5.3341889381408691e-01 -1.0207302123308182e-01</leafValues></_>
        <_>
          <internalNodes>
            0 -1 246 -3.6181129515171051e-02</internalNodes>
          <leafValues>
            3.9069196581840515e-01 -1.3780596852302551e-01</leafValues></_>
        <_>
          <internalNodes>
            0 -1 636 -1.2130308896303177e-02</internalNodes>
          <leafValues>
            -7.0972645282745361e-01 8.0974876880645752e-02</leafValues></_>
        <_>
          <internalNodes>
            0 -1 268 9.7822751849889755e-03</internalNodes>
          <leafValues>
            -1.6822689771652222e-01 3.3518952131271362e-01</leafValues></_>
        <_>
          <internalNodes>
            0 -1 154 -1.6941985115408897e-02</internalNodes>
          <leafValues>
            -7.3175555467605591e-01 7.8469470143318176e-02</leafValues></_>
        <_>
          <internalNodes>
            0 -1 382 1.5395061112940311e-02</internalNodes>
          <leafValues>
            -1.8935413658618927e-01 3.0603080987930298e-01</leafValues></_>
        <_>
          <internalNodes>
            0 -1 197 -1.2014813721179962e-02</internalNodes>
          <leafValues>
            -6.1684024333953857e-01 9.0548425912857056e-02</leafValues></_>
        <_>
          <internalNodes>
            0 -1 216 -4.9886526539921761e-03</internalNodes>
          <leafValues>
            2.6089373230934143e-01 -2.1816916763782501e-01</leafValues></_>
        <_>
          <internalNodes>
            0 -1 150 2.2117081284523010e-01</internalNodes>
          <leafValues>
            7.8619524836540222e-02 -7.4849903583526611e-01</leafValues></_>
        <_>
          <internalNodes>
            0 -1 568 2.0739347673952579e-03</internalNodes>
          <leafValues>
            -2.0297154784202576e-01 2.7890864014625549e-01</leafValues></_>
        <_>
          <internalNodes>
            0 -1 828 1.9742290023714304e-03</internalNodes>
          <leafValues>
            -1.5865486860275269e-01 3.4232106804847717e-01</leafValues></_>
        <_>
          <internalNodes>
            0 -1 672 -1.5719506336608902e-05</internalNodes>
          <leafValues>
            1.7018389701843262e-01 -3.4373867511749268e-01</leafValues></_>
        <_>
          <internalNodes>
            0 -1 705 1.1275444179773331e-02</internalNodes>
          <leafValues>
            7.3553815484046936e-02 -7.4903041124343872e-01</leafValues></_>
        <_>
          <internalNodes>
            0 -1 606 3.9446141570806503e-02</internalNodes>
          <leafValues>
            6.4250960946083069e-02 -6.6520857810974121e-01</leafValues></_>
        <_>
          <internalNodes>
            0 -1 639 8.3676949143409729e-03</internalNodes>
          <leafValues>
            -2.3971864581108093e-01 2.1660734713077545e-01</leafValues></_>
        <_>
          <internalNodes>
            0 -1 510 -7.5647409539669752e-04</internalNodes>
          <leafValues>
            4.0226495265960693e-01 -1.2908181548118591e-01</leafValues></_>
        <_>
          <internalNodes>
            0 -1 822 8.0308839678764343e-03</internalNodes>
          <leafValues>
            -6.1899613589048386e-02 7.2104895114898682e-01</leafValues></_>
        <_>
          <internalNodes>
            0 -1 271 -2.4038381874561310e-02</internalNodes>
          <leafValues>
            -7.7685236930847168e-01 7.4191026389598846e-02</leafValues></_>
        <_>
          <internalNodes>
            0 -1 617 7.0449570193886757e-04</internalNodes>
          <leafValues>
            -1.8851660192012787e-01 2.6434275507926941e-01</leafValues></_>
        <_>
          <internalNodes>
            0 -1 374 1.7649048939347267e-02</internalNodes>
          <leafValues>
            7.1925230324268341e-02 -7.3599010705947876e-01</leafValues></_>
        <_>
          <internalNodes>
            0 -1 622 1.9111873582005501e-02</internalNodes>
          <leafValues>
            -1.2850762903690338e-01 4.2576321959495544e-01</leafValues></_>
        <_>
          <internalNodes>
            0 -1 573 -1.1915168724954128e-03</internalNodes>
          <leafValues>
            3.3703345060348511e-01 -1.3703604042530060e-01</leafValues></_>
        <_>
          <internalNodes>
            0 -1 474 -6.0944024473428726e-02</internalNodes>
          <leafValues>
            -6.1679375171661377e-01 8.7424144148826599e-02</leafValues></_></weakClassifiers></_>
    <!-- stage 7 -->
    <_>
      <maxWeakCount>38</maxWeakCount>
      <stageThreshold>-9.8407584428787231e-01</stageThreshold>
      <weakClassifiers>
        <_>
          <internalNodes>
            0 -1 253 1.7967380583286285e-02</internalNodes>
          <leafValues>
            8.5603110492229462e-02 6.8998408317565918e-01</leafValues></_>
        <_>
          <internalNodes>
            0 -1 670 -2.3359842598438263e-02</internalNodes>
          <leafValues>
            3.5226824879646301e-01 -2.4969787895679474e-01</leafValues></_>
        <_>
          <internalNodes>
            0 -1 52 1.4178812503814697e-02</internalNodes>
          <leafValues>
            -3.0872172117233276e-01 2.9306507110595703e-01</leafValues></_>
        <_>
          <internalNodes>
            0 -1 437 7.2153133805841208e-04</internalNodes>
          <leafValues>
            -2.7231165766716003e-01 2.8217554092407227e-01</leafValues></_>
        <_>
          <internalNodes>
            0 -1 264 1.6630990430712700e-03</internalNodes>
          <leafValues>
            -3.5369318723678589e-01 1.9706968963146210e-01</leafValues></_>
        <_>
          <internalNodes>
            0 -1 638 -3.2944637350738049e-03</internalNodes>
          <leafValues>
            3.5502892732620239e-01 -1.7507584393024445e-01</leafValues></_>
        <_>
          <internalNodes>
            0 -1 232 -2.2239979356527328e-02</internalNodes>
          <leafValues>
            1.6376274824142456e-01 -3.5461392998695374e-01</leafValues></_>
        <_>
          <internalNodes>
            0 -1 709 2.5864697992801666e-02</internalNodes>
          <leafValues>
            -1.1906113475561142e-01 4.7951382398605347e-01</leafValues></_>
        <_>
          <internalNodes>
            0 -1 651 -5.8735320344567299e-03</internalNodes>
          <leafValues>
            1.8199540674686432e-01 -3.2274699211120605e-01</leafValues></_>
        <_>
          <internalNodes>
            0 -1 237 -6.8254331126809120e-03</internalNodes>
          <leafValues>
            3.8010257482528687e-01 -1.5203499794006348e-01</leafValues></_>
        <_>
          <internalNodes>
            0 -1 209 -3.3297579735517502e-02</internalNodes>
          <leafValues>
            6.5071499347686768e-01 -8.3880826830863953e-02</leafValues></_>
        <_>
          <internalNodes>
            0 -1 74 1.8430832773447037e-02</internalNodes>
          <leafValues>
            -1.2940642237663269e-01 4.8414394259452820e-01</leafValues></_>
        <_>
          <internalNodes>
            0 -1 502 4.4535694178193808e-04</internalNodes>
          <leafValues>
            -1.5191404521465302e-01 3.5028639435768127e-01</leafValues></_>
        <_>
          <internalNodes>
            0 -1 194 -3.8588289171457291e-03</internalNodes>
          <leafValues>
            4.3008050322532654e-01 -1.1580589413642883e-01</leafValues></_>
        <_>
          <internalNodes>
            0 -1 341 1.9727488979697227e-02</internalNodes>
          <leafValues>
            1.0243689268827438e-01 -5.2006769180297852e-01</leafValues></_>
        <_>
          <internalNodes>
            0 -1 469 1.7899636179208755e-02</internalNodes>
          <leafValues>
            -1.7567262053489685e-01 2.8869184851646423e-01</leafValues></_>
        <_>
          <internalNodes>
            0 -1 244 -5.2219003438949585e-02</internalNodes>
          <leafValues>
            4.6545082330703735e-01 -1.2678557634353638e-01</leafValues></_>
        <_>
          <internalNodes>
            0 -1 503 -9.5222087111324072e-04</internalNodes>
          <leafValues>
            3.3622121810913086e-01 -1.5413917601108551e-01</leafValues></_>
        <_>
          <internalNodes>
            0 -1 567 4.9578497419133782e-04</internalNodes>
          <leafValues>
            -1.4461855590343475e-01 4.2078006267547607e-01</leafValues></_>
        <_>
          <internalNodes>
            0 -1 727 -7.8760525211691856e-03</internalNodes>
          <leafValues>
            1.9853970408439636e-01 -2.6510244607925415e-01</leafValues></_>
        <_>
          <internalNodes>
            0 -1 524 -3.6107212305068970e-02</internalNodes>
          <leafValues>
            3.6676812171936035e-01 -1.5084609389305115e-01</leafValues></_>
        <_>
          <internalNodes>
            0 -1 632 1.7702353652566671e-03</internalNodes>
          <leafValues>
            8.9152298867702484e-02 -6.4809232950210571e-01</leafValues></_>
        <_>
          <internalNodes>
            0 -1 742 7.8991744667291641e-03</internalNodes>
          <leafValues>
            -1.2085413932800293e-01 4.3007254600524902e-01</leafValues></_>
        <_>
          <internalNodes>
            0 -1 591 -4.9699526280164719e-03</internalNodes>
          <leafValues>
            -6.5260338783264160e-01 8.6845226585865021e-02</leafValues></_>
        <_>
          <internalNodes>
            0 -1 564 -8.6877390276640654e-04</internalNodes>
          <leafValues>
            2.4217224121093750e-01 -1.9975534081459045e-01</leafValues></_>
        <_>
          <internalNodes>
            0 -1 768 1.1487467214465141e-02</internalNodes>
          <leafValues>
            6.7644365131855011e-02 -7.1382844448089600e-01</leafValues></_>
        <_>
          <internalNodes>
            0 -1 64 2.4445322342216969e-03</internalNodes>
          <leafValues>
            -9.2841632664203644e-02 5.8307760953903198e-01</leafValues></_>
        <_>
          <internalNodes>
            0 -1 583 2.2333502769470215e-02</internalNodes>
          <leafValues>
            7.0310316979885101e-02 -8.1801819801330566e-01</leafValues></_>
        <_>
          <internalNodes>
            0 -1 616 1.3684934005141258e-02</internalNodes>
          <leafValues>
            4.2782895267009735e-02 -8.5759204626083374e-01</leafValues></_>
        <_>
          <internalNodes>
            0 -1 15 7.4792606756091118e-04</internalNodes>
          <leafValues>
            1.4570800960063934e-01 -3.0188468098640442e-01</leafValues></_>
        <_>
          <internalNodes>
            0 -1 186 7.8049977310001850e-04</internalNodes>
          <leafValues>
            -1.9680163264274597e-01 2.4145554006099701e-01</leafValues></_>
        <_>
          <internalNodes>
            0 -1 336 -3.9525348693132401e-03</internalNodes>
          <leafValues>
            3.5494941473007202e-01 -1.3134248554706573e-01</leafValues></_>
        <_>
          <internalNodes>
            0 -1 750 8.2549639046192169e-03</internalNodes>
          <leafValues>
            6.4278595149517059e-02 -7.9458183050155640e-01</leafValues></_>
        <_>
          <internalNodes>
            0 -1 794 -4.0695094503462315e-03</internalNodes>
          <leafValues>
            6.8294727802276611e-01 -7.9122103750705719e-02</leafValues></_>
        <_>
          <internalNodes>
            0 -1 465 -4.1088405996561050e-03</internalNodes>
          <leafValues>
            -7.1413242816925049e-01 7.8831367194652557e-02</leafValues></_>
        <_>
          <internalNodes>
            0 -1 218 5.1897601224482059e-03</internalNodes>
          <leafValues>
            -2.3713411390781403e-01 2.1243612468242645e-01</leafValues></_>
        <_>
          <internalNodes>
            0 -1 365 1.5965975821018219e-02</internalNodes>
          <leafValues>
            -1.7333942651748657e-01 3.0717480182647705e-01</leafValues></_>
        <_>
          <internalNodes>
            0 -1 547 1.2917559593915939e-02</internalNodes>
          <leafValues>
            -2.3186931014060974e-01 2.6395913958549500e-01</leafValues></_></weakClassifiers></_>
    <!-- stage 8 -->
    <_>
      <maxWeakCount>43</maxWeakCount>
      <stageThreshold>-1.1885410547256470e+00</stageThreshold>
      <weakClassifiers>
        <_>
          <internalNodes>
            0 -1 83 2.7798163890838623e-01</internalNodes>
          <leafValues>
            1.3887339830398560e-01 7.4577951431274414e-01</leafValues></_>
        <_>
          <internalNodes>
            0 -1 706 -2.8627909719944000e-02</internalNodes>
          <leafValues>
            4.0335115790367126e-01 -2.1609333157539368e-01</leafValues></_>
        <_>
          <internalNodes>
            0 -1 353 -4.0407691150903702e-02</internalNodes>
          <leafValues>
            5.3613865375518799e-01 -1.2477023154497147e-01</leafValues></_>
        <_>
          <internalNodes>
            0 -1 147 -1.1571140959858894e-02</internalNodes>
          <leafValues>
            4.1733220219612122e-01 -1.7682951688766479e-01</leafValues></_>
        <_>
          <internalNodes>
            0 -1 629 -1.3536389917135239e-02</internalNodes>
          <leafValues>
            -8.1803250312805176e-01 9.4170682132244110e-02</leafValues></_>
        <_>
          <internalNodes>
            0 -1 181 1.6811098903417587e-02</internalNodes>
          <leafValues>
            -3.3975091576576233e-01 1.5871401131153107e-01</leafValues></_>
        <_>
          <internalNodes>
            0 -1 160 -9.1777332127094269e-03</internalNodes>
          <leafValues>
            3.7881350517272949e-01 -1.4046448469161987e-01</leafValues></_>
        <_>
          <internalNodes>
            0 -1 685 3.3859565854072571e-02</internalNodes>
          <leafValues>
            5.3319659084081650e-02 -7.5470525026321411e-01</leafValues></_>
        <_>
          <internalNodes>
            0 -1 493 2.0187553018331528e-02</internalNodes>
          <leafValues>
            5.7230774313211441e-02 -7.3468494415283203e-01</leafValues></_>
        <_>
          <internalNodes>
            0 -1 557 -4.4944556429982185e-03</internalNodes>
          <leafValues>
            2.4414874613285065e-01 -2.0261108875274658e-01</leafValues></_>
        <_>
          <internalNodes>
            0 -1 743 2.1378736943006516e-02</internalNodes>
          <leafValues>
            -1.1689441651105881e-01 4.6386057138442993e-01</leafValues></_>
        <_>
          <internalNodes>
            0 -1 136 -7.6269544661045074e-02</internalNodes>
          <leafValues>
            3.7316867709159851e-01 -1.5370461344718933e-01</leafValues></_>
        <_>
          <internalNodes>
            0 -1 715 -5.4165549576282501e-02</internalNodes>
          <leafValues>
            5.6292247772216797e-01 -9.5109790563583374e-02</leafValues></_>
        <_>
          <internalNodes>
            0 -1 366 -1.7531367484480143e-03</internalNodes>
          <leafValues>
            -5.7602363824844360e-01 1.0983379930257797e-01</leafValues></_>
        <_>
          <internalNodes>
            0 -1 338 1.0031622368842363e-03</internalNodes>
          <leafValues>
            -1.8437933921813965e-01 3.0210688710212708e-01</leafValues></_>
        <_>
          <internalNodes>
            0 -1 586 2.4284846149384975e-03</internalNodes>
          <leafValues>
            -1.2390703707933426e-01 3.8714417815208435e-01</leafValues></_>
        <_>
          <internalNodes>
            0 -1 57 3.2010558061301708e-03</internalNodes>
          <leafValues>
            -2.1783956885337830e-01 2.1828265488147736e-01</leafValues></_>
        <_>
          <internalNodes>
            0 -1 182 1.6119570937007666e-03</internalNodes>
          <leafValues>
            -2.0902563631534576e-01 2.1411007642745972e-01</leafValues></_>
        <_>
          <internalNodes>
            0 -1 800 1.0833524167537689e-02</internalNodes>
          <leafValues>
            6.5023541450500488e-02 -7.2886097431182861e-01</leafValues></_>
        <_>
          <internalNodes>
            0 -1 516 1.7998665571212769e-03</internalNodes>
          <leafValues>
            -9.9558576941490173e-02 5.2247077226638794e-01</leafValues></_>
        <_>
          <internalNodes>
            0 -1 56 4.6550808474421501e-03</internalNodes>
          <leafValues>
            -9.2269942164421082e-02 4.5882788300514221e-01</leafValues></_>
        <_>
          <internalNodes>
            0 -1 479 1.5211764257401228e-03</internalNodes>
          <leafValues>
            7.1068406105041504e-02 -7.2441750764846802e-01</leafValues></_>
        <_>
          <internalNodes>
            0 -1 17 -3.1608875840902328e-02</internalNodes>
          <leafValues>
            5.2151244878768921e-01 -9.8891735076904297e-02</leafValues></_>
        <_>
          <internalNodes>
            0 -1 580 3.7007452920079231e-03</internalNodes>
          <leafValues>
            -2.2529980540275574e-01 2.1331219375133514e-01</leafValues></_>
        <_>
          <internalNodes>
            0 -1 789 1.2658394407480955e-03</internalNodes>
          <leafValues>
            -1.2639260292053223e-01 3.8351470232009888e-01</leafValues></_>
        <_>
          <internalNodes>
            0 -1 431 -2.4466840550303459e-03</internalNodes>
          <leafValues>
            3.2752862572669983e-01 -1.4844456315040588e-01</leafValues></_>
        <_>
          <internalNodes>
            0 -1 227 1.1267260648310184e-02</internalNodes>
          <leafValues>
            -2.1218267083168030e-01 2.2826260328292847e-01</leafValues></_>
        <_>
          <internalNodes>
            0 -1 806 -4.4728918001055717e-03</internalNodes>
          <leafValues>
            -8.7771499156951904e-01 5.6081943213939667e-02</leafValues></_>
        <_>
          <internalNodes>
            0 -1 637 7.1464076638221741e-02</internalNodes>
          <leafValues>
            4.0693771094083786e-02 -8.0779081583023071e-01</leafValues></_>
        <_>
          <internalNodes>
            0 -1 703 2.8796572238206863e-02</internalNodes>
          <leafValues>
            5.7693187147378922e-02 -7.0174169540405273e-01</leafValues></_>
        <_>
          <internalNodes>
            0 -1 620 -5.6108785793185234e-03</internalNodes>
          <leafValues>
            -7.7656280994415283e-01 4.6111639589071274e-02</leafValues></_>
        <_>
          <internalNodes>
            0 -1 797 6.2647019512951374e-04</internalNodes>
          <leafValues>
            1.3312055170536041e-01 -3.1019371747970581e-01</leafValues></_>
        <_>
          <internalNodes>
            0 -1 477 -4.2172998189926147e-02</internalNodes>
          <leafValues>
            -7.0640099048614502e-01 6.6108889877796173e-02</leafValues></_>
        <_>
          <internalNodes>
            0 -1 736 -1.4231970533728600e-02</internalNodes>
          <leafValues>
            2.7228769659996033e-01 -1.7984990775585175e-01</leafValues></_>
        <_>
          <internalNodes>
            0 -1 411 -9.0134944766759872e-03</internalNodes>
          <leafValues>
            -7.2367781400680542e-01 6.1974823474884033e-02</leafValues></_>
        <_>
          <internalNodes>
            0 -1 529 4.7818501479923725e-04</internalNodes>
          <leafValues>
            -2.0869278907775879e-01 2.2992707788944244e-01</leafValues></_>
        <_>
          <internalNodes>
            0 -1 774 3.0018277466297150e-02</internalNodes>
          <leafValues>
            -7.2608888149261475e-02 6.3255012035369873e-01</leafValues></_>
        <_>
          <internalNodes>
            0 -1 489 -3.3703646622598171e-03</internalNodes>
          <leafValues>
            3.3957487344741821e-01 -1.2289944291114807e-01</leafValues></_>
        <_>
          <internalNodes>
            0 -1 576 1.5035287942737341e-03</internalNodes>
          <leafValues>
            -1.9133649766445160e-01 2.5384399294853210e-01</leafValues></_>
        <_>
          <internalNodes>
            0 -1 92 -9.6675515174865723e-02</internalNodes>
          <leafValues>
            -6.7187613248825073e-01 7.4082903563976288e-02</leafValues></_>
        <_>
          <internalNodes>
            0 -1 759 -3.4342080354690552e-02</internalNodes>
          <leafValues>
            7.8444325923919678e-01 -6.2933586537837982e-02</leafValues></_>
        <_>
          <internalNodes>
            0 -1 758 -4.2552379891276360e-03</internalNodes>
          <leafValues>
            -4.9460646510124207e-01 1.0197326540946960e-01</leafValues></_>
        <_>
          <internalNodes>
            0 -1 99 2.9126508161425591e-03</internalNodes>
          <leafValues>
            -2.3719821870326996e-01 1.8502797186374664e-01</leafValues></_></weakClassifiers></_>
    <!-- stage 9 -->
    <_>
      <maxWeakCount>41</maxWeakCount>
      <stageThreshold>-1.0622390508651733e+00</stageThreshold>
      <weakClassifiers>
        <_>
          <internalNodes>
            0 -1 530 3.5980351269245148e-02</internalNodes>
          <leafValues>
            1.1507936567068100e-01 6.4130437374114990e-01</leafValues></_>
        <_>
          <internalNodes>
            0 -1 682 -2.8481576591730118e-02</internalNodes>
          <leafValues>
            2.4712705612182617e-01 -3.3726537227630615e-01</leafValues></_>
        <_>
          <internalNodes>
            0 -1 96 1.6812171787023544e-02</internalNodes>
          <leafValues>
            -2.5334444642066956e-01 2.7283489704132080e-01</leafValues></_>
        <_>
          <internalNodes>
            0 -1 322 -1.0004626587033272e-02</internalNodes>
          <leafValues>
            3.3736637234687805e-01 -1.6425612568855286e-01</leafValues></_>
        <_>
          <internalNodes>
            0 -1 239 -1.5129555016756058e-02</internalNodes>
          <leafValues>
            3.9255413413047791e-01 -1.5859407186508179e-01</leafValues></_>
        <_>
          <internalNodes>
            0 -1 208 -2.9496939852833748e-02</internalNodes>
          <leafValues>
            3.9648824930191040e-01 -1.3116598129272461e-01</leafValues></_>
        <_>
          <internalNodes>
            0 -1 301 -4.7184981405735016e-02</internalNodes>
          <leafValues>
            6.2634080648422241e-01 -8.9072190225124359e-02</leafValues></_>
        <_>
          <internalNodes>
            0 -1 399 5.3705871105194092e-02</internalNodes>
          <leafValues>
            -8.4825947880744934e-02 5.5152451992034912e-01</leafValues></_>
        <_>
          <internalNodes>
            0 -1 307 -4.4069491326808929e-02</internalNodes>
          <leafValues>
            -8.1002420186996460e-01 6.9328509271144867e-02</leafValues></_>
        <_>
          <internalNodes>
            0 -1 569 -2.3452676832675934e-03</internalNodes>
          <leafValues>
            3.6924439668655396e-01 -1.4180986583232880e-01</leafValues></_>
        <_>
          <internalNodes>
            0 -1 372 3.4288731403648853e-03</internalNodes>
          <leafValues>
            6.4734756946563721e-02 -7.9783296585083008e-01</leafValues></_>
        <_>
          <internalNodes>
            0 -1 496 1.0754273971542716e-03</internalNodes>
          <leafValues>
            -1.4314770698547363e-01 3.4783118963241577e-01</leafValues></_>
        <_>
          <internalNodes>
            0 -1 781 2.1268684417009354e-02</internalNodes>
          <leafValues>
            -1.1677174270153046e-01 3.7655195593833923e-01</leafValues></_>
        <_>
          <internalNodes>
            0 -1 790 -1.1893911287188530e-02</internalNodes>
          <leafValues>
            4.2860087752342224e-01 -1.0780481994152069e-01</leafValues></_>
        <_>
          <internalNodes>
            0 -1 746 -4.0944915264844894e-02</internalNodes>
          <leafValues>
            4.5243182778358459e-01 -9.8758056759834290e-02</leafValues></_>
        <_>
          <internalNodes>
            0 -1 433 -5.7701993500813842e-04</internalNodes>
          <leafValues>
            3.4906497597694397e-01 -1.2281092256307602e-01</leafValues></_>
        <_>
          <internalNodes>
            0 -1 819 -8.7546333670616150e-03</internalNodes>
          <leafValues>
            4.5344507694244385e-01 -9.9412046372890472e-02</leafValues></_>
        <_>
          <internalNodes>
            0 -1 824 6.3502877019345760e-03</internalNodes>
          <leafValues>
            -1.0519246757030487e-01 4.4674852490425110e-01</leafValues></_>
        <_>
          <internalNodes>
            0 -1 334 1.6378316795453429e-03</internalNodes>
          <leafValues>
            1.1620263755321503e-01 -4.0744623541831970e-01</leafValues></_>
        <_>
          <internalNodes>
            0 -1 798 9.6696559339761734e-03</internalNodes>
          <leafValues>
            7.2273187339305878e-02 -6.2546491622924805e-01</leafValues></_>
        <_>
          <internalNodes>
            0 -1 663 -2.3340376093983650e-02</internalNodes>
          <leafValues>
            -5.3611260652542114e-01 7.8803345561027527e-02</leafValues></_>
        <_>
          <internalNodes>
            0 -1 222 2.9695086181163788e-02</internalNodes>
          <leafValues>
            -2.1605777740478516e-01 2.3774273693561554e-01</leafValues></_>
        <_>
          <internalNodes>
            0 -1 441 5.4147740593180060e-04</internalNodes>
          <leafValues>
            -1.7120152711868286e-01 2.5159469246864319e-01</leafValues></_>
        <_>
          <internalNodes>
            0 -1 384 5.5192902684211731e-02</internalNodes>
          <leafValues>
            7.1634173393249512e-02 -6.6955465078353882e-01</leafValues></_>
        <_>
          <internalNodes>
            0 -1 673 -6.6229803487658501e-03</internalNodes>
          <leafValues>
            -5.5586344003677368e-01 7.3651455342769623e-02</leafValues></_>
        <_>
          <internalNodes>
            0 -1 701 4.4453451409935951e-03</internalNodes>
          <leafValues>
            -1.9048635661602020e-01 2.3163434863090515e-01</leafValues></_>
        <_>
          <internalNodes>
            0 -1 395 -2.4027511477470398e-02</internalNodes>
          <leafValues>
            3.7815824151039124e-01 -1.2045253068208694e-01</leafValues></_>
        <_>
          <internalNodes>
            0 -1 628 -2.6435712352395058e-03</internalNodes>
          <leafValues>
            -5.3468054533004761e-01 8.8407613337039948e-02</leafValues></_>
        <_>
          <internalNodes>
            0 -1 233 -2.1268652752041817e-02</internalNodes>
          <leafValues>
            6.1874783039093018e-01 -8.1322349607944489e-02</leafValues></_>
        <_>
          <internalNodes>
            0 -1 65 5.9218201786279678e-03</internalNodes>
          <leafValues>
            -1.3903504610061646e-01 3.3294481039047241e-01</leafValues></_>
        <_>
          <internalNodes>
            0 -1 362 1.8293768167495728e-02</internalNodes>
          <leafValues>
            -1.4962582290172577e-01 3.0726623535156250e-01</leafValues></_>
        <_>
          <internalNodes>
            0 -1 310 1.3076109811663628e-02</internalNodes>
          <leafValues>
            -1.7857281863689423e-01 2.7957379817962646e-01</leafValues></_>
        <_>
          <internalNodes>
            0 -1 320 3.2991373445838690e-03</internalNodes>
          <leafValues>
            -1.4157234132289886e-01 3.7010771036148071e-01</leafValues></_>
        <_>
          <internalNodes>
            0 -1 344 5.9238206595182419e-03</internalNodes>
          <leafValues>
            -1.9607283174991608e-01 2.5902754068374634e-01</leafValues></_>
        <_>
          <internalNodes>
            0 -1 406 3.4529680851846933e-03</internalNodes>
          <leafValues>
            7.8920565545558929e-02 -5.9348505735397339e-01</leafValues></_>
        <_>
          <internalNodes>
            0 -1 795 -7.0976244751363993e-04</internalNodes>
          <leafValues>
            -3.3471307158470154e-01 1.3110454380512238e-01</leafValues></_>
        <_>
          <internalNodes>
            0 -1 355 -3.0326284468173981e-03</internalNodes>
          <leafValues>
            3.2443198561668396e-01 -1.3441276550292969e-01</leafValues></_>
        <_>
          <internalNodes>
            0 -1 400 -1.1154649406671524e-01</internalNodes>
          <leafValues>
            4.1731107234954834e-01 -1.0336611419916153e-01</leafValues></_>
        <_>
          <internalNodes>
            0 -1 467 -2.5235097855329514e-03</internalNodes>
          <leafValues>
            3.6239597201347351e-01 -1.3571928441524506e-01</leafValues></_>
        <_>
          <internalNodes>
            0 -1 111 -7.7875375747680664e-02</internalNodes>
          <leafValues>
            -6.7045456171035767e-01 9.3176841735839844e-02</leafValues></_>
        <_>
          <internalNodes>
            0 -1 686 -4.8416951904073358e-04</internalNodes>
          <leafValues>
            2.4587763845920563e-01 -1.9462597370147705e-01</leafValues></_></weakClassifiers></_>
    <!-- stage 10 -->
    <_>
      <maxWeakCount>40</maxWeakCount>
      <stageThreshold>-9.5369774103164673e-01</stageThreshold>
      <weakClassifiers>
        <_>
          <internalNodes>
            0 -1 84 2.9322680085897446e-02</internalNodes>
          <leafValues>
            -4.8366013914346695e-02 5.0958228111267090e-01</leafValues></_>
        <_>
          <internalNodes>
            0 -1 716 -2.7530979365110397e-02</internalNodes>
          <leafValues>
            3.5274931788444519e-01 -1.8422655761241913e-01</leafValues></_>
        <_>
          <internalNodes>
            0 -1 597 5.8340515941381454e-02</internalNodes>
          <leafValues>
            8.3628073334693909e-02 -7.0693850517272949e-01</leafValues></_>
        <_>
          <internalNodes>
            0 -1 116 1.8663480877876282e-01</internalNodes>
          <leafValues>
            -1.3542504608631134e-01 4.8435562849044800e-01</leafValues></_>
        <_>
          <internalNodes>
            0 -1 211 2.6559788733720779e-02</internalNodes>
          <leafValues>
            -1.5858152508735657e-01 3.6700025200843811e-01</leafValues></_>
        <_>
          <internalNodes>
            0 -1 245 3.0893575400114059e-02</internalNodes>
          <leafValues>
            -1.0301469266414642e-01 6.7293870449066162e-01</leafValues></_>
        <_>
          <internalNodes>
            0 -1 207 5.2441000938415527e-02</internalNodes>
          <leafValues>
            -1.2000820040702820e-01 4.4230294227600098e-01</leafValues></_>
        <_>
          <internalNodes>
            0 -1 202 1.0537586174905300e-02</internalNodes>
          <leafValues>
            8.7081529200077057e-02 -6.0197395086288452e-01</leafValues></_>
        <_>
          <internalNodes>
            0 -1 787 -3.7779752165079117e-03</internalNodes>
          <leafValues>
            2.3858943581581116e-01 -1.8116889894008636e-01</leafValues></_>
        <_>
          <internalNodes>
            0 -1 221 -5.3939940407872200e-03</internalNodes>
          <leafValues>
            1.1263013631105423e-01 -3.6536288261413574e-01</leafValues></_>
        <_>
          <internalNodes>
            0 -1 164 -3.0400538817048073e-02</internalNodes>
          <leafValues>
            3.1670200824737549e-01 -1.5261805057525635e-01</leafValues></_>
        <_>
          <internalNodes>
            0 -1 607 4.7406420344486833e-04</internalNodes>
          <leafValues>
            -1.2510907649993896e-01 3.3413392305374146e-01</leafValues></_>
        <_>
          <internalNodes>
            0 -1 520 2.6301252655684948e-03</internalNodes>
          <leafValues>
            -1.3260971009731293e-01 3.3128613233566284e-01</leafValues></_>
        <_>
          <internalNodes>
            0 -1 519 -2.5355210527777672e-03</internalNodes>
          <leafValues>
            6.1981976032257080e-01 -7.3719903826713562e-02</leafValues></_>
        <_>
          <internalNodes>
            0 -1 770 2.9499078169465065e-02</internalNodes>
          <leafValues>
            -6.2644451856613159e-02 5.7649785280227661e-01</leafValues></_>
        <_>
          <internalNodes>
            0 -1 243 -4.0920618921518326e-03</internalNodes>
          <leafValues>
            -3.5314956307411194e-01 1.3362200558185577e-01</leafValues></_>
        <_>
          <internalNodes>
            0 -1 766 -2.2903149947524071e-03</internalNodes>
          <leafValues>
            6.3069593906402588e-01 -7.4099190533161163e-02</leafValues></_>
        <_>
          <internalNodes>
            0 -1 595 1.7124137375503778e-03</internalNodes>
          <leafValues>
            8.1447184085845947e-02 -6.4714330434799194e-01</leafValues></_>
        <_>
          <internalNodes>
            0 -1 501 3.2086283317767084e-04</internalNodes>
          <leafValues>
            -1.8520502746105194e-01 2.4140249192714691e-01</leafValues></_>
        <_>
          <internalNodes>
            0 -1 60 -5.3937220945954323e-03</internalNodes>
          <leafValues>
            4.4324401021003723e-01 -9.1890878975391388e-02</leafValues></_>
        <_>
          <internalNodes>
            0 -1 224 -1.9361495971679688e-02</internalNodes>
          <leafValues>
            -6.0829687118530273e-01 7.5629822909832001e-02</leafValues></_>
        <_>
          <internalNodes>
            0 -1 808 -1.8454496748745441e-03</internalNodes>
          <leafValues>
            4.1811984777450562e-01 -1.0195875167846680e-01</leafValues></_>
        <_>
          <internalNodes>
            0 -1 780 1.8715100362896919e-02</internalNodes>
          <leafValues>
            -1.0932360589504242e-01 3.5479405522346497e-01</leafValues></_>
        <_>
          <internalNodes>
            0 -1 820 6.0997968539595604e-03</internalNodes>
          <leafValues>
            -7.0394396781921387e-02 5.7217073440551758e-01</leafValues></_>
        <_>
          <internalNodes>
            0 -1 664 3.4430978121235967e-04</internalNodes>
          <leafValues>
            -1.4880169928073883e-01 2.6107016205787659e-01</leafValues></_>
        <_>
          <internalNodes>
            0 -1 416 2.6559611782431602e-02</internalNodes>
          <leafValues>
            -1.7694525420665741e-01 2.3551800847053528e-01</leafValues></_>
        <_>
          <internalNodes>
            0 -1 719 -2.2734529338777065e-03</internalNodes>
          <leafValues>
            -3.4067475795745850e-01 1.3361005485057831e-01</leafValues></_>
        <_>
          <internalNodes>
            0 -1 235 -1.6388040035963058e-02</internalNodes>
          <leafValues>
            4.8899307847023010e-01 -8.3611205220222473e-02</leafValues></_>
        <_>
          <internalNodes>
            0 -1 284 -3.7880805321037769e-03</internalNodes>
          <leafValues>
            1.0335756838321686e-01 -4.5416650176048279e-01</leafValues></_>
        <_>
          <internalNodes>
            0 -1 446 1.8308861181139946e-02</internalNodes>
          <leafValues>
            7.2688326239585876e-02 -6.0760825872421265e-01</leafValues></_>
        <_>
          <internalNodes>
            0 -1 404 -3.1461897306144238e-03</internalNodes>
          <leafValues>
            -6.3764107227325439e-01 5.7966500520706177e-02</leafValues></_>
        <_>
          <internalNodes>
            0 -1 213 -3.0744601041078568e-02</internalNodes>
          <leafValues>
            -9.1560566425323486e-01 3.5432998090982437e-02</leafValues></_>
        <_>
          <internalNodes>
            0 -1 324 7.4978834018111229e-03</internalNodes>
          <leafValues>
            -1.3196741044521332e-01 2.9620090126991272e-01</leafValues></_>
        <_>
          <internalNodes>
            0 -1 721 6.8653173744678497e-02</internalNodes>
          <leafValues>
            6.8709850311279297e-02 -5.9577149152755737e-01</leafValues></_>
        <_>
          <internalNodes>
            0 -1 813 -1.7899306840263307e-04</internalNodes>
          <leafValues>
            -3.1845894455909729e-01 1.1552172154188156e-01</leafValues></_>
        <_>
          <internalNodes>
            0 -1 34 -1.3484826683998108e-01</internalNodes>
          <leafValues>
            -6.7245733737945557e-01 5.9309631586074829e-02</leafValues></_>
        <_>
          <internalNodes>
            0 -1 495 -1.0294836247339845e-03</internalNodes>
          <leafValues>
            4.3254488706588745e-01 -9.9988512694835663e-02</leafValues></_>
        <_>
          <internalNodes>
            0 -1 504 1.1633499525487423e-03</internalNodes>
          <leafValues>
            -1.1077959090471268e-01 3.4617620706558228e-01</leafValues></_>
        <_>
          <internalNodes>
            0 -1 480 2.9673203825950623e-03</internalNodes>
          <leafValues>
            6.0132302343845367e-02 -7.2965842485427856e-01</leafValues></_>
        <_>
          <internalNodes>
            0 -1 345 4.5373260974884033e-02</internalNodes>
          <leafValues>
            4.2474433779716492e-02 -7.3778337240219116e-01</leafValues></_></weakClassifiers></_>
    <!-- stage 11 -->
    <_>
      <maxWeakCount>52</maxWeakCount>
      <stageThreshold>-1.0595892667770386e+00</stageThreshold>
      <weakClassifiers>
        <_>
          <internalNodes>
            0 -1 212 3.1631316989660263e-02</internalNodes>
          <leafValues>
            1.3219481706619263e-01 6.4889252185821533e-01</leafValues></_>
        <_>
          <internalNodes>
            0 -1 24 3.3525086939334869e-02</internalNodes>
          <leafValues>
            -2.3795098066329956e-01 3.2349154353141785e-01</leafValues></_>
        <_>
          <internalNodes>
            0 -1 699 -4.3366581201553345e-02</internalNodes>
          <leafValues>
            3.2921001315116882e-01 -1.6873469948768616e-01</leafValues></_>
        <_>
          <internalNodes>
            0 -1 139 1.4745829626917839e-02</internalNodes>
          <leafValues>
            -1.8567611277103424e-01 3.7913468480110168e-01</leafValues></_>
        <_>
          <internalNodes>
            0 -1 242 3.4502688795328140e-02</internalNodes>
          <leafValues>
            -1.0747744143009186e-01 4.2668876051902771e-01</leafValues></_>
        <_>
          <internalNodes>
            0 -1 570 -2.4461699649691582e-03</internalNodes>
          <leafValues>
            2.8104919195175171e-01 -1.6632279753684998e-01</leafValues></_>
        <_>
          <internalNodes>
            0 -1 204 -9.8871320486068726e-02</internalNodes>
          <leafValues>
            4.1603496670722961e-01 -1.2436383217573166e-01</leafValues></_>
        <_>
          <internalNodes>
            0 -1 97 -1.1582589149475098e-01</internalNodes>
          <leafValues>
            -5.4188078641891479e-01 8.9181788265705109e-02</leafValues></_>
        <_>
          <internalNodes>
            0 -1 106 -1.0334444791078568e-01</internalNodes>
          <leafValues>
            7.1413600444793701e-01 -6.5526746213436127e-02</leafValues></_>
        <_>
          <internalNodes>
            0 -1 258 -1.6561202704906464e-02</internalNodes>
          <leafValues>
            -7.1145462989807129e-01 7.0453651249408722e-02</leafValues></_>
        <_>
          <internalNodes>
            0 -1 223 2.1377000957727432e-02</internalNodes>
          <leafValues>
            -2.1264660358428955e-01 2.0329184830188751e-01</leafValues></_>
        <_>
          <internalNodes>
            0 -1 788 9.9356546998023987e-03</internalNodes>
          <leafValues>
            -1.6299840807914734e-01 3.0228504538536072e-01</leafValues></_>
        <_>
          <internalNodes>
            0 -1 378 1.6669885953888297e-03</internalNodes>
          <leafValues>
            -2.7101755142211914e-01 1.6214406490325928e-01</leafValues></_>
        <_>
          <internalNodes>
            0 -1 149 1.6736786812543869e-02</internalNodes>
          <leafValues>
            -1.2435618788003922e-01 3.5153448581695557e-01</leafValues></_>
        <_>
          <internalNodes>
            0 -1 485 7.8526083379983902e-03</internalNodes>
          <leafValues>
            7.0590265095233917e-02 -6.4853709936141968e-01</leafValues></_>
        <_>
          <internalNodes>
            0 -1 195 -7.0310188457369804e-03</internalNodes>
          <leafValues>
            3.1293728947639465e-01 -1.3243968784809113e-01</leafValues></_>
        <_>
          <internalNodes>
            0 -1 303 1.0277052409946918e-02</internalNodes>
          <leafValues>
            5.3917728364467621e-02 -7.6320147514343262e-01</leafValues></_>
        <_>
          <internalNodes>
            0 -1 272 4.8849657177925110e-03</internalNodes>
          <leafValues>
            -1.3039946556091309e-01 3.2589870691299438e-01</leafValues></_>
        <_>
          <internalNodes>
            0 -1 556 3.9940338581800461e-02</internalNodes>
          <leafValues>
            4.8052959144115448e-02 -7.6088428497314453e-01</leafValues></_>
        <_>
          <internalNodes>
            0 -1 517 -9.1915897792205215e-04</internalNodes>
          <leafValues>
            2.8544083237648010e-01 -1.3688789308071136e-01</leafValues></_>
        <_>
          <internalNodes>
            0 -1 454 2.2534059826284647e-03</internalNodes>
          <leafValues>
            -9.4606615602970123e-02 4.0947866439819336e-01</leafValues></_>
        <_>
          <internalNodes>
            0 -1 488 -2.5482522323727608e-04</internalNodes>
          <leafValues>
            -2.7753663063049316e-01 1.4642971754074097e-01</leafValues></_>
        <_>
          <internalNodes>
            0 -1 295 7.4009038507938385e-03</internalNodes>
          <leafValues>
            5.7883653789758682e-02 -6.2551414966583252e-01</leafValues></_>
        <_>
          <internalNodes>
            0 -1 718 -1.5681367367506027e-03</internalNodes>
          <leafValues>
            1.4214181900024414e-01 -2.6003789901733398e-01</leafValues></_>
        <_>
          <internalNodes>
            0 -1 379 -8.8725239038467407e-03</internalNodes>
          <leafValues>
            3.5841903090476990e-01 -1.2157572060823441e-01</leafValues></_>
        <_>
          <internalNodes>
            0 -1 771 5.2896395325660706e-02</internalNodes>
          <leafValues>
            -4.3892808258533478e-02 7.9793280363082886e-01</leafValues></_>
        <_>
          <internalNodes>
            0 -1 12 5.6509143114089966e-01</internalNodes>
          <leafValues>
            -6.7043036222457886e-02 5.3497320413589478e-01</leafValues></_>
        <_>
          <internalNodes>
            0 -1 26 -8.7963938713073730e-02</internalNodes>
          <leafValues>
            -4.4491982460021973e-01 1.0099473595619202e-01</leafValues></_>
        <_>
          <internalNodes>
            0 -1 531 1.7098921816796064e-03</internalNodes>
          <leafValues>
            -1.9388966262340546e-01 2.2997727990150452e-01</leafValues></_>
        <_>
          <internalNodes>
            0 -1 551 8.5273422300815582e-03</internalNodes>
          <leafValues>
            -2.0333266258239746e-01 2.4243392050266266e-01</leafValues></_>
        <_>
          <internalNodes>
            0 -1 614 3.9816768839955330e-03</internalNodes>
          <leafValues>
            -9.6189923584461212e-02 4.1387715935707092e-01</leafValues></_>
        <_>
          <internalNodes>
            0 -1 443 -1.4992740470916033e-03</internalNodes>
          <leafValues>
            3.2106333971023560e-01 -1.3145999610424042e-01</leafValues></_>
        <_>
          <internalNodes>
            0 -1 104 -1.1223124340176582e-02</internalNodes>
          <leafValues>
            2.5754183530807495e-01 -1.6381311416625977e-01</leafValues></_>
        <_>
          <internalNodes>
            0 -1 298 2.5067683309316635e-02</internalNodes>
          <leafValues>
            -6.4770251512527466e-02 6.7446273565292358e-01</leafValues></_>
        <_>
          <internalNodes>
            0 -1 695 -1.1472955346107483e-02</internalNodes>
          <leafValues>
            5.6862688064575195e-01 -5.8919280767440796e-02</leafValues></_>
        <_>
          <internalNodes>
            0 -1 652 -3.0589854344725609e-02</internalNodes>
          <leafValues>
            3.1455552577972412e-01 -1.5637236833572388e-01</leafValues></_>
        <_>
          <internalNodes>
            0 -1 640 1.6823192127048969e-03</internalNodes>
          <leafValues>
            -1.4518265426158905e-01 3.2416245341300964e-01</leafValues></_>
        <_>
          <internalNodes>
            0 -1 577 -9.1434717178344727e-03</internalNodes>
          <leafValues>
            -6.8790066242218018e-01 6.4291685819625854e-02</leafValues></_>
        <_>
          <internalNodes>
            0 -1 783 6.2702700495719910e-02</internalNodes>
          <leafValues>
            7.5653664767742157e-02 -4.9802529811859131e-01</leafValues></_>
        <_>
          <internalNodes>
            0 -1 215 -1.4012853801250458e-01</internalNodes>
          <leafValues>
            -7.4350249767303467e-01 5.3213603794574738e-02</leafValues></_>
        <_>
          <internalNodes>
            0 -1 625 -6.6045869607478380e-04</internalNodes>
          <leafValues>
            -3.7761977314949036e-01 9.6156276762485504e-02</leafValues></_>
        <_>
          <internalNodes>
            0 -1 739 1.2600058689713478e-02</internalNodes>
          <leafValues>
            5.3564418107271194e-02 -6.9121003150939941e-01</leafValues></_>
        <_>
          <internalNodes>
            0 -1 120 6.7435684613883495e-03</internalNodes>
          <leafValues>
            -1.8831582367420197e-01 2.1970213949680328e-01</leafValues></_>
        <_>
          <internalNodes>
            0 -1 192 2.0170919597148895e-03</internalNodes>
          <leafValues>
            -1.4395342767238617e-01 2.9501137137413025e-01</leafValues></_>
        <_>
          <internalNodes>
            0 -1 157 4.5718979090452194e-03</internalNodes>
          <leafValues>
            -1.0392088443040848e-01 4.1147267818450928e-01</leafValues></_>
        <_>
          <internalNodes>
            0 -1 318 -1.1081894859671593e-02</internalNodes>
          <leafValues>
            -6.4154458045959473e-01 7.5609497725963593e-02</leafValues></_>
        <_>
          <internalNodes>
            0 -1 442 5.1359413191676140e-04</internalNodes>
          <leafValues>
            -1.4028356969356537e-01 3.4762924909591675e-01</leafValues></_>
        <_>
          <internalNodes>
            0 -1 497 -5.6899274932220578e-04</internalNodes>
          <leafValues>
            2.6332214474678040e-01 -1.5033921599388123e-01</leafValues></_>
        <_>
          <internalNodes>
            0 -1 281 -1.4312511775642633e-03</internalNodes>
          <leafValues>
            2.4780014157295227e-01 -1.8245361745357513e-01</leafValues></_>
        <_>
          <internalNodes>
            0 -1 10 2.1509494632482529e-02</internalNodes>
          <leafValues>
            -1.0418593138456345e-01 4.0606054663658142e-01</leafValues></_>
        <_>
          <internalNodes>
            0 -1 151 3.2180810812860727e-03</internalNodes>
          <leafValues>
            -1.9119188189506531e-01 2.6742249727249146e-01</leafValues></_>
        <_>
          <internalNodes>
            0 -1 760 -3.6585472524166107e-02</internalNodes>
          <leafValues>
            8.4873712062835693e-01 -5.2521873265504837e-02</leafValues></_></weakClassifiers></_>
    <!-- stage 12 -->
    <_>
      <maxWeakCount>48</maxWeakCount>
      <stageThreshold>-1.0542577505111694e+00</stageThreshold>
      <weakClassifiers>
        <_>
          <internalNodes>
            0 -1 85 1.9437326490879059e-01</internalNodes>
          <leafValues>
            1.9663512706756592e-01 6.9710469245910645e-01</leafValues></_>
        <_>
          <internalNodes>
            0 -1 130 -1.1045031249523163e-02</internalNodes>
          <leafValues>
            1.8177305161952972e-01 -3.4947291016578674e-01</leafValues></_>
        <_>
          <internalNodes>
            0 -1 220 -1.7662423197180033e-03</internalNodes>
          <leafValues>
            2.4616713821887970e-01 -2.0787030458450317e-01</leafValues></_>
        <_>
          <internalNodes>
            0 -1 409 2.2877475712448359e-03</internalNodes>
          <leafValues>
            7.8243441879749298e-02 -5.9155648946762085e-01</leafValues></_>
        <_>
          <internalNodes>
            0 -1 325 -3.5496582277119160e-03</internalNodes>
          <leafValues>
            2.2614885866641998e-01 -2.0918060839176178e-01</leafValues></_>
        <_>
          <internalNodes>
            0 -1 53 9.0728467330336571e-03</internalNodes>
          <leafValues>
            -3.2091274857521057e-01 1.8101118505001068e-01</leafValues></_>
        <_>
          <internalNodes>
            0 -1 631 1.0833846032619476e-01</internalNodes>
          <leafValues>
            3.6736708134412766e-02 -6.3765829801559448e-01</leafValues></_>
        <_>
          <internalNodes>
            0 -1 135 -9.6730338409543037e-03</internalNodes>
          <leafValues>
            4.4096803665161133e-01 -9.8337389528751373e-02</leafValues></_>
        <_>
          <internalNodes>
            0 -1 543 -7.2098453529179096e-04</internalNodes>
          <leafValues>
            -3.1692564487457275e-01 1.4533200860023499e-01</leafValues></_>
        <_>
          <internalNodes>
            0 -1 659 -7.6835453510284424e-03</internalNodes>
          <leafValues>
            -5.5807012319564819e-01 8.9965656399726868e-02</leafValues></_>
        <_>
          <internalNodes>
            0 -1 751 -7.6382164843380451e-03</internalNodes>
          <leafValues>
            -7.0094585418701172e-01 4.9714699387550354e-02</leafValues></_>
        <_>
          <internalNodes>
            0 -1 571 1.4723245054483414e-02</internalNodes>
          <leafValues>
            -1.3996522128582001e-01 3.0047619342803955e-01</leafValues></_>
        <_>
          <internalNodes>
            0 -1 373 -1.8216360360383987e-02</internalNodes>
          <leafValues>
            -7.4196004867553711e-01 3.8376126438379288e-02</leafValues></_>
        <_>
          <internalNodes>
            0 -1 41 -5.4886504076421261e-03</internalNodes>
          <leafValues>
            2.9736977815628052e-01 -1.3399671018123627e-01</leafValues></_>
        <_>
          <internalNodes>
            0 -1 728 -9.7350999712944031e-03</internalNodes>
          <leafValues>
            -5.3890424966812134e-01 7.3861777782440186e-02</leafValues></_>
        <_>
          <internalNodes>
            0 -1 73 8.8329851860180497e-04</internalNodes>
          <leafValues>
            1.1407737433910370e-01 -3.5636359453201294e-01</leafValues></_>
        <_>
          <internalNodes>
            0 -1 102 1.1279304744675756e-03</internalNodes>
          <leafValues>
            -7.7699840068817139e-02 5.2964282035827637e-01</leafValues></_>
        <_>
          <internalNodes>
            0 -1 669 1.1152995750308037e-02</internalNodes>
          <leafValues>
            5.7087384164333344e-02 -7.4159473180770874e-01</leafValues></_>
        <_>
          <internalNodes>
            0 -1 762 1.8580260220915079e-03</internalNodes>
          <leafValues>
            -6.9936498999595642e-02 5.9379655122756958e-01</leafValues></_>
        <_>
          <internalNodes>
            0 -1 418 4.3818890117108822e-03</internalNodes>
          <leafValues>
            -1.5925271809101105e-01 2.3794580996036530e-01</leafValues></_>
        <_>
          <internalNodes>
            0 -1 339 9.4297546893358231e-03</internalNodes>
          <leafValues>
            -1.6541896760463715e-01 2.7602049708366394e-01</leafValues></_>
        <_>
          <internalNodes>
            0 -1 297 -9.0075749903917313e-03</internalNodes>
          <leafValues>
            -7.5378429889678955e-01 5.4602470248937607e-02</leafValues></_>
        <_>
          <internalNodes>
            0 -1 587 1.6455754637718201e-02</internalNodes>
          <leafValues>
            -1.1428323388099670e-01 3.8296476006507874e-01</leafValues></_>
        <_>
          <internalNodes>
            0 -1 627 -4.0915049612522125e-02</internalNodes>
          <leafValues>
            2.9477450251579285e-01 -1.6237604618072510e-01</leafValues></_>
        <_>
          <internalNodes>
            0 -1 278 -1.0652758181095123e-02</internalNodes>
          <leafValues>
            4.4013732671737671e-01 -8.2582958042621613e-02</leafValues></_>
        <_>
          <internalNodes>
            0 -1 753 6.5813874825835228e-03</internalNodes>
          <leafValues>
            7.4280090630054474e-02 -5.9216278791427612e-01</leafValues></_>
        <_>
          <internalNodes>
            0 -1 38 -8.9655518531799316e-02</internalNodes>
          <leafValues>
            -7.7748984098434448e-01 4.2354460805654526e-02</leafValues></_>
        <_>
          <internalNodes>
            0 -1 734 1.7124850302934647e-02</internalNodes>
          <leafValues>
            5.5780258029699326e-02 -6.3003623485565186e-01</leafValues></_>
        <_>
          <internalNodes>
            0 -1 711 -3.8202218711376190e-02</internalNodes>
          <leafValues>
            4.3415725231170654e-01 -1.0237640142440796e-01</leafValues></_>
        <_>
          <internalNodes>
            0 -1 666 -9.8551232367753983e-03</internalNodes>
          <leafValues>
            -7.6092237234115601e-01 5.2105735987424850e-02</leafValues></_>
        <_>
          <internalNodes>
            0 -1 508 -3.6194428801536560e-02</internalNodes>
          <leafValues>
            6.8064630031585693e-01 -6.4767114818096161e-02</leafValues></_>
        <_>
          <internalNodes>
            0 -1 448 7.2382943471893668e-04</internalNodes>
          <leafValues>
            -1.1930534243583679e-01 3.0142676830291748e-01</leafValues></_>
        <_>
          <internalNodes>
            0 -1 518 9.5445092301815748e-04</internalNodes>
          <leafValues>
            -1.5110231935977936e-01 2.5415432453155518e-01</leafValues></_>
        <_>
          <internalNodes>
            0 -1 417 -3.4511983394622803e-02</internalNodes>
          <leafValues>
            -7.7564966678619385e-01 5.6545216590166092e-02</leafValues></_>
        <_>
          <internalNodes>
            0 -1 630 -7.7884329948574305e-04</internalNodes>
          <leafValues>
            1.2530757486820221e-01 -3.1544071435928345e-01</leafValues></_>
        <_>
          <internalNodes>
            0 -1 585 -3.1528635881841183e-03</internalNodes>
          <leafValues>
            3.7065592408180237e-01 -1.1689743399620056e-01</leafValues></_>
        <_>
          <internalNodes>
            0 -1 655 2.4099361151456833e-02</internalNodes>
          <leafValues>
            5.7410720735788345e-02 -7.1776086091995239e-01</leafValues></_>
        <_>
          <internalNodes>
            0 -1 256 1.0164042934775352e-02</internalNodes>
          <leafValues>
            -2.0230749249458313e-01 1.9066713750362396e-01</leafValues></_>
        <_>
          <internalNodes>
            0 -1 427 4.7947280108928680e-03</internalNodes>
          <leafValues>
            -1.9212372601032257e-01 2.3752568662166595e-01</leafValues></_>
        <_>
          <internalNodes>
            0 -1 123 7.3025445453822613e-04</internalNodes>
          <leafValues>
            -1.9596622884273529e-01 2.0916530489921570e-01</leafValues></_>
        <_>
          <internalNodes>
            0 -1 107 -1.8880929797887802e-02</internalNodes>
          <leafValues>
            5.3828012943267822e-01 -6.9362536072731018e-02</leafValues></_>
        <_>
          <internalNodes>
            0 -1 311 2.1207137033343315e-03</internalNodes>
          <leafValues>
            8.4262527525424957e-02 -5.0460624694824219e-01</leafValues></_>
        <_>
          <internalNodes>
            0 -1 266 2.5865220231935382e-04</internalNodes>
          <leafValues>
            -2.2338339686393738e-01 1.9862480461597443e-01</leafValues></_>
        <_>
          <internalNodes>
            0 -1 93 1.3239872641861439e-03</internalNodes>
          <leafValues>
            -7.9482011497020721e-02 4.9700322747230530e-01</leafValues></_>
        <_>
          <internalNodes>
            0 -1 248 -2.3364581167697906e-02</internalNodes>
          <leafValues>
            -5.0355482101440430e-01 8.4205806255340576e-02</leafValues></_>
        <_>
          <internalNodes>
            0 -1 611 -2.9385718517005444e-03</internalNodes>
          <leafValues>
            2.4674861133098602e-01 -1.6362142562866211e-01</leafValues></_>
        <_>
          <internalNodes>
            0 -1 385 3.8400933146476746e-02</internalNodes>
          <leafValues>
            -1.8793475627899170e-01 2.0565299689769745e-01</leafValues></_>
        <_>
          <internalNodes>
            0 -1 674 3.1514383852481842e-02</internalNodes>
          <leafValues>
            -6.5571554005146027e-02 6.7500174045562744e-01</leafValues></_></weakClassifiers></_>
    <!-- stage 13 -->
    <_>
      <maxWeakCount>50</maxWeakCount>
      <stageThreshold>-1.0517965555191040e+00</stageThreshold>
      <weakClassifiers>
        <_>
          <internalNodes>
            0 -1 249 8.9827612042427063e-02</internalNodes>
          <leafValues>
            1.3888889551162720e-01 6.1335402727127075e-01</leafValues></_>
        <_>
          <internalNodes>
            0 -1 76 1.4672419987618923e-02</internalNodes>
          <leafValues>
            -1.4512793719768524e-01 3.0748733878135681e-01</leafValues></_>
        <_>
          <internalNodes>
            0 -1 240 5.0080370157957077e-02</internalNodes>
          <leafValues>
            -6.7420057952404022e-02 6.2074655294418335e-01</leafValues></_>
        <_>
          <internalNodes>
            0 -1 741 -7.9078041017055511e-03</internalNodes>
          <leafValues>
            1.8607307970523834e-01 -2.4232056736946106e-01</leafValues></_>
        <_>
          <internalNodes>
            0 -1 131 -3.6602136678993702e-03</internalNodes>
          <leafValues>
            1.3594332337379456e-01 -3.6297160387039185e-01</leafValues></_>
        <_>
          <internalNodes>
            0 -1 683 4.1090412996709347e-03</internalNodes>
          <leafValues>
            -2.2499981522560120e-01 1.9718149304389954e-01</leafValues></_>
        <_>
          <internalNodes>
            0 -1 486 1.3154400512576103e-02</internalNodes>
          <leafValues>
            -2.3077499866485596e-01 1.8963320553302765e-01</leafValues></_>
        <_>
          <internalNodes>
            0 -1 483 -1.1212693527340889e-02</internalNodes>
          <leafValues>
            3.1517687439918518e-01 -1.5285606682300568e-01</leafValues></_>
        <_>
          <internalNodes>
            0 -1 735 9.6436589956283569e-03</internalNodes>
          <leafValues>
            -1.6446365416049957e-01 2.3239158093929291e-01</leafValues></_>
        <_>
          <internalNodes>
            0 -1 830 -9.7525203600525856e-03</internalNodes>
          <leafValues>
            5.6215476989746094e-01 -7.5893990695476532e-02</leafValues></_>
        <_>
          <internalNodes>
            0 -1 776 -3.1601741909980774e-02</internalNodes>
          <leafValues>
            4.9766740202903748e-01 -8.0690294504165649e-02</leafValues></_>
        <_>
          <internalNodes>
            0 -1 605 -1.2803146615624428e-02</internalNodes>
          <leafValues>
            4.2346605658531189e-01 -9.8186381161212921e-02</leafValues></_>
        <_>
          <internalNodes>
            0 -1 70 -1.5189636498689651e-02</internalNodes>
          <leafValues>
            3.7945932149887085e-01 -1.1114440113306046e-01</leafValues></_>
        <_>
          <internalNodes>
            0 -1 665 5.2534684073179960e-04</internalNodes>
          <leafValues>
            -1.2985332310199738e-01 2.8474316000938416e-01</leafValues></_>
        <_>
          <internalNodes>
            0 -1 621 -1.9432066474109888e-03</internalNodes>
          <leafValues>
            4.7381848096847534e-01 -7.0335291326045990e-02</leafValues></_>
        <_>
          <internalNodes>
            0 -1 299 4.3752947822213173e-03</internalNodes>
          <leafValues>
            -1.9194133579730988e-01 1.8280556797981262e-01</leafValues></_>
        <_>
          <internalNodes>
            0 -1 472 3.5832906141877174e-03</internalNodes>
          <leafValues>
            7.2328336536884308e-02 -5.3556436300277710e-01</leafValues></_>
        <_>
          <internalNodes>
            0 -1 415 2.2420368622988462e-03</internalNodes>
          <leafValues>
            5.2041605114936829e-02 -6.7113089561462402e-01</leafValues></_>
        <_>
          <internalNodes>
            0 -1 615 5.3606356959789991e-04</internalNodes>
          <leafValues>
            -2.1020480990409851e-01 1.8643790483474731e-01</leafValues></_>
        <_>
          <internalNodes>
            0 -1 389 3.6104761064052582e-02</internalNodes>
          <leafValues>
            6.7652590572834015e-02 -6.5292900800704956e-01</leafValues></_>
        <_>
          <internalNodes>
            0 -1 64 2.0894217304885387e-03</internalNodes>
          <leafValues>
            -8.3088390529155731e-02 4.9552720785140991e-01</leafValues></_>
        <_>
          <internalNodes>
            0 -1 140 4.3780997395515442e-02</internalNodes>
          <leafValues>
            -5.2378751337528229e-02 6.8147039413452148e-01</leafValues></_>
        <_>
          <internalNodes>
            0 -1 144 -1.0528663173317909e-02</internalNodes>
          <leafValues>
            1.9503930211067200e-01 -1.9932106137275696e-01</leafValues></_>
        <_>
          <internalNodes>
            0 -1 559 7.6693883165717125e-03</internalNodes>
          <leafValues>
            -1.0557731240987778e-01 3.6977225542068481e-01</leafValues></_>
        <_>
          <internalNodes>
            0 -1 49 -1.1020952835679054e-02</internalNodes>
          <leafValues>
            2.8960254788398743e-01 -1.2094351649284363e-01</leafValues></_>
        <_>
          <internalNodes>
            0 -1 257 -1.4660768210887909e-02</internalNodes>
          <leafValues>
            4.3166130781173706e-01 -9.4737261533737183e-02</leafValues></_>
        <_>
          <internalNodes>
            0 -1 500 -5.6054845452308655e-02</internalNodes>
          <leafValues>
            -6.7088466882705688e-01 6.3052758574485779e-02</leafValues></_>
        <_>
          <internalNodes>
            0 -1 46 -6.7333127371966839e-03</internalNodes>
          <leafValues>
            4.8436692357063293e-01 -8.2088328897953033e-02</leafValues></_>
        <_>
          <internalNodes>
            0 -1 818 -2.7091646916233003e-04</internalNodes>
          <leafValues>
            -2.7261942625045776e-01 1.4335803687572479e-01</leafValues></_>
        <_>
          <internalNodes>
            0 -1 569 -1.8348463345319033e-03</internalNodes>
          <leafValues>
            2.7574771642684937e-01 -1.4069221913814545e-01</leafValues></_>
        <_>
          <internalNodes>
            0 -1 68 -1.5272105520125479e-04</internalNodes>
          <leafValues>
            -2.6761808991432190e-01 1.5632714331150055e-01</leafValues></_>
        <_>
          <internalNodes>
            0 -1 733 1.9092980772256851e-02</internalNodes>
          <leafValues>
            4.4416744261980057e-02 -8.7762778997421265e-01</leafValues></_>
        <_>
          <internalNodes>
            0 -1 201 -4.0149614214897156e-02</internalNodes>
          <leafValues>
            2.3046334087848663e-01 -1.7335151135921478e-01</leafValues></_>
        <_>
          <internalNodes>
            0 -1 175 2.9626889954670332e-05</internalNodes>
          <leafValues>
            -2.5163355469703674e-01 2.0184899866580963e-01</leafValues></_>
        <_>
          <internalNodes>
            0 -1 645 5.9073336888104677e-04</internalNodes>
          <leafValues>
            -1.8183498084545135e-01 2.1528293192386627e-01</leafValues></_>
        <_>
          <internalNodes>
            0 -1 717 5.7751433923840523e-03</internalNodes>
          <leafValues>
            8.6364433169364929e-02 -4.1531258821487427e-01</leafValues></_>
        <_>
          <internalNodes>
            0 -1 777 3.0883345752954483e-02</internalNodes>
          <leafValues>
            -5.5814821273088455e-02 7.1059894561767578e-01</leafValues></_>
        <_>
          <internalNodes>
            0 -1 132 1.3381244614720345e-02</internalNodes>
          <leafValues>
            -6.2619894742965698e-02 5.0134313106536865e-01</leafValues></_>
        <_>
          <internalNodes>
            0 -1 286 -3.1668648123741150e-02</internalNodes>
          <leafValues>
            3.9958778023719788e-01 -9.5881208777427673e-02</leafValues></_>
        <_>
          <internalNodes>
            0 -1 37 1.7076435685157776e-01</internalNodes>
          <leafValues>
            -1.0743465274572372e-01 3.1978297233581543e-01</leafValues></_>
        <_>
          <internalNodes>
            0 -1 575 -6.3462052494287491e-03</internalNodes>
          <leafValues>
            4.0056407451629639e-01 -1.0672204196453094e-01</leafValues></_>
        <_>
          <internalNodes>
            0 -1 657 8.4513127803802490e-03</internalNodes>
          <leafValues>
            5.5195171386003494e-02 -8.1191498041152954e-01</leafValues></_>
        <_>
          <internalNodes>
            0 -1 704 1.6808032523840666e-03</internalNodes>
          <leafValues>
            -6.9236248731613159e-02 6.3269013166427612e-01</leafValues></_>
        <_>
          <internalNodes>
            0 -1 599 -8.8239670731127262e-05</internalNodes>
          <leafValues>
            -2.5158026814460754e-01 1.5135334432125092e-01</leafValues></_>
        <_>
          <internalNodes>
            0 -1 592 3.0026677995920181e-03</internalNodes>
          <leafValues>
            6.9761820137500763e-02 -5.6325161457061768e-01</leafValues></_>
        <_>
          <internalNodes>
            0 -1 825 -1.1828548740595579e-03</internalNodes>
          <leafValues>
            5.0177031755447388e-01 -7.7684916555881500e-02</leafValues></_>
        <_>
          <internalNodes>
            0 -1 613 6.5410108072683215e-04</internalNodes>
          <leafValues>
            -1.0973905771970749e-01 3.2411578297615051e-01</leafValues></_>
        <_>
          <internalNodes>
            0 -1 475 -3.6213203566148877e-04</internalNodes>
          <leafValues>
            -2.3047402501106262e-01 1.6882152855396271e-01</leafValues></_>
        <_>
          <internalNodes>
            0 -1 312 3.2255393452942371e-03</internalNodes>
          <leafValues>
            -1.8857038021087646e-01 2.1918328106403351e-01</leafValues></_>
        <_>
          <internalNodes>
            0 -1 304 -1.5806080773472786e-02</internalNodes>
          <leafValues>
            5.9178870916366577e-01 -7.6893724501132965e-02</leafValues></_></weakClassifiers></_>
    <!-- stage 14 -->
    <_>
      <maxWeakCount>51</maxWeakCount>
      <stageThreshold>-9.2993170022964478e-01</stageThreshold>
      <weakClassifiers>
        <_>
          <internalNodes>
            0 -1 109 4.5146441459655762e-01</internalNodes>
          <leafValues>
            2.3836389183998108e-01 7.3254084587097168e-01</leafValues></_>
        <_>
          <internalNodes>
            0 -1 327 1.0556582361459732e-02</internalNodes>
          <leafValues>
            -1.4418902993202209e-01 3.3860519528388977e-01</leafValues></_>
        <_>
          <internalNodes>
            0 -1 35 4.5797047205269337e-03</internalNodes>
          <leafValues>
            -1.5886120498180389e-01 3.8002285361289978e-01</leafValues></_>
        <_>
          <internalNodes>
            0 -1 155 -4.0708892047405243e-02</internalNodes>
          <leafValues>
            1.5748463571071625e-01 -3.5069048404693604e-01</leafValues></_>
        <_>
          <internalNodes>
            0 -1 250 -5.7631344534456730e-03</internalNodes>
          <leafValues>
            -6.4770054817199707e-01 4.9276269972324371e-02</leafValues></_>
        <_>
          <internalNodes>
            0 -1 720 2.1603679284453392e-02</internalNodes>
          <leafValues>
            5.4279945790767670e-02 -7.0565724372863770e-01</leafValues></_>
        <_>
          <internalNodes>
            0 -1 833 -1.1725863441824913e-02</internalNodes>
          <leafValues>
            2.9950308799743652e-01 -1.3178288936614990e-01</leafValues></_>
        <_>
          <internalNodes>
            0 -1 173 9.9901817739009857e-03</internalNodes>
          <leafValues>
            5.2870057523250580e-02 -6.8778544664382935e-01</leafValues></_>
        <_>
          <internalNodes>
            0 -1 58 -1.2737696524709463e-03</internalNodes>
          <leafValues>
            3.4597101807594299e-01 -1.1492206901311874e-01</leafValues></_>
        <_>
          <internalNodes>
            0 -1 499 -1.6647623851895332e-03</internalNodes>
          <leafValues>
            2.2352108359336853e-01 -1.6299642622470856e-01</leafValues></_>
        <_>
          <internalNodes>
            0 -1 326 -2.8112307190895081e-03</internalNodes>
          <leafValues>
            2.4109546840190887e-01 -1.6973648965358734e-01</leafValues></_>
        <_>
          <internalNodes>
            0 -1 769 -3.6106429994106293e-02</internalNodes>
          <leafValues>
            4.3017631769180298e-01 -8.7078250944614410e-02</leafValues></_>
        <_>
          <internalNodes>
            0 -1 723 -2.7044363319873810e-02</internalNodes>
          <leafValues>
            2.2813384234905243e-01 -1.8209578096866608e-01</leafValues></_>
        <_>
          <internalNodes>
            0 -1 296 3.9770077913999557e-02</internalNodes>
          <leafValues>
            -1.1265721917152405e-01 3.4652027487754822e-01</leafValues></_>
        <_>
          <internalNodes>
            0 -1 309 1.1436091735959053e-02</internalNodes>
          <leafValues>
            -2.1442693471908569e-01 1.9947850704193115e-01</leafValues></_>
        <_>
          <internalNodes>
            0 -1 650 1.3940601609647274e-02</internalNodes>
          <leafValues>
            -1.4011898636817932e-01 2.8696176409721375e-01</leafValues></_>
        <_>
          <internalNodes>
            0 -1 521 3.1717997044324875e-03</internalNodes>
          <leafValues>
            -8.0832637846469879e-02 4.6523410081863403e-01</leafValues></_>
        <_>
          <internalNodes>
            0 -1 238 1.5696096234023571e-03</internalNodes>
          <leafValues>
            -1.3322627544403076e-01 2.7205616235733032e-01</leafValues></_>
        <_>
          <internalNodes>
            0 -1 377 2.1863935980945826e-03</internalNodes>
          <leafValues>
            6.8841591477394104e-02 -5.5000841617584229e-01</leafValues></_>
        <_>
          <internalNodes>
            0 -1 447 -4.9739621579647064e-02</internalNodes>
          <leafValues>
            -6.0444599390029907e-01 5.5430650711059570e-02</leafValues></_>
        <_>
          <internalNodes>
            0 -1 423 -6.5403566695749760e-03</internalNodes>
          <leafValues>
            4.1624915599822998e-01 -9.3010157346725464e-02</leafValues></_>
        <_>
          <internalNodes>
            0 -1 69 -1.9491760758683085e-04</internalNodes>
          <leafValues>
            -2.9095312952995300e-01 1.4794687926769257e-01</leafValues></_>
        <_>
          <internalNodes>
            0 -1 174 1.1449992656707764e-02</internalNodes>
          <leafValues>
            5.4233811795711517e-02 -6.9613379240036011e-01</leafValues></_>
        <_>
          <internalNodes>
            0 -1 560 -1.1464815586805344e-02</internalNodes>
          <leafValues>
            -6.0095560550689697e-01 6.0751337558031082e-02</leafValues></_>
        <_>
          <internalNodes>
            0 -1 598 1.2247784435749054e-01</internalNodes>
          <leafValues>
            4.6451069414615631e-02 -6.7194926738739014e-01</leafValues></_>
        <_>
          <internalNodes>
            0 -1 2 2.1538367867469788e-01</internalNodes>
          <leafValues>
            3.9135999977588654e-02 -7.0510452985763550e-01</leafValues></_>
        <_>
          <internalNodes>
