<?xml version="1.0"?>
<opencv_storage>
<cascade>
  <stageType>BOOST</stageType>
  <featureType>HAAR</featureType>
  <height>28</height>
  <width>23</width>
  <stageParams>
    <boostType>GAB</boostType>
    <minHitRate>9.9900001287460327e-01</minHitRate>
    <maxFalseAlarm>5.0000000000000000e-01</maxFalseAlarm>
    <weightTrimRate>9.4999999999999996e-01</weightTrimRate>
    <maxDepth>1</maxDepth>
    <maxWeakCount>5</maxWeakCount></stageParams>
  <featureParams>
    <maxCatCount>0</maxCatCount>
    <featSize>1</featSize>
    <mode>ALL</mode></featureParams>
  <stageNum>30</stageNum>
  <stages>
    <!-- stage 0 -->
    <_>
      <maxWeakCount>5</maxWeakCount>
      <stageThreshold>-2.1603300571441650e+00</stageThreshold>
      <weakClassifiers>
        <_>
          <internalNodes>
            0 -1 30 -1.0908465832471848e-02</internalNodes>
          <leafValues>
            7.2472470998764038e-01 -5.5860346555709839e-01</leafValues></_>
        <_>
          <internalNodes>
            0 -1 70 -2.5180257856845856e-02</internalNodes>
          <leafValues>
            5.0931680202484131e-01 -6.4492475986480713e-01</leafValues></_>
        <_>
          <internalNodes>
            0 -1 49 2.4860017001628876e-02</internalNodes>
          <leafValues>
            -3.5726237297058105e-01 6.8936747312545776e-01</leafValues></_>
        <_>
          <internalNodes>
            0 -1 11 1.3906182721257210e-02</internalNodes>
          <leafValues>
            -3.9029541611671448e-01 5.5122274160385132e-01</leafValues></_>
        <_>
          <internalNodes>
            0 -1 108 -1.7670307308435440e-02</internalNodes>
          <leafValues>
            7.9804414510726929e-01 -2.0924402773380280e-01</leafValues></_></weakClassifiers></_>
    <!-- stage 1 -->
    <_>
      <maxWeakCount>5</maxWeakCount>
      <stageThreshold>-2.2771575450897217e+00</stageThreshold>
      <weakClassifiers>
        <_>
          <internalNodes>
            0 -1 69 -1.3321962207555771e-02</internalNodes>
          <leafValues>
            6.9554811716079712e-01 -6.3713079690933228e-01</leafValues></_>
        <_>
          <internalNodes>
            0 -1 39 -1.0744407773017883e-02</internalNodes>
          <leafValues>
            4.8026466369628906e-01 -5.6461578607559204e-01</leafValues></_>
        <_>
          <internalNodes>
            0 -1 10 1.4804419130086899e-02</internalNodes>
          <leafValues>
            -3.8163685798645020e-01 6.2129914760589600e-01</leafValues></_>
        <_>
          <internalNodes>
            0 -1 67 2.3367188870906830e-02</internalNodes>
          <leafValues>
            -3.8672772049903870e-01 5.5250954627990723e-01</leafValues></_>
        <_>
          <internalNodes>
            0 -1 97 -2.2723155096173286e-02</internalNodes>
          <leafValues>
            5.7661956548690796e-01 -3.0704644322395325e-01</leafValues></_></weakClassifiers></_>
    <!-- stage 2 -->
    <_>
      <maxWeakCount>5</maxWeakCount>
      <stageThreshold>-1.8846212625503540e+00</stageThreshold>
      <weakClassifiers>
        <_>
          <internalNodes>
            0 -1 92 -2.0842146128416061e-02</internalNodes>
          <leafValues>
            8.1668627262115479e-01 -3.5519126057624817e-01</leafValues></_>
        <_>
          <internalNodes>
            0 -1 13 1.0296155698597431e-02</internalNodes>
          <leafValues>
            -4.0442407131195068e-01 6.6626828908920288e-01</leafValues></_>
        <_>
          <internalNodes>
            0 -1 58 2.7367379516363144e-02</internalNodes>
          <leafValues>
            -3.4111016988754272e-01 7.0092225074768066e-01</leafValues></_>
        <_>
          <internalNodes>
            0 -1 106 -4.8640649765729904e-03</internalNodes>
          <leafValues>
            5.3481566905975342e-01 -4.0548992156982422e-01</leafValues></_>
        <_>
          <internalNodes>
            0 -1 87 6.7999726161360741e-04</internalNodes>
          <leafValues>
            -3.7840580940246582e-01 5.5945038795471191e-01</leafValues></_></weakClassifiers></_>
    <!-- stage 3 -->
    <_>
      <maxWeakCount>5</maxWeakCount>
      <stageThreshold>-1.2427784204483032e+00</stageThreshold>
      <weakClassifiers>
        <_>
          <internalNodes>
            0 -1 7 3.5535857081413269e-02</internalNodes>
          <leafValues>
            -4.4545453786849976e-01 7.2500002384185791e-01</leafValues></_>
        <_>
          <internalNodes>
            0 -1 102 -1.2467866763472557e-02</internalNodes>
          <leafValues>
            6.5345251560211182e-01 -4.3595570325851440e-01</leafValues></_>
        <_>
          <internalNodes>
            0 -1 68 1.8763069063425064e-02</internalNodes>
          <leafValues>
            -3.1731674075126648e-01 6.5307712554931641e-01</leafValues></_>
        <_>
          <internalNodes>
            0 -1 83 4.2791347950696945e-03</internalNodes>
          <leafValues>
            -3.2575166225433350e-01 5.9760004281997681e-01</leafValues></_>
        <_>
          <internalNodes>
            0 -1 32 -5.6842635385692120e-03</internalNodes>
          <leafValues>
            2.9152497649192810e-01 -6.4165151119232178e-01</leafValues></_></weakClassifiers></_>
    <!-- stage 4 -->
    <_>
      <maxWeakCount>5</maxWeakCount>
      <stageThreshold>-1.9334802627563477e+00</stageThreshold>
      <weakClassifiers>
        <_>
          <internalNodes>
            0 -1 54 -2.3836195468902588e-02</internalNodes>
          <leafValues>
            6.6205251216888428e-01 -5.4893618822097778e-01</leafValues></_>
        <_>
          <internalNodes>
            0 -1 104 -1.8733048811554909e-02</internalNodes>
          <leafValues>
            6.2552785873413086e-01 -3.6316964030265808e-01</leafValues></_>
        <_>
          <internalNodes>
            0 -1 59 2.4535857141017914e-02</internalNodes>
          <leafValues>
            -3.5934367775917053e-01 6.5213596820831299e-01</leafValues></_>
        <_>
          <internalNodes>
            0 -1 3 1.1029189452528954e-02</internalNodes>
          <leafValues>
            -2.5696563720703125e-01 6.2718594074249268e-01</leafValues></_>
        <_>
          <internalNodes>
            0 -1 37 2.5213288143277168e-02</internalNodes>
          <leafValues>
            -4.0506520867347717e-01 3.8767409324645996e-01</leafValues></_></weakClassifiers></_>
    <!-- stage 5 -->
    <_>
      <maxWeakCount>5</maxWeakCount>
      <stageThreshold>-2.0192880630493164e+00</stageThreshold>
      <weakClassifiers>
        <_>
          <internalNodes>
            0 -1 70 -1.9380077719688416e-02</internalNodes>
          <leafValues>
            6.5533524751663208e-01 -5.6891494989395142e-01</leafValues></_>
        <_>
          <internalNodes>
            0 -1 8 2.7753282338380814e-02</internalNodes>
          <leafValues>
            -4.1918909549713135e-01 5.8580183982849121e-01</leafValues></_>
        <_>
          <internalNodes>
            0 -1 64 1.2409935006871819e-03</internalNodes>
          <leafValues>
            -3.6529588699340820e-01 4.9034461379051208e-01</leafValues></_>
        <_>
          <internalNodes>
            0 -1 91 -2.8495589271187782e-02</internalNodes>
          <leafValues>
            6.4924073219299316e-01 -2.7470970153808594e-01</leafValues></_>
        <_>
          <internalNodes>
            0 -1 76 7.7573070302605629e-03</internalNodes>
          <leafValues>
            -3.9117833971977234e-01 5.4112720489501953e-01</leafValues></_></weakClassifiers></_>
    <!-- stage 6 -->
    <_>
      <maxWeakCount>5</maxWeakCount>
      <stageThreshold>-2.0327522754669189e+00</stageThreshold>
      <weakClassifiers>
        <_>
          <internalNodes>
            0 -1 70 -2.5388460606336594e-02</internalNodes>
          <leafValues>
            6.9975310564041138e-01 -5.3806453943252563e-01</leafValues></_>
        <_>
          <internalNodes>
            0 -1 13 1.0630992241203785e-02</internalNodes>
          <leafValues>
            -4.1533234715461731e-01 6.5612286329269409e-01</leafValues></_>
        <_>
          <internalNodes>
            0 -1 78 2.2627804428339005e-02</internalNodes>
          <leafValues>
            -3.1174558401107788e-01 6.4253169298171997e-01</leafValues></_>
        <_>
          <internalNodes>
            0 -1 101 -1.3989281840622425e-02</internalNodes>
          <leafValues>
            5.9844303131103516e-01 -2.8174218535423279e-01</leafValues></_>
        <_>
          <internalNodes>
            0 -1 23 -1.3557270169258118e-02</internalNodes>
          <leafValues>
            3.2917916774749756e-01 -4.8586767911911011e-01</leafValues></_></weakClassifiers></_>
    <!-- stage 7 -->
    <_>
      <maxWeakCount>5</maxWeakCount>
      <stageThreshold>-1.2256326675415039e+00</stageThreshold>
      <weakClassifiers>
        <_>
          <internalNodes>
            0 -1 55 -2.5676809251308441e-02</internalNodes>
          <leafValues>
            6.8146717548370361e-01 -5.6593406200408936e-01</leafValues></_>
        <_>
          <internalNodes>
            0 -1 15 1.1986780911684036e-02</internalNodes>
          <leafValues>
            -3.9277651906013489e-01 6.6772919893264771e-01</leafValues></_>
        <_>
          <internalNodes>
            0 -1 88 -3.5442784428596497e-02</internalNodes>
          <leafValues>
            7.3924160003662109e-01 -3.0093973875045776e-01</leafValues></_>
        <_>
          <internalNodes>
            0 -1 57 -1.0585611686110497e-02</internalNodes>
          <leafValues>
            3.7413877248764038e-01 -5.5230998992919922e-01</leafValues></_>
        <_>
          <internalNodes>
            0 -1 28 -1.8278963863849640e-02</internalNodes>
          <leafValues>
            6.1906015872955322e-01 -3.4012115001678467e-01</leafValues></_></weakClassifiers></_>
    <!-- stage 8 -->
    <_>
      <maxWeakCount>5</maxWeakCount>
      <stageThreshold>-1.6451487541198730e+00</stageThreshold>
      <weakClassifiers>
        <_>
          <internalNodes>
            0 -1 96 -1.5273336321115494e-02</internalNodes>
          <leafValues>
            7.0519620180130005e-01 -3.6105033755302429e-01</leafValues></_>
        <_>
          <internalNodes>
            0 -1 4 1.9013717770576477e-01</internalNodes>
          <leafValues>
            -2.7993169426918030e-01 7.6672917604446411e-01</leafValues></_>
        <_>
          <internalNodes>
            0 -1 11 1.5585675835609436e-02</internalNodes>
          <leafValues>
            -3.3635747432708740e-01 5.7290166616439819e-01</leafValues></_>
        <_>
          <internalNodes>
            0 -1 66 9.1421939432621002e-03</internalNodes>
          <leafValues>
            -2.9249161481857300e-01 6.1530303955078125e-01</leafValues></_>
        <_>
          <internalNodes>
            0 -1 111 -6.4668301492929459e-03</internalNodes>
          <leafValues>
            4.3675887584686279e-01 -3.7531757354736328e-01</leafValues></_></weakClassifiers></_>
    <!-- stage 9 -->
    <_>
      <maxWeakCount>5</maxWeakCount>
      <stageThreshold>-2.0124537944793701e+00</stageThreshold>
      <weakClassifiers>
        <_>
          <internalNodes>
            0 -1 94 -2.3454640060663223e-02</internalNodes>
          <leafValues>
            7.5386375188827515e-01 -3.0104464292526245e-01</leafValues></_>
        <_>
          <internalNodes>
            0 -1 19 2.4092376232147217e-02</internalNodes>
          <leafValues>
            -4.8036655783653259e-01 5.0196164846420288e-01</leafValues></_>
        <_>
          <internalNodes>
            0 -1 24 -1.3426094315946102e-02</internalNodes>
          <leafValues>
            3.5419875383377075e-01 -5.5514556169509888e-01</leafValues></_>
        <_>
          <internalNodes>
            0 -1 0 2.2401850670576096e-02</internalNodes>
          <leafValues>
            -3.0671018362045288e-01 5.7708686590194702e-01</leafValues></_>
        <_>
          <internalNodes>
            0 -1 79 1.0849566198885441e-02</internalNodes>
          <leafValues>
            -3.6918693780899048e-01 4.6704038977622986e-01</leafValues></_></weakClassifiers></_>
    <!-- stage 10 -->
    <_>
      <maxWeakCount>5</maxWeakCount>
      <stageThreshold>-1.2711224555969238e+00</stageThreshold>
      <weakClassifiers>
        <_>
          <internalNodes>
            0 -1 95 -2.8875783085823059e-02</internalNodes>
          <leafValues>
            7.8042960166931152e-01 -2.7402135729789734e-01</leafValues></_>
        <_>
          <internalNodes>
            0 -1 59 3.2979059964418411e-02</internalNodes>
          <leafValues>
            -2.2538100183010101e-01 7.1507418155670166e-01</leafValues></_>
        <_>
          <internalNodes>
            0 -1 14 1.4976229518651962e-02</internalNodes>
          <leafValues>
            -3.9645349979400635e-01 5.3955715894699097e-01</leafValues></_>
        <_>
          <internalNodes>
            0 -1 29 -8.3087719976902008e-03</internalNodes>
          <leafValues>
            2.8197064995765686e-01 -6.3951414823532104e-01</leafValues></_>
        <_>
          <internalNodes>
            0 -1 81 -3.5892983432859182e-03</internalNodes>
          <leafValues>
            2.6424762606620789e-01 -6.2881720066070557e-01</leafValues></_></weakClassifiers></_>
    <!-- stage 11 -->
    <_>
      <maxWeakCount>5</maxWeakCount>
      <stageThreshold>-1.8836841583251953e+00</stageThreshold>
      <weakClassifiers>
        <_>
          <internalNodes>
            0 -1 95 -2.5789884850382805e-02</internalNodes>
          <leafValues>
            7.1959459781646729e-01 -2.7148437500000000e-01</leafValues></_>
        <_>
          <internalNodes>
            0 -1 61 1.6429832205176353e-02</internalNodes>
          <leafValues>
            -2.8614726662635803e-01 7.1245086193084717e-01</leafValues></_>
        <_>
          <internalNodes>
            0 -1 12 1.4892416074872017e-02</internalNodes>
          <leafValues>
            -4.0448081493377686e-01 5.1009249687194824e-01</leafValues></_>
        <_>
          <internalNodes>
            0 -1 25 -5.8022020384669304e-03</internalNodes>
          <leafValues>
            3.0034467577934265e-01 -5.9107995033264160e-01</leafValues></_>
        <_>
          <internalNodes>
            0 -1 47 2.5967473164200783e-02</internalNodes>
          <leafValues>
            -3.3049172163009644e-01 5.6093293428421021e-01</leafValues></_></weakClassifiers></_>
    <!-- stage 12 -->
    <_>
      <maxWeakCount>5</maxWeakCount>
      <stageThreshold>-1.8060384988784790e+00</stageThreshold>
      <weakClassifiers>
        <_>
          <internalNodes>
            0 -1 96 -2.2738873958587646e-02</internalNodes>
          <leafValues>
            7.4178671836853027e-01 -2.6948356628417969e-01</leafValues></_>
        <_>
          <internalNodes>
            0 -1 85 5.2253305912017822e-03</internalNodes>
          <leafValues>
            -3.6394792795181274e-01 6.6194432973861694e-01</leafValues></_>
        <_>
          <internalNodes>
            0 -1 9 1.7234139144420624e-02</internalNodes>
          <leafValues>
            -5.5608946084976196e-01 4.5826053619384766e-01</leafValues></_>
        <_>
          <internalNodes>
            0 -1 3 1.4570796862244606e-02</internalNodes>
          <leafValues>
            -2.5936314463615417e-01 7.6377034187316895e-01</leafValues></_>
        <_>
          <internalNodes>
            0 -1 64 1.4909162418916821e-03</internalNodes>
          <leafValues>
            -3.5715433955192566e-01 4.8043200373649597e-01</leafValues></_></weakClassifiers></_>
    <!-- stage 13 -->
    <_>
      <maxWeakCount>5</maxWeakCount>
      <stageThreshold>-1.7241327762603760e+00</stageThreshold>
      <weakClassifiers>
        <_>
          <internalNodes>
            0 -1 93 -1.9750863313674927e-02</internalNodes>
          <leafValues>
            7.4055272340774536e-01 -3.0477118492126465e-01</leafValues></_>
        <_>
          <internalNodes>
            0 -1 5 4.0330760180950165e-02</internalNodes>
          <leafValues>
            -3.7619540095329285e-01 5.7559770345687866e-01</leafValues></_>
        <_>
          <internalNodes>
            0 -1 80 1.8229706212878227e-02</internalNodes>
          <leafValues>
            -2.9304006695747375e-01 5.4469144344329834e-01</leafValues></_>
        <_>
          <internalNodes>
            0 -1 17 -3.5270946100354195e-03</internalNodes>
          <leafValues>
            6.0349166393280029e-01 -2.2326193749904633e-01</leafValues></_>
        <_>
          <internalNodes>
            0 -1 45 6.0072531923651695e-03</internalNodes>
          <leafValues>
            -5.2686423063278198e-01 2.9280146956443787e-01</leafValues></_></weakClassifiers></_>
    <!-- stage 14 -->
    <_>
      <maxWeakCount>5</maxWeakCount>
      <stageThreshold>-1.1443634033203125e+00</stageThreshold>
      <weakClassifiers>
        <_>
          <internalNodes>
            0 -1 94 -1.7954412847757339e-02</internalNodes>
          <leafValues>
            7.2015124559402466e-01 -3.5089567303657532e-01</leafValues></_>
        <_>
          <internalNodes>
            0 -1 86 6.6816094331443310e-03</internalNodes>
          <leafValues>
            -3.5541954636573792e-01 6.6846746206283569e-01</leafValues></_>
        <_>
          <internalNodes>
            0 -1 11 9.7997561097145081e-03</internalNodes>
          <leafValues>
            -4.7106271982192993e-01 5.1615452766418457e-01</leafValues></_>
        <_>
          <internalNodes>
            0 -1 75 -2.0342130213975906e-02</internalNodes>
          <leafValues>
            6.9087195396423340e-01 -2.9138475656509399e-01</leafValues></_>
        <_>
          <internalNodes>
            0 -1 82 -5.2821803838014603e-03</internalNodes>
          <leafValues>
            3.2439926266670227e-01 -5.6165218353271484e-01</leafValues></_></weakClassifiers></_>
    <!-- stage 15 -->
    <_>
      <maxWeakCount>5</maxWeakCount>
      <stageThreshold>-1.5601460933685303e+00</stageThreshold>
      <weakClassifiers>
        <_>
          <internalNodes>
            0 -1 20 6.6174723207950592e-02</internalNodes>
          <leafValues>
            -2.6600000262260437e-01 7.0333331823348999e-01</leafValues></_>
        <_>
          <internalNodes>
            0 -1 103 -1.6985502094030380e-02</internalNodes>
          <leafValues>
            5.6636297702789307e-01 -3.6673340201377869e-01</leafValues></_>
        <_>
          <internalNodes>
            0 -1 52 1.5140503644943237e-02</internalNodes>
          <leafValues>
            -3.1625762581825256e-01 5.1384508609771729e-01</leafValues></_>
        <_>
          <internalNodes>
            0 -1 16 -2.4284921586513519e-02</internalNodes>
          <leafValues>
            5.8541327714920044e-01 -2.6387777924537659e-01</leafValues></_>
        <_>
          <internalNodes>
            0 -1 53 9.3610202893614769e-03</internalNodes>
          <leafValues>
            -3.4727728366851807e-01 3.2190001010894775e-01</leafValues></_></weakClassifiers></_>
    <!-- stage 16 -->
    <_>
      <maxWeakCount>5</maxWeakCount>
      <stageThreshold>-1.9198726415634155e+00</stageThreshold>
      <weakClassifiers>
        <_>
          <internalNodes>
            0 -1 43 5.8598279953002930e-02</internalNodes>
          <leafValues>
            -2.5888323783874512e-01 6.9146007299423218e-01</leafValues></_>
        <_>
          <internalNodes>
            0 -1 102 -1.2469634413719177e-02</internalNodes>
          <leafValues>
            4.7365555167198181e-01 -3.9278623461723328e-01</leafValues></_>
        <_>
          <internalNodes>
            0 -1 81 -3.4863399341702461e-03</internalNodes>
          <leafValues>
            2.9654091596603394e-01 -6.4592677354812622e-01</leafValues></_>
        <_>
          <internalNodes>
            0 -1 74 1.6598402289673686e-03</internalNodes>
          <leafValues>
            -3.6180064082145691e-01 4.9124443531036377e-01</leafValues></_>
        <_>
          <internalNodes>
            0 -1 84 -4.5550428330898285e-02</internalNodes>
          <leafValues>
            6.1577725410461426e-01 -2.6047581434249878e-01</leafValues></_></weakClassifiers></_>
    <!-- stage 17 -->
    <_>
      <maxWeakCount>5</maxWeakCount>
      <stageThreshold>-1.2415665388107300e+00</stageThreshold>
      <weakClassifiers>
        <_>
          <internalNodes>
            0 -1 109 4.9900375306606293e-02</internalNodes>
          <leafValues>
            -1.7431192100048065e-01 6.9590646028518677e-01</leafValues></_>
        <_>
          <internalNodes>
            0 -1 105 -1.4096930623054504e-02</internalNodes>
          <leafValues>
            5.4351353645324707e-01 -3.6607316136360168e-01</leafValues></_>
        <_>
          <internalNodes>
            0 -1 50 1.9323732703924179e-02</internalNodes>
          <leafValues>
            -3.0537965893745422e-01 6.1986732482910156e-01</leafValues></_>
        <_>
          <internalNodes>
            0 -1 46 2.9430426657199860e-02</internalNodes>
          <leafValues>
            -2.1360872685909271e-01 6.5286731719970703e-01</leafValues></_>
        <_>
          <internalNodes>
            0 -1 22 -1.5476149320602417e-01</internalNodes>
          <leafValues>
            8.4416073560714722e-01 -1.8219304084777832e-01</leafValues></_></weakClassifiers></_>
    <!-- stage 18 -->
    <_>
      <maxWeakCount>5</maxWeakCount>
      <stageThreshold>-1.8203901052474976e+00</stageThreshold>
      <weakClassifiers>
        <_>
          <internalNodes>
            0 -1 96 -1.6179487109184265e-02</internalNodes>
          <leafValues>
            6.6998428106307983e-01 -3.1313130259513855e-01</leafValues></_>
        <_>
          <internalNodes>
            0 -1 77 1.2268484570086002e-02</internalNodes>
          <leafValues>
            -3.5770276188850403e-01 6.1552590131759644e-01</leafValues></_>
        <_>
          <internalNodes>
            0 -1 13 1.3355230912566185e-02</internalNodes>
          <leafValues>
            -4.1105118393898010e-01 5.3499680757522583e-01</leafValues></_>
        <_>
          <internalNodes>
            0 -1 73 1.4552094507962465e-03</internalNodes>
          <leafValues>
            -3.1367281079292297e-01 4.9674886465072632e-01</leafValues></_>
        <_>
          <internalNodes>
            0 -1 34 1.3814115896821022e-02</internalNodes>
          <leafValues>
            -4.2483204603195190e-01 3.2942301034927368e-01</leafValues></_></weakClassifiers></_>
    <!-- stage 19 -->
    <_>
      <maxWeakCount>5</maxWeakCount>
      <stageThreshold>-1.4863277673721313e+00</stageThreshold>
      <weakClassifiers>
        <_>
          <internalNodes>
            0 -1 103 -1.1495114304125309e-02</internalNodes>
          <leafValues>
            6.8988764286041260e-01 -2.2352941334247589e-01</leafValues></_>
        <_>
          <internalNodes>
            0 -1 4 1.9224347174167633e-01</internalNodes>
          <leafValues>
            -2.9887464642524719e-01 7.1667170524597168e-01</leafValues></_>
        <_>
          <internalNodes>
            0 -1 18 -1.3753043487668037e-02</internalNodes>
          <leafValues>
            5.6576716899871826e-01 -3.0328655242919922e-01</leafValues></_>
        <_>
          <internalNodes>
            0 -1 65 1.6058381646871567e-02</internalNodes>
          <leafValues>
            -3.1066280603408813e-01 5.2098947763442993e-01</leafValues></_>
        <_>
          <internalNodes>
            0 -1 111 -7.2769336402416229e-03</internalNodes>
          <leafValues>
            4.5441854000091553e-01 -3.4997439384460449e-01</leafValues></_></weakClassifiers></_>
    <!-- stage 20 -->
    <_>
      <maxWeakCount>5</maxWeakCount>
      <stageThreshold>-1.6619412899017334e+00</stageThreshold>
      <weakClassifiers>
        <_>
          <internalNodes>
            0 -1 21 6.6079609096050262e-02</internalNodes>
          <leafValues>
            -2.6824033260345459e-01 6.6916489601135254e-01</leafValues></_>
        <_>
          <internalNodes>
            0 -1 27 1.0171480476856232e-01</internalNodes>
          <leafValues>
            -3.1792494654655457e-01 5.4765933752059937e-01</leafValues></_>
        <_>
          <internalNodes>
            0 -1 72 4.0187110425904393e-04</internalNodes>
          <leafValues>
            -3.9957910776138306e-01 3.9355024695396423e-01</leafValues></_>
        <_>
          <internalNodes>
            0 -1 103 -1.8812898546457291e-02</internalNodes>
          <leafValues>
            4.3451794981956482e-01 -3.6806723475456238e-01</leafValues></_>
        <_>
          <internalNodes>
            0 -1 107 -1.4278734102845192e-02</internalNodes>
          <leafValues>
            3.8880544900894165e-01 -3.0812963843345642e-01</leafValues></_></weakClassifiers></_>
    <!-- stage 21 -->
    <_>
      <maxWeakCount>5</maxWeakCount>
      <stageThreshold>-2.0264155864715576e+00</stageThreshold>
      <weakClassifiers>
        <_>
          <internalNodes>
            0 -1 38 -1.2436568737030029e-02</internalNodes>
          <leafValues>
            6.0450917482376099e-01 -4.2771983146667480e-01</leafValues></_>
        <_>
          <internalNodes>
            0 -1 61 1.5241106972098351e-02</internalNodes>
          <leafValues>
            -3.3811852335929871e-01 6.5505707263946533e-01</leafValues></_>
        <_>
          <internalNodes>
            0 -1 102 -1.1875338852405548e-02</internalNodes>
          <leafValues>
            5.1803624629974365e-01 -4.8121082782745361e-01</leafValues></_>
        <_>
          <internalNodes>
            0 -1 0 2.8240565210580826e-02</internalNodes>
          <leafValues>
            -2.7098968625068665e-01 6.4960610866546631e-01</leafValues></_>
        <_>
          <internalNodes>
            0 -1 110 -3.6421971162781119e-04</internalNodes>
          <leafValues>
            3.1328469514846802e-01 -5.0837671756744385e-01</leafValues></_></weakClassifiers></_>
    <!-- stage 22 -->
    <_>
      <maxWeakCount>5</maxWeakCount>
      <stageThreshold>-1.6024245023727417e+00</stageThreshold>
      <weakClassifiers>
        <_>
          <internalNodes>
            0 -1 96 -2.2181082516908646e-02</internalNodes>
          <leafValues>
            7.1218961477279663e-01 -2.5486379861831665e-01</leafValues></_>
        <_>
          <internalNodes>
            0 -1 59 3.2075166702270508e-02</internalNodes>
          <leafValues>
            -2.7744966745376587e-01 7.2947216033935547e-01</leafValues></_>
        <_>
          <internalNodes>
            0 -1 36 1.2647900730371475e-02</internalNodes>
          <leafValues>
            -5.0999188423156738e-01 3.8530755043029785e-01</leafValues></_>
        <_>
          <internalNodes>
            0 -1 71 -4.1368035599589348e-03</internalNodes>
          <leafValues>
            5.3681510686874390e-01 -2.7488508820533752e-01</leafValues></_>
        <_>
          <internalNodes>
            0 -1 18 -1.9794754683971405e-02</internalNodes>
          <leafValues>
            4.9693554639816284e-01 -2.8523406386375427e-01</leafValues></_></weakClassifiers></_>
    <!-- stage 23 -->
    <_>
      <maxWeakCount>5</maxWeakCount>
      <stageThreshold>-1.8625553846359253e+00</stageThreshold>
      <weakClassifiers>
        <_>
          <internalNodes>
            0 -1 49 2.1204847842454910e-02</internalNodes>
          <leafValues>
            -7.1629211306571960e-02 8.0087208747863770e-01</leafValues></_>
        <_>
          <internalNodes>
            0 -1 26 -1.4129072427749634e-02</internalNodes>
          <leafValues>
            4.2944175004959106e-01 -5.0832414627075195e-01</leafValues></_>
        <_>
          <internalNodes>
            0 -1 99 -2.3199060931801796e-02</internalNodes>
          <leafValues>
            5.8217352628707886e-01 -3.3267620205879211e-01</leafValues></_>
        <_>
          <internalNodes>
            0 -1 35 1.5368208289146423e-02</internalNodes>
          <leafValues>
            -5.7533746957778931e-01 3.3567893505096436e-01</leafValues></_>
        <_>
          <internalNodes>
            0 -1 73 1.4301543124020100e-03</internalNodes>
          <leafValues>
            -3.7458834052085876e-01 4.7149041295051575e-01</leafValues></_></weakClassifiers></_>
    <!-- stage 24 -->
    <_>
      <maxWeakCount>5</maxWeakCount>
      <stageThreshold>-1.6933538913726807e+00</stageThreshold>
      <weakClassifiers>
        <_>
          <internalNodes>
            0 -1 8 2.8405746445059776e-02</internalNodes>
          <leafValues>
            -2.2252011299133301e-01 7.4301010370254517e-01</leafValues></_>
        <_>
          <internalNodes>
            0 -1 103 -1.5693292021751404e-02</internalNodes>
          <leafValues>
            5.4979068040847778e-01 -3.3609142899513245e-01</leafValues></_>
        <_>
          <internalNodes>
            0 -1 44 1.8817517906427383e-02</internalNodes>
          <leafValues>
            -3.5418003797531128e-01 6.0565793514251709e-01</leafValues></_>
        <_>
          <internalNodes>
            0 -1 41 1.1011725291609764e-02</internalNodes>
          <leafValues>
            -4.9295064806938171e-01 3.4085148572921753e-01</leafValues></_>
        <_>
          <internalNodes>
            0 -1 63 1.1690905317664146e-02</internalNodes>
          <leafValues>
            -2.8761172294616699e-01 5.0079703330993652e-01</leafValues></_></weakClassifiers></_>
    <!-- stage 25 -->
    <_>
      <maxWeakCount>5</maxWeakCount>
      <stageThreshold>-1.4924983978271484e+00</stageThreshold>
      <weakClassifiers>
        <_>
          <internalNodes>
            0 -1 51 2.4883486330509186e-02</internalNodes>
          <leafValues>
            -6.7400276660919189e-02 8.1575036048889160e-01</leafValues></_>
        <_>
          <internalNodes>
            0 -1 32 -1.6687743365764618e-02</internalNodes>
          <leafValues>
            5.0141835212707520e-01 -4.8301243782043457e-01</leafValues></_>
        <_>
          <internalNodes>
            0 -1 98 -2.5837142020463943e-02</internalNodes>
          <leafValues>
            6.0299772024154663e-01 -3.2593044638633728e-01</leafValues></_>
        <_>
          <internalNodes>
            0 -1 42 2.8563864529132843e-02</internalNodes>
          <leafValues>
            -2.7503782510757446e-01 7.1981793642044067e-01</leafValues></_>
        <_>
          <internalNodes>
            0 -1 2 1.6655746847391129e-02</internalNodes>
          <leafValues>
            -3.4111732244491577e-01 5.6182134151458740e-01</leafValues></_></weakClassifiers></_>
    <!-- stage 26 -->
    <_>
      <maxWeakCount>5</maxWeakCount>
      <stageThreshold>-1.3337459564208984e+00</stageThreshold>
      <weakClassifiers>
        <_>
          <internalNodes>
            0 -1 8 2.8809316456317902e-02</internalNodes>
          <leafValues>
            -2.0287252962589264e-01 7.2716486454010010e-01</leafValues></_>
        <_>
          <internalNodes>
            0 -1 90 -2.6871599256992340e-02</internalNodes>
          <leafValues>
            6.5673005580902100e-01 -3.3028292655944824e-01</leafValues></_>
        <_>
          <internalNodes>
            0 -1 60 3.7054806947708130e-02</internalNodes>
          <leafValues>
            -3.1711944937705994e-01 6.8995153903961182e-01</leafValues></_>
        <_>
          <internalNodes>
            0 -1 40 -5.1497880369424820e-02</internalNodes>
          <leafValues>
            6.5229755640029907e-01 -2.6121696829795837e-01</leafValues></_>
        <_>
          <internalNodes>
            0 -1 33 3.6578021943569183e-02</internalNodes>
          <leafValues>
            -2.2225406765937805e-01 7.1584033966064453e-01</leafValues></_></weakClassifiers></_>
    <!-- stage 27 -->
    <_>
      <maxWeakCount>5</maxWeakCount>
      <stageThreshold>-1.6675779819488525e+00</stageThreshold>
      <weakClassifiers>
        <_>
          <internalNodes>
            0 -1 8 3.0183967202901840e-02</internalNodes>
          <leafValues>
            -1.8766519427299500e-01 7.2852849960327148e-01</leafValues></_>
        <_>
          <internalNodes>
            0 -1 95 -3.5466507077217102e-02</internalNodes>
          <leafValues>
            5.9833097457885742e-01 -3.5546407103538513e-01</leafValues></_>
        <_>
          <internalNodes>
            0 -1 52 1.7572766169905663e-02</internalNodes>
          <leafValues>
            -3.0654501914978027e-01 5.5184054374694824e-01</leafValues></_>
        <_>
          <internalNodes>
            0 -1 56 -1.2229864485561848e-02</internalNodes>
          <leafValues>
            3.1918329000473022e-01 -4.7347950935363770e-01</leafValues></_>
        <_>
          <internalNodes>
            0 -1 111 -9.2097576707601547e-03</internalNodes>
          <leafValues>
            4.0685555338859558e-01 -3.4442412853240967e-01</leafValues></_></weakClassifiers></_>
    <!-- stage 28 -->
    <_>
      <maxWeakCount>5</maxWeakCount>
      <stageThreshold>-1.6797423362731934e+00</stageThreshold>
      <weakClassifiers>
        <_>
          <internalNodes>
            0 -1 89 -4.0080007165670395e-02</internalNodes>
          <leafValues>
            7.3638969659805298e-01 -2.7014216780662537e-01</leafValues></_>
        <_>
          <internalNodes>
            0 -1 6 3.6929868161678314e-02</internalNodes>
          <leafValues>
            -2.9559025168418884e-01 5.8668607473373413e-01</leafValues></_>
        <_>
          <internalNodes>
            0 -1 100 -2.3091457784175873e-02</internalNodes>
          <leafValues>
            7.1759641170501709e-01 -2.1190260350704193e-01</leafValues></_>
        <_>
          <internalNodes>
            0 -1 65 1.5875101089477539e-02</internalNodes>
          <leafValues>
            -3.4200158715248108e-01 5.1616096496582031e-01</leafValues></_>
        <_>
          <internalNodes>
            0 -1 29 -9.2212744057178497e-03</internalNodes>
          <leafValues>
            2.9422682523727417e-01 -5.6010568141937256e-01</leafValues></_></weakClassifiers></_>
    <!-- stage 29 -->
    <_>
      <maxWeakCount>5</maxWeakCount>
      <stageThreshold>-1.7740737199783325e+00</stageThreshold>
      <weakClassifiers>
        <_>
          <internalNodes>
            0 -1 90 -2.0270010456442833e-02</internalNodes>
          <leafValues>
            7.5715196132659912e-01 -1.5566422045230865e-01</leafValues></_>
        <_>
          <internalNodes>
            0 -1 31 -1.0624974966049194e-02</internalNodes>
          <leafValues>
            4.4560706615447998e-01 -5.8818405866622925e-01</leafValues></_>
        <_>
          <internalNodes>
            0 -1 1 2.1266823634505272e-02</internalNodes>
          <leafValues>
            -3.4366279840469360e-01 6.8737185001373291e-01</leafValues></_>
        <_>
          <internalNodes>
            0 -1 48 1.5327485278248787e-02</internalNodes>
          <leafValues>
            -3.5756850242614746e-01 6.1213314533233643e-01</leafValues></_>
        <_>
          <internalNodes>
            0 -1 62 7.5563937425613403e-03</internalNodes>
          <leafValues>
            -3.2899415493011475e-01 5.9892076253890991e-01</leafValues></_></weakClassifiers></_></stages>
  <features>
    <_>
      <rects>
        <_>
          0 1 6 16 -1.</_>
        <_>
          0 1 3 8 2.</_>
        <_>
          3 9 3 8 2.</_></rects>
      <tilted>0</tilted></_>
    <_>
      <rects>
        <_>
          0 2 6 14 -1.</_>
        <_>
          0 2 3 7 2.</_>
        <_>
          3 9 3 7 2.</_></rects>
      <tilted>0</tilted></_>
    <_>
      <rects>
        <_>
          0 2 6 16 -1.</_>
        <_>
          0 2 3 8 2.</_>
        <_>
          3 10 3 8 2.</_></rects>
      <tilted>0</tilted></_>
    <_>
      <rects>
        <_>
          0 3 4 14 -1.</_>
        <_>
          0 3 2 7 2.</_>
        <_>
          2 10 2 7 2.</_></rects>
      <tilted>0</tilted></_>
    <_>
      <rects>
        <_>
          0 5 21 9 -1.</_>
        <_>
          7 8 7 3 9.</_></rects>
      <tilted>0</tilted></_>
    <_>
      <rects>
        <_>
          0 7 16 11 -1.</_>
        <_>
          4 7 8 11 2.</_></rects>
      <tilted>0</tilted></_>
    <_>
      <rects>
        <_>
          0 7 8 12 -1.</_>
        <_>
          4 7 4 12 2.</_></rects>
      <tilted>0</tilted></_>
    <_>
      <rects>
        <_>
          0 7 21 8 -1.</_>
        <_>
          7 7 7 8 3.</_></rects>
      <tilted>0</tilted></_>
    <_>
      <rects>
        <_>
          0 8 8 12 -1.</_>
        <_>
          4 8 4 12 2.</_></rects>
      <tilted>0</tilted></_>
    <_>
      <rects>
        <_>
          0 9 16 9 -1.</_>
        <_>
          4 9 8 9 2.</_></rects>
      <tilted>0</tilted></_>
    <_>
      <rects>
        <_>
          0 10 6 6 -1.</_>
        <_>
          3 10 3 6 2.</_></rects>
      <tilted>0</tilted></_>
    <_>
      <rects>
        <_>
          0 10 6 8 -1.</_>
        <_>
          3 10 3 8 2.</_></rects>
      <tilted>0</tilted></_>
    <_>
      <rects>
        <_>
          0 10 6 9 -1.</_>
        <_>
          3 10 3 9 2.</_></rects>
      <tilted>0</tilted></_>
    <_>
      <rects>
        <_>
          0 11 6 7 -1.</_>
        <_>
          3 11 3 7 2.</_></rects>
      <tilted>0</tilted></_>
    <_>
      <rects>
        <_>
          0 11 6 8 -1.</_>
        <_>
          3 11 3 8 2.</_></rects>
      <tilted>0</tilted></_>
    <_>
      <rects>
        <_>
          0 12 6 7 -1.</_>
        <_>
          3 12 3 7 2.</_></rects>
      <tilted>0</tilted></_>
    <_>
      <rects>
        <_>
          0 12 6 16 -1.</_>
        <_>
          0 12 3 8 2.</_>
        <_>
          3 20 3 8 2.</_></rects>
      <tilted>0</tilted></_>
    <_>
      <rects>
        <_>
          0 13 2 12 -1.</_>
        <_>
          0 13 1 6 2.</_>
        <_>
          1 19 1 6 2.</_></rects>
      <tilted>0</tilted></_>
    <_>
      <rects>
        <_>
          0 14 6 14 -1.</_>
        <_>
          0 14 3 7 2.</_>
        <_>
          3 21 3 7 2.</_></rects>
      <tilted>0</tilted></_>
    <_>
      <rects>
        <_>
          1 6 16 11 -1.</_>
        <_>
          5 6 8 11 2.</_></rects>
      <tilted>0</tilted></_>
    <_>
      <rects>
        <_>
          1 6 20 16 -1.</_>
        <_>
          6 6 10 16 2.</_></rects>
      <tilted>0</tilted></_>
    <_>
      <rects>
        <_>
          1 6 20 18 -1.</_>
        <_>
          6 6 10 18 2.</_></rects>
      <tilted>0</tilted></_>
    <_>
      <rects>
        <_>
          2 0 17 15 -1.</_>
        <_>
          2 5 17 5 3.</_></rects>
      <tilted>0</tilted></_>
    <_>
      <rects>
        <_>
          2 15 11 8 -1.</_>
        <_>
          2 19 11 4 2.</_></rects>
      <tilted>0</tilted></_>
    <_>
      <rects>
        <_>
          2 15 14 8 -1.</_>
        <_>
          2 19 14 4 2.</_></rects>
      <tilted>0</tilted></_>
    <_>
      <rects>
        <_>
          2 16 16 6 -1.</_>
        <_>
          2 19 16 3 2.</_></rects>
      <tilted>0</tilted></_>
    <_>
      <rects>
        <_>
          2 16 19 6 -1.</_>
        <_>
          2 19 19 3 2.</_></rects>
      <tilted>0</tilted></_>
    <_>
      <rects>
        <_>
          3 1 14 24 -1.</_>
        <_>
          3 7 14 12 2.</_></rects>
      <tilted>0</tilted></_>
    <_>
      <rects>
        <_>
          3 2 8 3 -1.</_>
        <_>
          5 4 4 3 2.</_></rects>
      <tilted>1</tilted></_>
    <_>
      <rects>
        <_>
          3 15 15 8 -1.</_>
        <_>
          3 19 15 4 2.</_></rects>
      <tilted>0</tilted></_>
    <_>
      <rects>
        <_>
          3 15 16 8 -1.</_>
        <_>
          3 19 16 4 2.</_></rects>
      <tilted>0</tilted></_>
    <_>
      <rects>
        <_>
          3 16 17 6 -1.</_>
        <_>
          3 19 17 3 2.</_></rects>
      <tilted>0</tilted></_>
    <_>
      <rects>
        <_>
          3 16 18 6 -1.</_>
        <_>
          3 19 18 3 2.</_></rects>
      <tilted>0</tilted></_>
    <_>
      <rects>
        <_>
          4 1 11 9 -1.</_>
        <_>
          4 4 11 3 3.</_></rects>
      <tilted>0</tilted></_>
    <_>
      <rects>
        <_>
          4 2 12 11 -1.</_>
        <_>
          8 2 4 11 3.</_></rects>
      <tilted>0</tilted></_>
    <_>
      <rects>
        <_>
          4 4 15 12 -1.</_>
        <_>
          9 4 5 12 3.</_></rects>
      <tilted>0</tilted></_>
    <_>
      <rects>
        <_>
          4 8 12 4 -1.</_>
        <_>
          7 11 6 4 2.</_></rects>
      <tilted>1</tilted></_>
    <_>
      <rects>
        <_>
          4 11 14 12 -1.</_>
        <_>
          4 15 14 4 3.</_></rects>
      <tilted>0</tilted></_>
    <_>
      <rects>
        <_>
          4 15 15 8 -1.</_>
        <_>
          4 19 15 4 2.</_></rects>
      <tilted>0</tilted></_>
    <_>
      <rects>
        <_>
          4 16 17 6 -1.</_>
        <_>
          4 19 17 3 2.</_></rects>
      <tilted>0</tilted></_>
    <_>
      <rects>
        <_>
          5 0 14 12 -1.</_>
        <_>
          5 3 14 6 2.</_></rects>
      <tilted>0</tilted></_>
    <_>
      <rects>
        <_>
          5 3 12 13 -1.</_>
        <_>
          9 3 4 13 3.</_></rects>
      <tilted>0</tilted></_>
    <_>
      <rects>
        <_>
          5 3 13 8 -1.</_>
        <_>
          5 5 13 4 2.</_></rects>
      <tilted>0</tilted></_>
    <_>
      <rects>
        <_>
          6 2 13 24 -1.</_>
        <_>
          6 8 13 12 2.</_></rects>
      <tilted>0</tilted></_>
    <_>
      <rects>
        <_>
          6 5 10 8 -1.</_>
        <_>
          6 7 10 4 2.</_></rects>
      <tilted>0</tilted></_>
    <_>
      <rects>
        <_>
          6 6 12 10 -1.</_>
        <_>
          10 6 4 10 3.</_></rects>
      <tilted>0</tilted></_>
    <_>
      <rects>
        <_>
          7 2 8 9 -1.</_>
        <_>
          7 5 8 3 3.</_></rects>
      <tilted>0</tilted></_>
    <_>
      <rects>
        <_>
          7 2 9 9 -1.</_>
        <_>
          7 5 9 3 3.</_></rects>
      <tilted>0</tilted></_>
    <_>
      <rects>
        <_>
          7 3 7 9 -1.</_>
        <_>
          7 6 7 3 3.</_></rects>
      <tilted>0</tilted></_>
    <_>
      <rects>
        <_>
          7 5 7 9 -1.</_>
        <_>
          7 8 7 3 3.</_></rects>
      <tilted>0</tilted></_>
    <_>
      <rects>
        <_>
          7 5 8 8 -1.</_>
        <_>
          7 7 8 4 2.</_></rects>
      <tilted>0</tilted></_>
    <_>
      <rects>
        <_>
          7 5 8 9 -1.</_>
        <_>
          7 8 8 3 3.</_></rects>
      <tilted>0</tilted></_>
    <_>
      <rects>
        <_>
          7 5 9 8 -1.</_>
        <_>
          7 7 9 4 2.</_></rects>
      <tilted>0</tilted></_>
    <_>
      <rects>
        <_>
          7 7 9 9 -1.</_>
        <_>
          10 7 3 9 3.</_></rects>
      <tilted>0</tilted></_>
    <_>
      <rects>
        <_>
          7 7 16 10 -1.</_>
        <_>
          15 7 8 10 2.</_></rects>
      <tilted>0</tilted></_>
    <_>
      <rects>
        <_>
          7 7 16 11 -1.</_>
        <_>
          15 7 8 11 2.</_></rects>
      <tilted>0</tilted></_>
    <_>
      <rects>
        <_>
          7 14 12 8 -1.</_>
        <_>
          7 18 12 4 2.</_></rects>
      <tilted>0</tilted></_>
    <_>
      <rects>
        <_>
          7 14 13 8 -1.</_>
        <_>
          7 18 13 4 2.</_></rects>
      <tilted>0</tilted></_>
    <_>
      <rects>
        <_>
          8 1 8 10 -1.</_>
        <_>
          8 6 8 5 2.</_></rects>
      <tilted>0</tilted></_>
    <_>
      <rects>
        <_>
          8 2 7 8 -1.</_>
        <_>
          8 6 7 4 2.</_></rects>
      <tilted>0</tilted></_>
    <_>
      <rects>
        <_>
          8 2 7 12 -1.</_>
        <_>
          8 6 7 4 3.</_></rects>
      <tilted>0</tilted></_>
    <_>
      <rects>
        <_>
          8 5 8 8 -1.</_>
        <_>
          8 7 8 4 2.</_></rects>
      <tilted>0</tilted></_>
    <_>
      <rects>
        <_>
          8 6 2 9 -1.</_>
        <_>
          8 9 2 3 3.</_></rects>
      <tilted>0</tilted></_>
    <_>
      <rects>
        <_>
          8 13 6 6 -1.</_>
        <_>
          8 15 6 2 3.</_></rects>
      <tilted>0</tilted></_>
    <_>
      <rects>
        <_>
          8 13 8 2 -1.</_>
        <_>
          8 14 8 1 2.</_></rects>
      <tilted>0</tilted></_>
    <_>
      <rects>
        <_>
          9 3 5 9 -1.</_>
        <_>
          9 6 5 3 3.</_></rects>
      <tilted>0</tilted></_>
    <_>
      <rects>
        <_>
          9 4 5 8 -1.</_>
        <_>
          9 6 5 4 2.</_></rects>
      <tilted>0</tilted></_>
    <_>
      <rects>
        <_>
          9 5 6 9 -1.</_>
        <_>
          11 8 2 3 9.</_></rects>
      <tilted>0</tilted></_>
    <_>
      <rects>
        <_>
          9 5 6 9 -1.</_>
        <_>
          9 8 6 3 3.</_></rects>
      <tilted>0</tilted></_>
    <_>
      <rects>
        <_>
          9 7 14 9 -1.</_>
        <_>
          16 7 7 9 2.</_></rects>
      <tilted>0</tilted></_>
    <_>
      <rects>
        <_>
          9 7 14 10 -1.</_>
        <_>
          16 7 7 10 2.</_></rects>
      <tilted>0</tilted></_>
    <_>
      <rects>
        <_>
          9 11 7 4 -1.</_>
        <_>
          9 12 7 2 2.</_></rects>
      <tilted>0</tilted></_>
    <_>
      <rects>
        <_>
          9 13 5 2 -1.</_>
        <_>
          9 14 5 1 2.</_></rects>
      <tilted>0</tilted></_>
    <_>
      <rects>
        <_>
          9 13 6 2 -1.</_>
        <_>
          9 14 6 1 2.</_></rects>
      <tilted>0</tilted></_>
    <_>
      <rects>
        <_>
          9 13 7 2 -1.</_>
        <_>
          9 14 7 1 2.</_></rects>
      <tilted>0</tilted></_>
    <_>
      <rects>
        <_>
          10 0 12 8 -1.</_>
        <_>
          10 0 6 4 2.</_>
        <_>
          16 4 6 4 2.</_></rects>
      <tilted>0</tilted></_>
    <_>
      <rects>
        <_>
          10 1 3 8 -1.</_>
        <_>
          10 5 3 4 2.</_></rects>
      <tilted>0</tilted></_>
    <_>
      <rects>
        <_>
          10 1 3 10 -1.</_>
        <_>
          10 6 3 5 2.</_></rects>
      <tilted>0</tilted></_>
    <_>
      <rects>
        <_>
          10 2 5 8 -1.</_>
        <_>
          10 6 5 4 2.</_></rects>
      <tilted>0</tilted></_>
    <_>
      <rects>
        <_>
          10 4 6 9 -1.</_>
        <_>
          10 7 6 3 3.</_></rects>
      <tilted>0</tilted></_>
    <_>
      <rects>
        <_>
          10 5 5 9 -1.</_>
        <_>
          10 8 5 3 3.</_></rects>
      <tilted>0</tilted></_>
    <_>
      <rects>
        <_>
          10 6 8 10 -1.</_>
        <_>
          14 6 4 10 2.</_></rects>
      <tilted>0</tilted></_>
    <_>
      <rects>
        <_>
          10 8 8 8 -1.</_>
        <_>
          14 8 4 8 2.</_></rects>
      <tilted>0</tilted></_>
    <_>
      <rects>
        <_>
          10 12 3 6 -1.</_>
        <_>
          10 14 3 2 3.</_></rects>
      <tilted>0</tilted></_>
    <_>
      <rects>
        <_>
          11 0 12 12 -1.</_>
        <_>
          11 0 6 6 2.</_>
        <_>
          17 6 6 6 2.</_></rects>
      <tilted>0</tilted></_>
    <_>
      <rects>
        <_>
          11 5 4 8 -1.</_>
        <_>
          11 7 4 4 2.</_></rects>
      <tilted>0</tilted></_>
    <_>
      <rects>
        <_>
          11 5 5 8 -1.</_>
        <_>
          11 7 5 4 2.</_></rects>
      <tilted>0</tilted></_>
    <_>
      <rects>
        <_>
          11 13 4 2 -1.</_>
        <_>
          11 14 4 1 2.</_></rects>
      <tilted>0</tilted></_>
    <_>
      <rects>
        <_>
          13 0 10 12 -1.</_>
        <_>
          13 0 5 6 2.</_>
        <_>
          18 6 5 6 2.</_></rects>
      <tilted>0</tilted></_>
    <_>
      <rects>
        <_>
          13 8 10 13 -1.</_>
        <_>
          18 8 5 13 2.</_></rects>
      <tilted>0</tilted></_>
    <_>
      <rects>
        <_>
          15 0 8 16 -1.</_>
        <_>
          15 0 4 8 2.</_>
        <_>
          19 8 4 8 2.</_></rects>
      <tilted>0</tilted></_>
    <_>
      <rects>
        <_>
          15 2 8 12 -1.</_>
        <_>
          15 2 4 6 2.</_>
        <_>
          19 8 4 6 2.</_></rects>
      <tilted>0</tilted></_>
    <_>
      <rects>
        <_>
          15 2 8 6 -1.</_>
        <_>
          15 2 8 3 2.</_></rects>
      <tilted>1</tilted></_>
    <_>
      <rects>
        <_>
          15 9 8 9 -1.</_>
        <_>
          19 9 4 9 2.</_></rects>
      <tilted>0</tilted></_>
    <_>
      <rects>
        <_>
          15 9 8 10 -1.</_>
        <_>
          19 9 4 10 2.</_></rects>
      <tilted>0</tilted></_>
    <_>
      <rects>
        <_>
          15 9 8 11 -1.</_>
        <_>
          19 9 4 11 2.</_></rects>
      <tilted>0</tilted></_>
    <_>
      <rects>
        <_>
          15 10 8 9 -1.</_>
        <_>
          19 10 4 9 2.</_></rects>
      <tilted>0</tilted></_>
    <_>
      <rects>
        <_>
          17 0 6 18 -1.</_>
        <_>
          17 0 3 9 2.</_>
        <_>
          20 9 3 9 2.</_></rects>
      <tilted>0</tilted></_>
    <_>
      <rects>
        <_>
          17 1 6 16 -1.</_>
        <_>
          17 1 3 8 2.</_>
        <_>
          20 9 3 8 2.</_></rects>
      <tilted>0</tilted></_>
    <_>
      <rects>
        <_>
          17 2 6 16 -1.</_>
        <_>
          17 2 3 8 2.</_>
        <_>
          20 10 3 8 2.</_></rects>
      <tilted>0</tilted></_>
    <_>
      <rects>
        <_>
          17 4 6 12 -1.</_>
        <_>
          17 4 3 6 2.</_>
        <_>
          20 10 3 6 2.</_></rects>
      <tilted>0</tilted></_>
    <_>
      <rects>
        <_>
          17 5 6 12 -1.</_>
        <_>
          17 5 3 6 2.</_>
        <_>
          20 11 3 6 2.</_></rects>
      <tilted>0</tilted></_>
    <_>
      <rects>
        <_>
          17 11 6 7 -1.</_>
        <_>
          20 11 3 7 2.</_></rects>
      <tilted>0</tilted></_>
    <_>
      <rects>
        <_>
          17 11 6 8 -1.</_>
        <_>
          20 11 3 8 2.</_></rects>
      <tilted>0</tilted></_>
    <_>
      <rects>
        <_>
          17 11 6 9 -1.</_>
        <_>
          20 11 3 9 2.</_></rects>
      <tilted>0</tilted></_>
    <_>
      <rects>
        <_>
          17 12 6 7 -1.</_>
        <_>
          20 12 3 7 2.</_></rects>
      <tilted>0</tilted></_>
    <_>
      <rects>
        <_>
          17 13 6 3 -1.</_>
        <_>
          20 13 3 3 2.</_></rects>
      <tilted>0</tilted></_>
    <_>
      <rects>
        <_>
          18 0 3 16 -1.</_>
        <_>
          18 4 3 8 2.</_></rects>
      <tilted>0</tilted></_>
    <_>
      <rects>
        <_>
          18 3 4 14 -1.</_>
        <_>
          18 3 2 7 2.</_>
        <_>
          20 10 2 7 2.</_></rects>
      <tilted>0</tilted></_>
    <_>
      <rects>
        <_>
          20 3 3 20 -1.</_>
        <_>
          15 8 3 10 2.</_></rects>
      <tilted>1</tilted></_>
    <_>
      <rects>
        <_>
          20 6 1 14 -1.</_>
        <_>
          20 6 1 7 2.</_></rects>
      <tilted>1</tilted></_>
    <_>
      <rects>
        <_>
          22 0 1 12 -1.</_>
        <_>
          19 3 1 6 2.</_></rects>
      <tilted>1</tilted></_></features></cascade>
</opencv_storage>
